encog,BasicNetwork,java,3.2.0,1,1451405191557
[BASIC]
[BASIC:PARAMS]
[BASIC:NETWORK]
beginTraining=0
connectionLimit=0
contextTargetOffset=0,0,0,0
contextTargetSize=0,0,0,0
endTraining=3
hasContext=f
inputCount=51
layerCounts=1,52,52,52
layerFeedCounts=1,51,51,51
layerContextCount=0,0,0,0
layerIndex=0,1,53,105
output=0,0,0,0,0,0,0,0,0,0,0,0,0,0,0,0,0,0,0,0,0,0,0,0,0,0,0,0,0,0,0,0,0,0,0,0,0,0,0,0,0,0,0,0,0,0,0,0,0,0,0,0,1,0,0,0,0,0,0,0,0,0,0,0,0,0,0,0,0,0,0,0,0,0,0,0,0,0,0,0,0,0,0,0,0,0,0,0,0,0,0,0,0,0,0,0,0,0,0,0,0,0,0,0,1,0,0,0,0,0,0,0,0,0,0,0,0,0,0,0,0,0,0,0,0,0,0,0,0,0,0,0,0,0,0,0,0,0,0,0,0,0,0,0,0,0,0,0,0,0,0,0,0,0,0,0,1
outputCount=1
weightIndex=0,52,2704,5356
weights=##0
##double#5356
   -0.5298424562,-0.0161917906,-0.0045754483,0.7432779041,-0.0547375896,-0.8052685009,0.9037314914,-0.3489515016,0.0291714731,-0.9567184737,-0.8957994194,0.2553387958,-0.5444426494,0.2871272632,-0.1207170266,0.6404435918,0.6735391346,0.7027593976,0.3950281496,0.8942816448,-0.109470933,0.3182784201,0.3874852842,-0.0113553011,-0.1681239021,0.7770420848,0.1127764897,-0.6003191172,0.1860563129,-0.574077756,0.2795919327,-0.187637517,-0.7958397618,0.2219210615,0.1828568259,0.7526880917,-0.5775729785,-0.9491034048,-0.2426797043,0.4913691304,-0.0234245148,0.5521477623,0.7698161248,-0.9372492507,-0.5233179437,-0.95739133,-0.1310546326,0.7427171007,0.9113555727,-0.365597668,-0.2890691555,-0.1706690153,-0.056613303,0.4285252191,0.576682547,-0.9579422334,-0.1370963578,0.5555611666,-0.809584212,0.0204139662,-0.242082435,-0.0607366131,0.5906184594,-0.8235552134,-0.8840432106,-0.0560678688,-0.1266796815,0.1999776711,-0.5697206849,0.0690834096,-0.6584862903,0.2415563085,-0.1090871443,-0.8863664381,0.2772482893,0.0600236443,-0.2856332467,0.0646932034,-0.5069773741,0.3478392617,0.2682657678,-0.0077794564,0.5687226801,-0.7346188602,-0.35284426,-0.269215917,-0.8196428478,-0.2845182128,-0.1442688678,-0.3703153169,-0.5731602874,0.3894487483,0.2557344407,-0.8473129887,-0.4389318995,0.115819487,0.4327774857,-0.391389638,-0.9684498985,0.5431006452,-0.8606654252,0.7940288507,0.2408263998,-0.3122583263,0.5679853355,-0.4733279968,-0.4754794474,-0.6293152288,0.6957792604,0.2742164653,-0.299531064,0.3815656981,0.0209230613,-0.9793222386,-0.6885607142,0.6947255905,-0.4129197598,-0.4903046383,-0.2156079291,0.1632208792,0.4726051559,-0.788292254,-0.2658841769,0.4402102294,-1.1985927189,0.6575705704,-0.690947666,0.0030023908,-0.6309501623,-0.2454032959,0.4804812252,-0.4498490743,-0.0846671984,0.7412681465,-0.9436861083,0.1778458101,-0.4253897128,-1.0631301876,-0.2992531742,0.2418519096,0.5350923055,-0.0577047993,0.741024309,0.3112443319,-0.5616191049,-0.5517260717,-0.9574395169,-0.8798093476,0.5504906328,-0.6927288516,0.7336707983,-1.0759699827,0.2356035133,-0.9746911626,-0.9388371717,0.1658991189,-0.0961117945,-0.8238474207,0.6314421032,0.6474245835,0.2306723786,-0.8446338979,-0.0786967301,0.0566692716,0.5048265743,-0.4051010051,0.3698460382,-0.6285101987,-0.4540247839,0.4818733168,0.7498923109,-0.1566523211,-0.3379226155,-0.2528403998,-1.141695787,0.3762541535,-0.2288690838,0.3172567357,0.6484303825,-0.6645139615,0.5834233823,-0.7498437727,0.18872413,0.0184109072,-0.7494200614,-0.513559172,0.6037834824,0.0686716615,0.3876580546,0.246867545,-0.3459369061,0.6149804789,-0.1254608887,-0.3923149761,-0.8894919629,0.4157721318,-0.6571331188,0.2849353068,0.5803594661,-0.209033317,0.7547828785,-0.8410100361,-0.0596178458,0.6220915571,-0.0202914155,0.5705706032,0.0337639111,0.2020129832,-0.8075199704,-0.4784746155,0.6840486596,-0.7027240893,-0.0478597542,0.9831696264,0.2362169859,0.6918951319,0.2355241536,0.8432122375,0.9084255802,-0.1321562839,-0.9203079864,0.7387291192,0.5835255658,-0.8947245846,-0.1834121847,-0.0550888984,-0.2000914671,-0.0744527106,0.5262863453,-0.0325288291,-0.1243479539,0.6787441195,0.0898496343,-0.7106514298,0.0853995264,0.3011246983,-0.8769572228,0.1779597772,0.9212245098,0.8987399945,0.5721591286,0.9592463542,-0.0312707208,-0.6865268102,0.2532048713,0.6647696755,0.4296278743,-0.6722484039,-0.8843070361,0.4581025297,-0.1779365286,-0.3358195586,0.5122964609,-0.2532324049,-0.110089856,0.4363485359,-0.7443887945,0.3859727921,0.2523089939,0.2070558097,-0.2664587894,-0.8882868599,-0.5060944051,0.1200428494,-0.8371000147,0.4686885785,0.5402375764,-0.6823695546,-0.447026691,0.208010736,0.0139305392,-0.4031180219,0.6501167153,0.3400446224,-0.8955027868,0.5421637689,-0.4187066579,0.3085887796,-0.7126075939,0.3766589725,0.695504598,0.7507629778,-1.206626646,0.6900287105,0.7626426981,-0.9247447152,-1.1740930507,0.6875575783,-0.81398492,0.6401785139,-0.0671261582,0.4920335283,0.384790694,-1.1882139605,0.4388194146,0.5296121278,-0.9973818369,0.6852969985,0.3440016365,-0.4690848087,0.0986658275,0.7490808547,-0.4035142116,-0.8213862108,-0.0226663467,0.2734513479,-0.8564639349,-1.0672543703,-1.1871129747,-0.2946801866,0.6685540515,0.0650168173,-0.6022954424,-0.0312197537,0.3275661751,-0.0965542665,-0.040246126,0.9731953656,0.9095085268,-0.4089487571,-0.755168776,-0.1746457958,-0.0813382247,-0.9630863652,-0.2295153074,0.311048637,0.6395989996,-0.2488290559,-0.4868524437,0.2611068532,0.2159859895,-0.2304726935,0.3115806685,0.816652148,0.9983595689,0.9058164358,-0.7707007853,0.895533585,-0.5709847118,0.8463619742,-0.5927661517,-0.9838214642,0.7452544984,0.9923847206,0.437876196,0.1351170957,-0.7177592087,0.4567067305,-0.2078412592,0.6544283693,-0.3432841746,0.1210022939,0.3303190817,0.2553586371,-0.3871754835,0.159845786,0.4279985645,0.7143613947,0.8112996113,-0.0621936063,0.7488252906,-0.6421907352,-0.6567443702,0.6858397181,-0.7754611731,-0.3764469631,-0.372604159,0.6665765908,0.1397840714,-0.1777049739,0.2573762804,-0.0161338763,-0.894726383,-0.3087689847,0.7856962,-0.3121345638,-0.878604867,0.5113139352,0.2735457279,-0.7426003795,0.226553561,0.7576114009,-0.2134981056,0.9619050366,-0.5901091587,0.7000137208,-0.2601344542,-0.4216517451,0.0533025169,0.9316762793,-0.2110798669,0.8640043814,0.8090012073,-0.1435537066,-0.0796376236,-0.4336552525,-0.6811230391,0.6665239478,0.901154804,-0.7487160153,-0.3180955167,-0.1583921004,-0.2589498342,-0.2689635324,0.0758472362,0.7007751646,-0.6749622761,-0.6271678655,0.4395084156,-0.9616546286,0.8719614157,-0.9302583169,-0.3782211974,-0.6250206017,-0.6244401088,0.1548611413,-0.4773635938,-0.9221361433,0.0026081924,-0.5455976048,-0.5011820848,-0.0070019721,0.8442536587,-0.6979092634,0.2181230451,0.0219765639,0.2296735806,0.2196783692,0.9012744711,0.0442841181,0.6105743678,0.2660437141,0.0417838695,0.1799372656,-0.4855090183,-0.397525444,-0.9200978856,0.2041573541,-0.1259894304,-0.9256669185,-0.2300711533,-0.9149097693,0.752480471,0.1813927934,-0.9778685812,0.0508228445,-0.0025493994,-0.4069027019,0.5005232174,-0.9080532794,-0.1468997922,0.8649909729,-0.2422486449,0.3059183153,0.0628990077,-0.4874284988,-0.8116562552,0.9894662388,0.4937526894,-0.9011857095,0.5815655425,0.8852953594,0.8128827991,-0.5083812414,0.5551349673,-0.5106622208,0.2486909975,-0.0525735014,0.7494518058,-0.1142454536,-0.1969658977,-0.6885114954,0.7885273834,0.8311370541,0.599868819,0.1801550512,-0.7568070213,0.9806145378,-0.8021414042,-0.9385857591,0.2501010623,-0.8149252273,0.6940860487,-0.0051597792,0.7306865127,-0.5452087837,0.5954772363,0.092783931,0.2892379079,0.3462638262,0.6416776403,-0.3706376356,0.6871406892,-0.2388307432,0.8447250146,0.4946821997,-0.9504578016,-0.5613295696,0.6517691127,-0.9544521933,0.4606885955,0.9223354817,-0.3629117108,0.8839036333,-0.8958163573,0.2829160768,-0.3703470233,0.5942609584,0.6044193738,0.3782351113,-0.3175139635,0.9713590289,-0.2745713716,0.9314337787,0.7900699861,-0.2306894351,-0.9165905299,0.2088280155,0.7600510995,-0.4965183557,0.6205501476,0.0052104543,0.8985467148,0.3817862234,0.2441937414,-0.5924224364,0.3825009673,-0.8230570205,0.4381606536,-0.5400621755,-0.2301132752,0.0485095231,0.7115837461,0.1236583672,-0.3741366918,0.7141205314,-0.3499652155,-0.6535731828,-0.0575682258,0.0311125254,0.4927949471,0.6654007108,0.0194163604,0.6338529716,-0.487140295,-0.2697212187,0.9763053064,0.381616257,0.2309280832,0.4025441267,-0.3237989525,0.0232565419,-0.0053737096,0.5871292454,0.3431297879,-0.0150725136,0.9542157291,-0.5472470479,-0.3460395577,0.6870988514,0.9660353768,-0.8028208329,0.5861829597,0.2971199749,-0.5450714555,0.0136475794,-0.1972039843,-0.676419875,0.7669040108,0.4147261855,0.8555540857,0.9587157257,-0.2140774059,-0.4561743688,-0.3859113151,-0.5495641957,0.0599483715,-0.1104780517,0.3237270665,0.3202027272,0.5941407642,-0.0202492985,0.5753468768,-0.0549567135,-0.5635280259,-0.8801134871,0.7601324459,0.7138854195,-0.7012140308,0.9718942768,0.9707985604,-0.1904357726,0.4167838337,-0.014884711,-0.533931998,0.8651940492,-0.0919440056,-0.9014622411,0.8988209637,0.9701499031,0.034411324,0.2458016903,-0.5358336655,0.3069083098,-0.7252468843,0.6941881379,-0.3763151312,-0.8000025134,-0.3852480635,-0.2511571579,0.5620942217,0.8583069187,0.9595653526,-0.1465157632,0.0325858637,-0.4079936984,-0.9241454699,-0.3811541692,0.7470838716,-0.2146761341,0.9693477154,-0.1898970332,-0.0323244103,0.4064340688,0.7616857425,-0.5367502592,0.4434789301,-0.1679802176,-0.4042764454,-0.5516076613,0.7299708179,0.5924773523,0.5956769459,0.1026614176,-0.7278587901,0.6264966083,0.3369515132,-0.380150203,-0.1847167525,-0.872240256,0.9483815045,0.4566210861,0.7316660839,-0.4358887536,0.0381331372,0.225698158,0.3360866432,0.659613558,-0.093282705,0.1808485033,-0.5583442458,-0.5159753835,0.3283615972,0.1999164557,-0.8129313429,0.305947271,0.6819918439,0.6721522938,-0.3333901137,0.3659005676,0.7130728368,-0.8039117832,0.3941425284,-0.7744370843,0.7075585746,-0.5057888016,-0.8676681453,-0.1505628724,-0.6407981775,-0.5493172895,-0.8816466694,-0.9248126703,-0.8885269407,0.6783553268,0.2173349963,0.6288977553,0.2682136472,0.0567115063,-0.1181249435,0.7545681609,-0.8124875905,0.3698747292,-0.5342174195,0.1308734299,0.4790390496,-0.9013254195,0.8109353259,-0.23781466,-0.7515216763,-0.5409422646,-0.6447866693,0.1434079327,-0.2114809205,-0.6762069277,-0.6660866778,-0.8742086207,-0.0601838336,-0.2324843796,0.112390315,0.6484993653,0.7468742271,0.1176298785,0.7042460888,0.1791608457,0.0651033602,0.2923225112,-0.11868546,-0.6053438195,0.2752966609,0.7069344189,0.7816939093,0.1333876413,-0.2382203669,-0.4700578171,0.4220758806,-0.8497157069,-0.6895185201,0.5697988871,0.0206215603,0.7057912549,0.0831782676,0.5738843106,-0.4633656725,-0.4799066716,-0.6758420369,0.2208145003,-0.6667204391,0.1238230106,0.3286548828,-0.4533792803,-0.179144522,0.5161118003,-0.5919760623,0.0191261943,-0.6383393294,0.7168721146,-0.2114816297,0.8258856656,0.3485471144,-0.9976269626,-0.7594908596,0.2157799963,0.5365621302,-0.2514484453,0.0154691984,0.4570916005,0.4155781738,-0.3073958888,-0.1216778837,0.6847944808,-0.3442725947,-0.3886686604,-0.7137249028,-0.1134838567,0.7774456352,0.2787796611,0.2453863577,-0.8165786131,-0.672624357,0.6094297617,-0.1238831159,0.0622679673,-0.6586201246,-0.6068180561,-0.7808834323,0.7148841349,0.3759125139,-0.4716116454,-0.6875052889,0.14131805,-0.1109990792,-0.8408179157,0.0718249113,-0.8270909278,0.2520864609,-0.3766468543,-0.9958656831,-0.9284690763,-0.8260253053,-0.3829786762,-0.8196732201,0.3119934605,0.721439897,-0.5960788949,0.472406715,0.7279882407,0.4016191893,0.7599122323,-0.5999047071,0.1060042226,-0.0347708289,-0.0586098915,-0.1113388355,-0.8353683343,0.1848399758,-0.9272971023,-0.0519788882,-0.852613938,-0.0827573773,0.284386203,0.136241026,0.8648223928,-0.9066828186,-0.1597617397,0.9898337591,-0.1481162391,0.1903228115,-0.2922454884,0.3271038493,-0.3282655988,-0.1571403251,0.3531715482,0.8307891246,0.8973270613,-0.2512472731,0.0423704314,-0.1837508234,0.8019547588,-0.4738926211,-0.5711106117,0.5914507153,0.2900369161,-0.3222129618,-0.2897041178,0.3149997926,0.0993898672,0.3195625216,0.134168057,0.7584709059,-0.1937682599,0.8281833445,0.1349355581,-0.3662837705,-0.3610785793,0.2681826887,0.1089911207,-0.500332171,-0.6382234491,-0.3056123451,0.8045172086,0.0936320799,-0.6617925469,-0.0344215657,-0.979832537,-0.5282038654,-0.1076448469,0.9098194684,0.9815225778,0.1708998199,-0.7277577933,0.2579080475,0.1393753409,0.9173420802,0.1777268032,-0.7734958054,0.458426929,0.7171467994,-0.1509962606,-0.3147550773,0.0321550674,0.1080379954,-0.8780977265,-0.5609071338,-0.8198959282,-0.1451256087,-0.6437691491,-0.342830709,0.6838467614,0.8696933598,-0.3565812952,-0.0206785246,-0.6821317537,0.6376142431,0.199704334,0.331674469,-0.6683784047,0.92985105,-0.6488791466,-0.0175827749,0.0390053715,-0.914915476,-0.9834717778,-0.130926891,-0.8284869524,-0.9090427602,0.9401245438,-0.9135666177,-0.984792375,-0.3699211081,0.0538921396,-0.0172085355,0.0394909915,-0.6731449621,-0.6157836261,-0.7742785611,-0.1337894395,-0.0617463004,0.1479670781,-0.9474810664,-0.5835745362,0.277265542,0.3315071858,-0.1321086197,-0.8055303255,-0.0569935863,0.4251898046,0.7426152415,0.4433475149,-0.4355082394,0.2574646606,-0.4335098885,0.8528635385,0.7143329148,0.209843919,0.7618396952,-0.1482632112,0.148605258,-0.4060226212,-0.0361903443,0.0149494328,0.5291382623,0.4720870446,0.5737123451,0.6175797669,-0.7155225979,0.7020110697,0.5916684027,0.8663696008,0.7657679459,-0.5118929221,-0.3652047667,-0.1597239848,0.3538106166,0.2192648596,-0.452807641,-0.3287425049,-0.3083402187,-0.1773980644,-0.0221328435,-0.9786312659,-0.3924735886,-0.6466727698,0.5221180044,0.9088552911,0.1472012767,0.8518395228,-0.071464177,-0.3131089996,-0.1048501197,0.1012375101,0.8189358175,0.6471614446,0.2024621771,0.9976493707,-0.0580739004,-0.5096588436,0.4555293297,-0.9520865749,-0.2859546149,-0.7982960254,0.3349548423,-0.2753193204,-0.9207399376,0.174780268,-0.904049932,-0.664810765,-0.5319293606,-0.0106889627,-0.5985359074,-0.4400394199,-0.8625224381,0.749748893,0.7392979911,0.3176677533,0.673056411,-0.6094440952,0.9544534604,-0.8875746182,-0.0656075289,-0.1454516689,-0.0720341716,0.519751598,0.2251246779,-0.4494617827,0.9334714371,0.9674518248,0.9688489367,-0.003478125,-0.1470319594,-0.7630888959,-0.4743791254,0.8157950625,-0.3876691035,-0.1279189855,-0.8540634899,0.6956466738,0.573532693,-0.7761678798,0.9651845256,-0.5683738868,0.2379910665,-0.4977826112,0.8547280831,-0.3673527202,0.6262200288,-0.7898406451,-0.6928614633,0.1788261591,-0.4989034332,0.0781425045,0.8577042212,-0.1494908554,0.5266741215,0.4578900313,0.2071111135,-0.005589267,-0.2312070637,-0.2937250294,-0.798454625,0.5081105944,-0.5562627133,-0.4092842926,0.3264677644,0.9241600171,-0.6788104199,0.2473058582,-0.1296900746,-0.1249522714,-0.3122686672,-0.2770714712,-0.585657447,-0.2797249088,-0.7228589788,-0.3673950516,-0.1950345685,0.6167906713,-0.9262611908,0.9633274763,-0.7353306519,-0.1859658154,-0.9339750167,0.0407800616,-0.9176196167,-0.1660771941,0.0672767724,-0.8143084612,0.6532923443,-0.7243878277,-0.1852841394,-0.0523268154,-0.2908815414,0.9808677649,-0.2922622858,-0.2523551065,-0.4544178349,0.8015291253,0.0436488709,0.9488407094,0.4552559623,0.513744573,-0.4587734899,0.6757785491,-0.6404805844,-0.1804418818,-0.1611126007,-0.3374731935,0.868251543,0.3934182514,0.2487162131,0.0365178285,0.7985075688,0.6298586064,-0.4523967708,-0.555841735,0.6834300602,-0.7513994998,-0.913258601,0.424486298,-0.6973555674,-0.586672652,-0.9992672075,-0.5628742598,0.7653888347,0.5203809504,0.7975544189,-0.5492129851,0.1776284029,0.3136296578,-0.8893665801,-0.5014349952,-0.5755961024,-0.5182415893,0.6243669828,-0.5638164653,-0.166592941,0.2765137975,-0.3403929093,0.8588262447,0.9925583545,0.7357897455,-0.692584691,-0.8124817051,0.4020820296,-0.6037883301,-0.0819404752,0.6684950575,-0.5110519103,0.5777721139,0.2023956988,-0.6108597218,0.4187053366,-0.052223454,-0.2626389706,0.733186277,0.9164042193,0.3813169965,0.7038889927,0.0292735139,-0.2894334386,-0.2817699377,0.5134962545,0.174119538,-0.9935478368,-0.0522107079,0.4797914614,-0.4884526952,-0.1051277223,0.8523819423,-0.8088440964,0.7486228742,0.1027999611,0.6414201105,0.7408460555,-0.8098475225,0.9920273013,-0.3932637562,-0.5292320134,0.0727889671,0.2121195177,0.3307130219,0.385173655,0.2799976322,-0.0860840606,-0.5216023874,-0.4752634381,-0.9921942758,-0.2725944014,0.6972734983,-0.8993094312,-0.6640919609,-0.757909812,0.8487897068,0.9136248654,0.1392851256,-0.9661703464,0.8494880143,0.2294090682,0.7729732422,-0.1830849087,-0.6228604879,0.840669082,0.327962932,-0.2478673475,0.1111556122,-0.1469580203,-0.3144796876,0.1148543658,0.4617140217,-0.1945847373,0.6476802387,-0.1247616688,0.0156815962,0.6554004917,0.300161342,-0.528211709,-0.394415934,-0.3387087051,0.2639529452,-0.4404774251,-0.5921273626,0.6917557525,-0.0081761491,0.0140024202,-0.0232625308,-0.0054868485,0.7660030061,-0.0275303328,-0.3802819758,0.9552451218,0.5532820401,-0.8066561706,-0.9786397037,-0.122008859,-0.6262103202,0.5153285399,-0.478829088,0.5689406562,0.6117089609,0.1185424577,0.9061785829,0.6955369375,0.9626555829,0.0863111213,0.7679447443,0.741806155,-0.8252801047,-0.4800167246,-0.228004135,-0.2404419038,0.248367769,-0.070612035,-0.0339647883,-0.513430959,0.9382383521,-0.8944033957,0.3304671611,-0.0141360129,0.3616645796,-0.6196776064,-0.559371354,-0.3107042483,0.9099280569,0.305241606,0.2598799768,-0.2483290511,0.4934983155,0.4074867525,-0.1551949659,0.1216728406,0.6525064478,0.177561621,0.2437708418,0.2358310631,0.5637031136,-0.0540718094,0.3700965106,0.7417882289,0.4751509236,-0.1954845798,0.131081559,0.1571134029,-0.4000988033,0.2293999128,-0.4058563913,-0.1300875454,0.999905094,-0.4390915459,-0.5286845452,-1.0510235589,-0.8096777738,0.7724882404,0.2167612608,-0.6706966899,0.7147433019,-0.3773136233,-0.0564089478,0.2214515387,0.7779488514,0.2493001894,0.673210073,-0.7519702121,-1.0792910715,0.427552933,-0.1684073084,-0.8190994348,0.2207122283,-0.5642574915,-0.3150843909,-0.189557082,0.5588014356,0.0172775965,-1.0397146034,-1.1168254961,-0.1167445458,-0.885801837,-0.2698620898,-0.1110169617,-0.1216314915,-1.0965696557,0.7165595793,-0.0207828888,-0.0564238815,-0.8329742962,-0.3282194292,-1.2031136148,-1.1106220481,-0.4723651354,-1.0089101705,0.500221166,-0.743692448,-0.4195344821,0.2144219909,0.7608413447,0.6631989374,0.4529748057,0.5728661694,0.0177847212,0.0910000788,-1.1764539222,0.2363466244,-0.2822534026,0.8838829831,-0.7961458885,-0.6146872462,-0.2949102459,-0.6581811755,0.2595290316,-0.2387554895,0.5025217541,0.7764231138,-0.8958651856,0.0310612538,0.9116425765,0.6655672681,-0.917534743,-0.5803296183,0.3035025791,0.2026607304,-0.2310181803,0.8941896814,-0.1942637128,0.5038042892,0.7672521024,0.5107490843,0.9408680582,-0.3979472274,0.6011851969,-0.498473198,-0.1279603814,0.5100371208,-0.3956860866,-0.8667301675,0.9124094816,0.1321958287,-0.7866261177,-0.1314511567,0.454474232,0.307865769,-0.42757047,-0.1390025716,-0.024438306,-0.2335176149,0.8537969309,-0.6842142576,0.2757459682,-0.7238607369,-0.7979864669,0.7465785085,0.6044343458,-0.2332429232,-0.2928952373,0.6602273988,-0.8887805203,0.1573692437,0.7839459595,0.8334641344,-0.4125767638,0.7649028124,0.6120365694,-0.7108798944,0.2368613065,0.2300081912,0.1683477315,0.7775590792,0.719820117,0.4646445521,-0.6845674346,0.9521151949,0.5518335918,-0.76230297,-0.0464742293,0.8240861557,-0.8112338399,-0.8078113603,-0.653162429,0.5016248281,-0.7103698598,-0.3425859374,-0.5442929639,0.6141777187,0.1883874957,-0.0877546885,-0.9441352244,0.8287203256,0.1059859686,0.0558592703,0.9260550109,0.3640393651,-0.866120412,-0.857862893,-0.1147329824,0.9093118738,0.5202835532,-0.2660144356,0.9608259504,-0.1467688161,-0.7095865113,-0.4661698783,0.4685930334,-0.7700702235,0.7319590817,0.2465300363,0.2865251343,-0.7120509934,0.3925866483,-0.7624030439,-0.9196108947,0.0505499339,-0.6861291737,-0.0553327061,0.4375481483,-0.8775660582,0.3893779403,-0.7969920327,-0.1236099184,-0.6955764461,0.3771937171,0.35440107,-0.4366016922,0.0235631617,0.8394123688,-0.756784941,-0.8018703456,-0.4586683343,0.353684442,0.7800033907,0.0167544137,0.6803270471,0.097811546,-0.8484124755,0.4342682556,-0.7244396898,-0.7863620468,-0.7911256896,0.4816260178,0.6316088069,-0.1435109231,0.0636577432,-0.3059526303,0.7668789275,-0.663593179,-0.5743449041,0.6067443517,0.7262281742,0.2574318087,0.7110274298,-0.4856792124,-0.2568033951,-0.9388175183,0.4536344738,-0.3499064234,0.5330976549,0.8809810802,-0.949726115,-0.5584141457,-0.5017816703,-0.9501548651,0.2017443681,0.1744033799,0.4571864892,0.7501731594,-0.9600269203,-0.282411727,0.2942437761,0.8351572253,-0.3258578389,0.3527000689,-0.3683325177,0.8294521984,-0.7491662618,0.5045057846,-0.0727915943,-0.6639560628,0.3430749456,-0.8870679559,0.5802601044,-0.7175348847,0.3200889005,0.7064293375,-0.4220229381,-0.1708795855,-0.8161574439,0.0905706503,0.123814727,-0.7790289036,0.7786414287,0.6831344752,0.904741426,0.3638289481,-0.2199788041,0.0269221917,-0.8466278477,0.4065096009,0.3691861777,-0.4884401736,-0.8387257675,-0.8899047728,-0.0007553159,0.8355341847,0.3996948626,0.285556611,-0.8405087557,-0.7602866431,0.9039605232,0.0809845908,-0.4560142927,-0.9563983949,-0.9222017317,-0.8156185648,-0.5020883343,0.2467814794,0.3095472095,-0.7158649521,-0.1696407439,-0.2469633318,0.3127485023,-0.3416026545,0.8708838899,0.629620254,-0.6204135743,-0.5096017489,0.986341665,0.111439863,-0.2896821954,0.6147272465,0.2800007279,-0.7071684715,0.8669166877,-0.2076422156,-0.9181022811,-0.9382362091,-0.1125457704,0.1555935804,0.3200535926,-0.9054113258,0.4844629517,0.4791867741,0.5537988119,-0.6824104622,-0.141464629,0.43387797,-0.0495420804,0.7415758035,-0.8415929889,-0.5213918494,0.9866434843,0.0757745558,-0.8812262164,0.547652467,-0.8445905819,0.0272690205,-0.0929062541,-0.8110740999,0.4605136759,0.6922339144,-0.2893767663,0.3097108033,-0.0209596788,0.9452176727,0.0949373704,-0.4064034623,0.6403868654,0.3723012231,0.3783234971,-0.1006320052,0.7070148689,0.2465482692,-0.1825723539,0.848036909,0.6840973542,0.3797942757,0.4555740858,-0.9157276647,-0.3709826184,-0.5500313564,-0.9634718303,-0.4014085856,-0.456147469,0.8791032531,0.5007639321,-0.6074794986,0.26172744,-0.1509204691,0.3903713113,-0.3347593237,0.346838218,0.9169848994,0.4082602541,0.0529676259,-0.8356012641,-0.488671407,-0.9620883097,-0.0476840984,0.7767587909,0.0903668574,0.6299253869,-0.5411024474,-0.1780558576,-0.756212484,-0.1383853297,-0.0475948665,-0.9691315698,-0.4809960815,-0.0241019672,-0.1405709132,-0.4605330391,-0.746691741,0.7057376056,0.6252595013,0.6520023727,-0.8068657275,-0.7096254885,-0.381962227,0.2347776325,-0.9560500472,0.243978143,-0.0619838613,-0.1668372553,-0.5919025684,-0.0614829043,0.9016426224,-0.9792889887,0.854526232,0.5434026461,-0.2829466949,0.8146271943,0.859328215,-0.9268498067,0.1843566203,-0.1360251203,-0.7559534027,0.8624274213,0.1356968282,-0.2503967609,-0.6703933845,0.8884419896,0.7171143684,0.7743081594,-0.5523319369,-0.0883113926,0.418453086,0.2744777513,0.4656497062,-0.7836945224,0.257564334,0.9844722333,0.4816755716,-0.768709883,0.0250579489,0.4849881878,-0.654306888,0.8138245516,0.995850103,0.2666571953,-0.8369867554,-0.524040114,0.0137580296,0.4401288418,0.4365222648,0.3359102517,-0.6446083732,-0.3761118994,-0.9961843654,-0.9247938767,-0.6956071592,0.2839691973,-0.0519112188,-0.0414474935,-0.1034849005,-0.845600652,0.1379466683,-0.3993475524,0.8751792912,-0.3426140922,-0.2530767124,-0.2559546971,0.4259976171,-0.5995743856,-0.7911735111,0.5019155246,0.7634747964,-0.1793415437,-0.4156819348,0.6848276303,0.28542701,0.8143842723,0.0268561349,-0.6215150071,-0.5167397781,-0.1978737715,-0.7923781005,-0.2773394951,-0.6106421257,0.6354911718,-0.7693192223,-0.952450884,0.8428279576,-0.7479231473,0.069627912,-0.9762077513,0.3548594549,0.4846760313,0.0569680513,0.9824240869,-0.1450618354,-0.0689725506,-0.5425201905,-0.939010262,-0.9008281063,0.290363686,-0.3431857013,-0.6679147234,-0.9780249707,-0.9269941193,-0.0034218642,0.5705696539,-0.8040523449,-0.0479733402,0.4214057567,0.8202833528,0.4852663603,-0.7111383415,-0.7756718066,-0.3078017075,-0.5253734322,-0.1135057526,-0.5095564596,-0.4585180849,0.3877016221,0.8944419627,0.9674539193,0.7098781666,0.523230479,0.2097427866,-0.250327526,-0.1612855725,0.524182747,-0.7182352803,0.0032430997,0.5321095226,-0.9644044,0.3916247248,0.2206570411,0.9479161012,0.9073325684,-0.3125329538,-0.0891836288,-0.652352604,-0.4019858012,0.756850908,0.1308943422,0.1366383576,-0.0636294012,-0.9825024195,0.7662426121,0.4256911588,0.8962658467,0.7076468304,0.9645953458,0.6454550805,-0.4583557186,-0.2427272646,0.6308201923,0.2447907676,0.7976486692,-0.6785911153,0.3884661364,-0.9956311369,-0.4733899281,-0.4598212702,0.4965431023,0.5902243703,0.1330838923,0.7670258367,0.242722208,-0.8263093591,0.1173389547,-0.5627560293,0.5012357499,-0.9828958181,0.1065958899,-0.8980933162,0.3250817939,0.5011703501,-0.1796166271,0.280097476,0.6767661575,-0.2567798275,0.0970273812,0.6206529596,-0.3352473954,-0.1756167992,0.2853748271,-0.2036721011,0.4732724171,0.1398072352,-0.9669984346,0.7866321252,-0.2332566621,0.2781749273,0.002154778,0.7055893232,-0.149952106,0.3367672561,-0.4553202715,-0.1693323024,-0.6340789105,-0.9216761202,0.8671808983,0.9891325114,0.8106974777,0.8359503634,0.7176674916,0.9580704989,0.6496676043,-0.427677723,0.1249333204,-0.9656638442,-0.6867061704,-0.0005638229,-0.6303206127,0.2342186061,0.8194967405,0.1493407695,-0.2535264737,-0.3586196348,0.4753220816,-0.9267067388,-0.908827797,0.3156966691,0.9922788227,0.5093699045,-0.7001231075,0.0983545177,-0.8999629891,-0.6834848858,-0.4627028372,0.5662815733,-0.2846071453,-0.4127222615,0.0615797767,0.3496510418,0.1528400097,0.5971518759,-0.1403153318,-0.7166290683,0.9113127449,-0.833972929,-0.5004422053,-0.0761923127,-0.8066490194,0.7129978877,0.105350863,0.4619941948,0.8129372047,0.7857828498,0.8619379308,0.5645721661,-0.3517447424,0.3460027653,0.9549788833,-0.8262811033,-0.7043789992,-0.4084315802,-0.6472202152,0.7973083998,-0.919165147,0.5974276479,-0.6637998935,0.3205569101,0.0842062056,0.5559217766,0.5299301021,0.1563439237,-0.0482323847,-0.4038753559,-0.9415743761,-0.3715183179,0.9354127734,0.1230692759,0.8821101398,0.8288174625,-0.3762956307,0.6017496129,-0.532207556,-0.5437442217,-0.4603087184,0.7467066133,-0.8730302509,0.6749645117,0.1383300417,0.3486454811,0.1096997524,0.659907136,0.4462553424,0.1900850803,0.0480820818,0.0466718206,0.5042849215,0.8809292232,-0.9694008827,-0.8081525941,-0.3560911816,0.2702098347,-0.9114338141,0.650196256,0.1290130087,-0.4097480079,0.3759411316,-0.2251260172,0.1940874097,-0.0104891614,-0.1762567403,-0.1530539489,0.0101682649,0.610330372,-0.4496683403,-0.3595487479,-0.3902350989,0.8678741092,-0.1912071014,0.8292620573,-0.6979791382,-0.9135223753,0.0187182787,0.9526617383,-0.1031641888,-0.5079229426,-0.3017310196,0.2067264191,-0.702737464,-0.1443118535,0.5473927212,0.7307530236,0.7631384693,-0.950917474,0.3737853662,-0.1318245919,-0.2657184846,0.8485820847,0.7944613238,0.0550406503,-0.4395249042,-0.8199322698,0.9053092086,0.4705217428,-0.8260465026,-0.3877344735,0.0580693807,-0.7442103363,0.2599341011,-0.8784828027,-0.5990166398,0.0824948235,0.3314464817,-0.3407149881,-0.6606348841,0.3521078828,-0.385291614,0.5536410412,-0.4276557708,-0.1926300505,-0.848701416,0.275990791,-0.1379690667,-0.1628978511,-0.9766234052,-0.3957187895,-0.8086469727,-0.7443754319,-0.8918007114,-0.2860569254,0.4668146659,-0.1619654221,0.2681843637,0.2278177415,-0.3137832869,0.9901061775,0.667907311,-0.6100535415,-0.1796664715,0.6990017061,-0.8712304979,-0.5750328232,0.429381912,-0.5939112002,0.4141623847,0.710520016,-0.4392438613,0.9204137279,-0.8143268041,0.6486497483,-0.0497721348,0.4466450111,-0.5174634251,0.3378656859,0.6910135107,-0.0715427858,-0.7899621203,-0.7211698447,0.6118260151,0.3430866085,0.9150258847,0.6718438509,-0.1048390277,-0.8966912902,-0.8702151514,0.2123780584,-0.0329328615,0.2230876952,0.0655159636,0.7909037601,-0.8103486867,0.4031476889,0.9366781716,-0.9967323919,-0.6124324006,-0.3072840714,-0.3025616387,0.8778647799,-0.260258966,0.8836878044,-0.5285190604,-0.2741413008,0.0675755975,-0.7065362292,-0.5435732248,0.5206976439,-0.9087138087,0.544034406,-0.4510413831,0.5732760545,-0.5005379136,0.5647103799,-0.4036860944,-0.8355370033,-0.5748668931,0.2969736339,-0.9684931873,-0.9476862103,0.5906717851,-0.0997438978,-0.7709790761,-0.4727620016,0.2711163627,0.441971592,-0.4098123362,0.7981861424
   -0.8399844807,-0.98615121,-0.7833517896,0.1001936405,0.5145699735,0.5259986477,0.8787372848,-0.6922158673,0.4863209574,-0.7900338647,-0.0649611869,0.835482175,-0.9563644291,0.3620163792,0.3593634691,0.1066853071,0.392239008,0.3579051656,-0.4686019154,0.3721455022,-0.6999563448,0.4703838261,0.9472769415,-0.8406900167,-0.7674749274,-0.4793115061,-0.4936750674,-0.8662285786,-0.2951051577,-0.1047362618,-0.4697773954,-0.345922496,0.7036121268,0.3967603742,-0.490523043,-0.6916362712,-0.5327820386,0.8742565009,0.4547222102,-0.9619086212,-0.5312596447,0.0184801405,-0.9021328678,-0.5143973114,-0.7809979189,-0.0681226275,-0.11664505,-0.1087664005,-0.9017053991,-0.7310503651,-0.7203003717,0.0420653529,-0.0790467391,-0.1459484233,-0.125665494,-0.5682854703,-0.0567081382,0.172235783,-0.385054699,-0.4412050353,0.0961466043,0.1393943781,-0.2714625046,0.5203015347,0.7232794095,-0.9420524989,0.349488092,0.5561658227,0.6068906136,0.1643286588,0.3878317469,0.7012336579,0.561491039,0.6745169497,-0.3309687216,0.200914529,-0.622616561,-0.2661338321,0.8764825496,-0.1532471266,-0.6049966811,0.1774807794,0.3280037244,-0.1118287586,-0.1596838799,-1.0734798566,-0.2920727241,0.395449469,-0.1586663448,0.1316360897,0.5714307415,-0.063936267,0.7157621008,0.27581329,-0.891996823,0.5637449754,-0.0600854293,-0.39351507,0.5917901869,0.4406869711,-0.6870274736,-1.013475436,0.5651792555,-0.2655225229,-0.0668179342,-0.5782880644,-0.8851992727,-0.2772875093,0.5002220866,-0.2496918282,-0.8856743422,-0.9871551192,-0.9000056746,0.775990355,-0.6596894615,-1.0914826023,0.1280852738,-0.3746045335,-1.1326611003,-0.5463699457,-0.4918500358,-0.3884762908,0.6487097877,-0.8146081159,-1.1385323636,0.3842512007,-0.3110768865,-0.8723929247,-1.2160807241,0.6492020443,0.7142118837,-0.9445545228,-1.1133629724,-0.7637702256,-0.2526287022,-0.4370525163,-0.2718432777,0.9136840505,-0.0645667871,-0.8669847441,-0.7707694834,-0.6719542401,0.1466082393,0.2162496055,-0.5293169812,-0.1896344435,-0.8232159242,0.0971118508,0.3284073447,0.7642102772,0.4847357668,0.3275262209,0.9061027015,-0.2105718081,0.021509778,-0.245607775,0.6281698955,0.6134234191,-0.4979695546,-0.1399612448,-0.1146587848,0.692352212,-0.9424342066,0.6632250621,-0.7357053113,0.1384911246,0.0503027311,0.5869386065,-0.107497283,0.1300270509,0.3312816213,-0.8007602137,0.9295650809,0.4595191375,-0.2770597728,-0.7665964611,-0.2637236759,-0.6227174265,-0.9924829677,-0.2063921842,-0.2473224875,0.3859442555,-0.7974360641,0.1524189355,0.6163423652,0.1424203243,-0.5951816774,-0.9536761907,0.642579846,0.3842276832,-0.141856178,-0.2863805572,0.6764926034,0.0142641433,0.8230057163,0.0359680096,-0.3273749541,0.3708391128,-0.2852060453,-0.4906327667,-0.8754329481,0.8028452801,0.0475566376,-0.4459439142,0.1888037024,-0.5984922078,-0.331291742,-0.1910146082,-0.2521743684,0.1967953884,0.8016322432,0.4288148995,0.7212862558,0.3753159059,-0.398044634,0.4805197254,-0.9685441279,-0.949053836,0.3837440376,-0.279143825,-0.8707773615,0.619446223,-0.8281275327,0.535936939,-0.5131095782,-0.7716919863,0.736812706,0.3241656612,0.9640235267,0.3930883495,0.7680965559,0.1037808864,0.4525882954,-0.7085236953,0.3426993627,0.6262593795,-0.2923584136,0.766344977,-0.6554043213,0.7768288203,-0.2302809374,-0.4390530161,0.7857308718,-0.8999928622,0.5734054748,-0.6631053168,0.163436224,0.6858824649,-0.8375047724,0.0178964452,0.8358940254,0.0759553116,-0.2215294203,-0.4900356721,0.2842982945,0.0955607041,-0.3902028742,0.5278796161,-0.0130637481,-0.3520931018,-0.1415478809,0.9415062964,0.7503650761,0.524256044,0.8435621657,-0.5360985905,0.0308230363,0.0715267237,-0.5765997059,-0.4125277217,-0.7228749981,-0.6264316322,0.5169924035,0.1744306067,0.8262923243,0.1023575429,0.0065830799,0.6077934577,-0.6168329072,0.6953661152,-0.1977892051,-0.0908188953,0.6152607719,0.0153512906,-0.6503575257,0.7296617589,0.8940872042,0.1488175288,-0.6370825562,0.6198931689,-0.2857700035,-0.5005996687,0.6957635907,-0.7940982617,-0.9739410845,0.1152219635,0.5937470169,-0.2681643384,0.4964479635,-0.1274147898,-0.1802349475,-0.1085342465,-0.2843422371,-0.0394108992,-0.699391588,-0.8736143391,-0.1964858457,-0.4319536321,-0.4524671634,-0.4620590768,0.5200331024,0.3446080623,-0.654653992,0.8228979171,0.3011872972,0.3979559348,-0.5135836614,0.464972176,0.2302196322,-0.2500208046,0.2058536343,-0.0365339124,-0.6492464453,-0.2168143548,0.4741116342,-0.6197340376,0.2279502934,0.7085971846,0.8032624246,-0.01355152,-0.836037042,0.5863796951,0.7231927281,0.2897465083,0.9739375189,0.9304572991,-0.4160279328,0.2241242996,-0.2711893453,-0.5716390097,0.8406428052,-0.2172879389,0.3711544833,-0.1924383555,0.7898827022,0.1377398752,-0.4369121546,-0.9792872132,0.3899963194,0.2513483789,-0.2878093755,0.8162409104,-0.4770027538,0.1805913418,0.3613106593,-0.2996184401,0.3035557599,0.4886196469,-0.3086624442,-0.3461309153,-0.8493136866,0.5773216643,-0.0197092572,-0.0916542693,-0.4142788284,0.1127382915,-0.3106209597,0.5778313688,-0.0732315842,0.339149867,-0.4763303938,0.3194900954,-0.5890956716,0.4380849589,-0.251383744,-0.0700562897,-0.2246498492,-0.4114989707,-0.456302842,-0.7166179329,0.8288832153,0.8843869744,0.6744119045,0.5177203006,0.0447324526,0.7660375358,-0.7361120451,-0.1249470732,-0.2937917233,-0.8787504076,0.9453464602,0.102654822,0.6363168409,0.7126903245,0.1766774527,0.8207790721,-0.7780415364,-0.2164602026,0.4757582386,-0.9779255167,-0.403637335,-0.4061971482,0.2903305076,-0.2498848194,-0.8093082369,0.5416356617,0.3614985969,-0.459865216,0.4275898969,0.9448106154,-0.9026082787,0.0331440552,-0.9522522264,-0.5463574798,-0.0184290793,0.3480208817,-0.9734713514,-0.8912721378,-0.6089777792,0.099210473,0.2073911743,0.2639184364,0.6465716762,0.607784931,-0.4416408728,0.4057793555,-0.0480277196,0.0871121942,0.4577880109,0.4007814334,-0.6220872415,0.0843843597,-0.0843214693,0.2014779423,-0.4528017709,-0.0407446229,-0.8632130534,0.542915746,0.177352744,-0.3191618806,0.3317822999,0.6605308069,0.1368937015,0.7243108288,0.1827005127,-0.4392219306,0.1715281371,0.3483829352,-0.7203293554,0.251682665,0.8210428743,-0.1143032715,-0.8113305661,0.2924310619,0.9237922686,0.064191385,0.6431056488,-0.4249368164,0.4078548377,-0.6841540555,-0.4931553359,-0.7966778934,0.2209849649,-0.0987857555,-0.9352657832,-0.2648941244,-0.2443379302,0.2191481561,-0.8776641506,0.4135466049,0.697845492,-0.8263811259,0.2365157309,-0.2913635451,-0.7902862532,0.6167100825,-0.1418551484,0.5756504851,0.9776381622,0.0240329902,0.6681585949,-0.6633836221,-0.8433591192,-0.9411867517,0.8882256807,0.5910810436,0.7425872492,-0.8191002621,-0.1527235133,0.0624240933,0.4033625697,0.956945234,-0.4148592556,0.7859681937,0.3002832377,-0.7719910568,0.7745446083,-0.4548637088,-0.0690077532,-0.209169078,0.8415793785,-0.5644854735,0.1435808705,-0.9315395141,-0.5171211114,0.6111472141,-0.8838326675,-0.3785503123,-0.7809760975,0.7621065289,0.7797737773,-0.2246515498,0.5626587112,-0.8243641629,-0.6133505557,0.6070386594,0.0892861865,-0.7917237039,0.9336038176,0.8030442292,-0.2545046781,0.6609889235,0.6137888468,-0.6694483896,0.4208606452,0.0038860424,-0.3272219471,-0.5888353259,0.9397635078,-0.2681778966,-0.4248074967,0.8286439678,-0.8706147517,-0.3679061214,0.8881236631,-0.8981196517,-0.8798777661,0.2455000321,-0.212396879,-0.4456470077,0.5346727715,0.3020100652,0.5943691934,-0.1886782244,0.7220458974,-0.587707363,0.2451803981,-0.2439959671,0.6927420431,0.7963532605,0.1059258075,-0.5240143099,-0.3704023183,0.3473699157,-0.8028756827,0.8685102239,-0.0609235417,-0.7127162809,-0.6026854943,-0.8231970504,0.3562616327,0.5200539482,0.4439665567,-0.1747435073,-0.8219179129,0.7182446317,-0.8174104783,0.5589866097,-0.2867916569,0.8461602172,0.9946650495,0.9061214477,-0.4336456832,-0.5143487671,-0.7705899234,0.2565368952,-0.3371865459,0.7693418292,0.7038989034,0.9386388101,-0.9555207631,0.5775291891,-0.9472053666,0.7004421185,0.9686000678,0.1550048206,-0.7910600006,0.5011967941,-0.659481476,-0.1959522807,-0.2039424459,-0.9801892922,0.011644996,0.8098394079,-0.2851907572,0.7863193564,0.9739156901,-0.7454491513,0.7034653485,0.3426524604,0.9819850135,0.8763512363,-0.8455671891,0.338947445,0.8341479785,-0.7678392222,0.2879708231,0.0258681013,0.7383236568,0.613775629,-0.9538224875,-0.8500650376,0.5677536501,-0.3691326034,-0.8081496353,-0.5164958666,0.9511138964,0.2889602402,-0.302268063,-0.8468713276,0.2539501449,0.865940073,-0.7416410851,0.8251184136,-0.4949304409,0.1123719469,-0.2103040976,0.4751932848,0.0084791926,0.6608018106,0.3799410843,-0.0547539943,-0.95287866,0.1752926403,-0.1522462343,-0.4315358436,0.5846557653,0.2724449498,-0.4358462127,0.6440616235,-0.6284611993,0.745151672,-0.3056571868,-0.9571305811,0.3616493268,0.1203374167,-0.4843025053,0.7250358783,0.8457116205,-0.9180678958,-0.0318154891,-0.548913773,0.2077650836,0.7903289734,0.0934474811,0.4675915301,0.166438704,-0.7009271841,-0.0547465323,0.4961872437,-0.6211212283,-0.2242949447,-0.546044394,-0.7810603177,-0.1650572182,-1.2121825938,-0.5234524958,0.0280824676,0.8316137092,-0.7195644769,-0.525912698,-0.9399550913,-1.1665256794,0.2901045299,0.6496299046,-1.0515284131,-0.2202371587,0.2029017157,0.558212333,0.0050084871,-0.9011495101,0.0808086063,0.2148859525,0.671573505,-1.2136091038,-0.3823075919,0.3270455728,0.7753613314,0.3033913885,-0.6938531707,-0.9826945753,0.6178327093,-0.0495438431,-0.8635577254,-0.9368279872,0.4289380667,-0.7255487057,-1.031164584,-0.1402361593,0.4378255246,0.6838417099,-0.7195118621,0.2118280126,-0.4487167206,-0.4110500837,-1.1117541429,-0.7586962894,0.2911663615,0.493879527,0.2537562061,0.3363827887,-0.9089097117,-0.9271994663,0.5765194946,0.2677220843,-0.2680092096,-1.1533609296,-0.293855608,0.3645497124,0.5232799804,-0.6599156653,-0.3298169734,-0.271361542,0.7437116156,0.7388591545,0.6925910299,0.5308147568,-0.7369647582,-0.7537126301,0.1946113247,0.6868620135,-0.8148153291,-0.8511544058,0.6468297922,-0.1794667011,0.0832633307,0.1219493431,-0.4913471924,-1.2050765802,0.732576492,-0.1927764565,-0.168543343,0.5934503648,0.7479603707,-0.8074925823,0.6816588246,-0.1683038781,-0.968341896,-0.1741562598,-0.8800388432,-0.318643122,0.4379926032,-0.6052975302,-1.1869850967,0.4875525861,-0.4389137231,-0.298311241,0.2537576292,-0.1392540885,0.051877637,0.6885336134,-0.534651772,0.9945618091,0.6201349016,-0.4445359524,0.7340357913,0.9357378604,-0.9152622092,-0.9019530439,0.3827829243,0.6713219647,-0.7336921244,0.6888013556,-0.7068397665,-0.8189776833,-0.8584659826,0.2724432217,-0.580123552,-0.3853237988,0.1095522831,-0.0507697812,-0.8253885733,0.5032119051,0.2869898885,-0.8423967012,-0.0124164577,0.7445325085,0.0888685203,0.5223751801,0.2981014376,0.2605715476,0.4166170306,-1.2052843047,-0.7946498403,0.161770555,-0.8855564929,-1.2098159769,0.0506616682,0.3952284724,-0.8246832806,-0.0289422146,0.1425197155,0.7927729403,0.277806938,-0.8007909746,0.1155491073,-0.9847965385,-1.1649638706,-0.7742229399,-0.3852606659,-0.2110435576,0.8369875294,0.4122859306,0.4803075778,-0.2805527188,-0.728124716,-0.7842188991,-0.5885229331,-0.4708560576,0.6985700593,-0.4177186685,-0.0724588162,-0.2486448586,-0.7266994311,0.0135761919,-0.5509387586,-1.0749934746,0.6658461147,0.0098301908,0.0306851627,-0.7892492676,0.0185125466,-0.1783420285,0.1364453303,0.1733160224,0.7634223056,-0.3544411185,-0.8118966859,0.7103392856,0.2584763352,0.0439609187,0.3727914734,0.6589334255,0.0182378716,-1.1288759497,0.5362014311,-0.8887608835,-0.5040118923,-0.5138470895,0.5675694278,-0.0297890622,-0.7267962682,0.5343688681,0.2627085471,0.776887879,0.6927063425,-0.9217085272,-1.0086621826,0.3403982242,0.8517337357,0.3594792775,-0.6050418109,0.2019488104,-0.1488169287,-0.807287361,-0.1690868677,-0.596939484,-0.5933693842,-0.8230783357,-0.9388673529,-0.0175098481,-0.4187877205,0.8363757068,-0.7284336294,-0.4423031121,-0.9862253824,0.2877687391,0.5092080351,0.326410312,-0.1991624225,-0.9785556677,0.3778979912,0.8991331439,0.9544713381,0.3150919441,-0.4667109708,0.5126422121,-0.0255894326,-0.0263849192,-0.5600784264,0.210286306,-0.1445969425,-0.4485786607,-0.4083417466,-0.1046690981,0.9410427301,-0.2866156803,-0.9432721529,-0.3364002354,0.8553370195,0.8907274147,-0.3713713957,-0.678336576,-0.1567413684,-0.1119205274,0.2841409392,-0.5031754732,0.6715316767,0.5979523388,0.3096995021,-0.7548499372,-0.4190978248,0.4788902671,-0.4426253753,0.5638004671,0.0411429436,-0.1872401182,-0.7248446854,0.7076846689,0.2928430537,0.4743818866,-1.1811275452,-0.8064182058,-0.3354408849,0.2997377013,0.6584071793,0.5096033878,-0.5118165318,0.0912341141,-1.0255740664,-1.0898212113,0.1221930762,0.4142402542,-0.2428421514,-1.1040849884,-0.2529285676,-0.6225169004,0.3951691509,-0.3272968112,0.6632626633,-1.0338226391,-0.1659405467,-0.0083156088,-0.8703274966,-1.040860262,-0.9586700804,0.1513248245,0.148966149,-1.0388624465,-1.1463266972,-0.5571496013,-0.0540870181,0.5817217605,-1.137064141,-0.9597093258,0.0250281734,-0.7082056758,-0.4229988629,0.0763821816,0.0937611596,-1.0108400176,-0.5681543579,0.3055811162,-1.2025190068,-0.1956876237,0.1310163751,0.1554354097,-1.0474914291,0.7461491748,-0.8625102145,0.1890590943,-0.366504399,-0.7685230062,-0.5384935372,-0.1254912813,-0.5718171558,0.3794181755,-0.7528156703,0.8165508257,0.421421355,-0.7014471688,0.6722734975,0.8805518737,0.0126981514,-0.9076124732,-0.4954872158,-0.5589740345,-0.6133816446,-0.1400343685,0.2055408512,0.8617373882,-0.0025977378,0.9445245452,0.9562917079,0.4894750238,-0.8470082152,0.8364498,-0.784875405,0.3177486424,-0.0199837235,0.6367760374,-0.2400617551,0.9766570637,0.5508677237,0.4874848592,-0.2544804894,0.2051781964,0.4541353177,-0.1251504461,-0.1126236234,-0.5378690468,0.5896494001,0.2120766992,0.2233053402,-0.1679409605,-0.5306152179,-0.392505363,0.8039431697,-0.1177133837,0.8054734417,0.9983205781,-0.7348815374,0.5013390513,0.2270735715,0.4872057739,0.2068824692,-0.2560922008,-0.9184439624,0.5653425775,-0.8882397697,-0.0117244951,-0.5900099477,-0.3668512067,0.8562227897,0.1343373594,-0.5992522495,-0.7705681864,-0.4799583353,-0.7607619957,0.0583557475,-0.7145830616,0.890102328,0.5360482907,0.6711758023,0.4158850707,0.206014554,0.4426764095,-0.1834926431,-0.4713302142,-0.8662303504,0.5922634019,0.1793619513,0.5337637797,-0.7063054465,0.4163130404,0.6411595111,-0.5667153149,0.2489528133,-0.6881939125,-0.0054034882,0.5735502712,0.4408424365,0.9235489289,-0.1790639807,0.3405130099,0.8971406184,-0.4269934211,-0.2740303979,0.079804024,-0.560254658,0.3648700671,-0.1290988785,0.6318236307,-0.1211319314,-0.5925823726,-0.6873065682,0.3907909055,0.1237989935,-0.1347980383,-0.4794018251,0.3394413494,0.6668700568,0.444564006,-0.2892298513,0.3535402861,-1.1452957981,-0.4712426659,0.7680670081,0.7565993161,-0.3024174842,-0.4017431043,0.5108409749,-0.5535367696,0.2126131712,0.2040256155,-0.6243687776,-0.933181199,0.9227597494,-0.1236721291,0.5608406329,-1.1201245568,0.3729789342,0.3753398439,-0.8393530717,-0.5035322445,-0.1352824168,0.1898067469,0.3203981818,0.1198299337,0.1900191727,-0.3100030753,-0.0552573036,-0.5407079408,0.7264896177,-0.1587971687,-1.010256734,-1.0298517353,0.5943724673,-0.1159611191,-0.1297741924,0.5759467722,-0.5230165246,-1.1122138256,-0.986387633,0.0619932239,0.6211858177,-0.340869462,-0.1936776697,-0.7401653835,0.1625964072,-0.6315984166,-0.7515287962,-0.6913061877,-0.4387783439,-0.5808641928,-0.5137819223,0.8864735099,0.6534058069,-0.1691541372,-0.0058062153,-0.926923166,-0.4599881613,-0.4634195248,-0.9825316952,-0.1641190283,-0.3306634911,0.6564840119,-0.639479506,0.4116951761,0.7086972652,-0.254034573,-0.1144953168,-0.8835468488,-0.5590589655,-0.7002734169,-0.7539358441,-0.3861101892,0.2621248894,0.2928999461,-0.4370584994,0.1744524085,-0.5633814162,0.0405456538,0.6476358361,-0.0443039525,-0.1541210295,-0.8432420361,0.560356913,-0.1645864367,0.3071462874,0.8946310733,-0.0514739084,0.828749781,-0.5616876775,-0.3516656885,-0.6479258075,-0.874157991,-0.8625871001,-0.2216637009,0.69706329,-0.7942035959,-0.4448459037,0.2161910008,0.0349103147,0.8315869514,-0.0838556308,-0.3795653866,-0.1979096281,-0.2168082274,0.4412322791,0.4341084618,0.3793310198,-0.876833189,-0.9060349448,-0.8360330562,-0.5258668075,-0.1492281943,0.5458278557,0.6359706965,0.3259713969,0.5728931433,-0.0932826034,-0.5167983683,0.0048532812,0.478013585,0.3318999634,0.5224498544,-0.0155114187,-0.4405211318,-1.0432962088,-0.8242775525,0.571317441,-0.2256888165,0.190195825,0.5929241401,-0.3293518937,0.543819525,-0.0209071506,-0.368040158,-0.4488460022,-0.4977430828,-0.0068430006,-0.6474909379,-1.0710198462,-1.1002254819,0.5833256414,-0.8202778051,-0.5672909479,0.2317991148,0.7379023693,0.4254535822,0.784397264,0.097038558,-0.7576966234,0.7946014064,0.1095355589,-0.1120202912,0.61232163,-0.9390531955,-0.0633790114,-0.5171077604,0.0120029391,-0.8973359177,0.7603382496,0.4349344339,-0.2334206666,0.9653088315,0.7644513221,0.2593846305,-0.2489518384,0.3980728121,-0.3738752393,0.8517320458,0.9892980691,-0.2759767872,-0.6035831416,-0.1821230331,0.9500318486,0.5755762825,0.6131946844,0.9976903242,0.3657361677,0.5264553366,-0.697279002,-0.036817366,-0.0190518296,-0.848616858,0.0261630404,-0.2274676783,0.2160689531,0.544758675,-0.3727268049,-0.2387765849,0.0729739161,0.8295682515,-0.1625084703,-0.3484573847,-0.4913300093,0.6877810372,0.3947202087,0.6233079442,-0.8342977308,-0.3916981056,0.458795152,-0.1667823543,0.939801563,-1.0328351313,0.8011167435,0.7039671139,-1.0528812811,0.8681348618,0.5055936234,0.9432689985,0.0528951513,0.7242325979,-0.9256286511,-0.0025242188,-0.2819236869,-0.7774297059,-0.6856062432,-0.202692685,0.7619337693,0.1936338866,-0.4040765305,0.767250237,0.5542966399,-0.2951378706,-0.4862032206,0.2548792575,-0.3213575779,-0.0352274256,-0.0173370938,-0.1836496745,0.3872971855,-0.8561155793,-1.0025423711,-1.1656843338,-0.6500048599,-0.2013117573,-0.5096387045,-1.1754893034,-0.602952415,0.1449125899,0.4154912041,0.2072628129,0.6183712263,-0.4336625352,-0.6074216393,-0.4198279449,0.2796258724,-0.6345953256,-0.559121386,0.3236985983,-0.9598821937,0.8933113967,-0.0164675056,-0.7550109876,-0.4209169143,0.9320359402,-0.9367841319,-0.2592020415,0.9732369436,0.2116467844,0.7935318611,-0.5044945095,-0.6180694817,0.1467447786,0.0983364636,-0.1346104488,-0.6254633827,-0.4331903829,0.2965293078,-0.1495722707,-0.2862446216,-0.6645374651,0.3382890167,0.8063333923,0.0463418104,0.0380883778,-0.1806445683,-0.0719238061,-0.4624947937,0.5190670475,0.3996087144,0.0361369581,0.1452304337,0.5498643223,-0.4678046781,0.6967469355,-0.349228903,0.4092320524,-0.0905491396,-0.7926385635,-0.0984354217,-0.3432322702,-0.4681301903,-0.5213821594,0.8428189503,0.8810834349,0.8063721265,0.3440279768,0.8140217652,-0.2961658461,0.5801167189,-0.365816247,-0.1637451339,0.2843924582,0.1351840331,-0.9943868839,-0.0006561696,0.4218477671,-0.8457114547,-0.5104931224,-0.2594480764,0.8062205323,-0.334740741,-0.4282812908,0.2301982262,0.0662591707,0.4223347794,-0.567996655,-0.1163801763,0.3532874778,-0.5890832636,0.8079081829,0.4689891903,0.2783384163,0.8047231067,0.5442117601,0.1041159455,-0.6995402197,0.7100509055,-0.765840894,0.2934829884,-0.2775582646,-0.02160174,-0.1412560309,-0.6632329961,-0.0497837693,-0.1313041465,0.8302879165,-0.6599066527,-0.0478217103,-0.1596022544,-0.6534336884,-0.7587246997,-0.8853208269,0.2586815677,0.4617311674,-0.0797122948,0.0299414198,0.2930080931,0.7802808694,-0.7937750285,-0.4273542421,0.7902901829,0.1439615274,-0.0353736202,0.6589141918,-1.097696169,-0.0517688291,0.3591356451,-0.3432043482,0.5932381262,0.8460036353,0.1878029386,-0.4040197265,0.7670494073,0.098952218,-0.5256954968,0.4559341708,-1.0402797169,-0.2596277735,-1.2111895827,-0.6980040455,-0.0127156724,-0.0531344523,0.9775793217,-0.8795402573,-0.1669620083,-0.8853654072,0.8718500193,-1.1886074601,0.5296743949,-0.0783643806,-0.6577200458,-0.7895640025,0.0725889872,-0.0031585758,-0.4348194372,-0.8491574546,0.1406070903,-1.0421365846,0.1867994988,-1.0230040999,0.6603833099,-0.8018169421,-1.1281002646,0.580665948,-1.0092771749,-0.2947573076,-0.9371144564,0.7712480018,-0.9169254459,0.0906457315,0.6757253415,0.5112364349,0.0944461911,-0.2251270724,0.4250406701,-0.7569368486,0.9480597651,-0.5316683421,0.866220186,-0.5523923248,-0.4084876039,0.3880784389,-0.5535835809,0.2046295291,0.0382495236,0.6564148487,0.7710566357,-0.3771996222,-0.8513920726,-0.3892772732,0.762302414,0.6929253712,-0.5738642466,-0.4254176611,0.4123748425,-0.7505090073,0.3311911443,-0.3886875858,-0.6197609107,-0.6947402101,-0.7589747523,0.9161820607,0.2928983479,0.1651619727,-0.4124003992,-0.9964554473,-0.0474528445,-0.7742661093,-0.7956121144,-0.6548570017,0.2308340914,-0.1336466133,-0.5865879365,0.6158378747,0.0114838446,-0.6614779797,0.8837628825,-0.7969935569,0.8825286613,-0.9405558281,-0.2071452409,0.1358640406,-0.8206008374,-0.7838469822,-0.6783349616,-0.6092008119,0.8022742914,0.0353533386,-0.492697189,-0.8842187421,0.2625828076,0.2536371428,-0.4071578387,-0.7670172778,0.9841882819,0.6100559928,0.1626153381,0.1286955618,-0.1822065239,0.3431319411,0.3856654054,0.3556164814,0.6889226259,0.2853430345,-0.8143945657,-0.6277732075,-1.0521322738,0.8593391333,0.140369481,-0.6338433278,0.6458066997,0.736267107,0.1687604355,0.6927837948,-0.1866565694,0.4374554049,0.2900447509,0.960316339,0.477719684,0.6607080013,0.5628440435,-0.7073896275,0.574948891,0.6124577154,-0.5904264305,0.80097161,-0.6668781856,-0.8729710933,-0.6473224223,-0.2038084574,-0.6368659115,0.8542595473,0.5289115346,-0.2279320497,-0.2069143684,-0.7032673377,0.6079212259,0.7524283546,0.721577234,-0.1736667653,0.6635231715,0.1341918817,0.9701824426,-0.5757175045,-0.2483415248,0.6711439396,0.5473392712,-0.1052981329,0.415607639,0.1348819135,0.9499125159,-0.26765529,-0.0295310521,0.2046493681,-0.1345363118,0.2864489433,-0.7666222639,0.997243274,0.2038965249,-0.2142385424,-0.0161371683,0.7512181084,0.0818368685,0.5334844057,0.9850623761,0.5716368332,-0.1290030729,-0.0716066354,-0.0329509804,-0.3583812549,-0.2382260941,-0.5316226235,0.1535144935,-0.1930657963,-0.1266669843,-0.6073491381,0.813063553,-0.0601037687,-0.6985751448,0.1188874084,0.4963672984,-0.0112010094,-0.4048128304,-0.868474565,-0.7195741291,0.1191531362,-0.1058190174,-0.5225042676,0.081190523,-0.3371739386,-0.238967337,0.7786229453,0.716332958,0.8796981596,-0.7043550596,0.8584231804,-0.7748126289,0.5549820404,-0.4599568735,0.8526662825,-0.8034407454,-0.5131154897,0.2362301851,0.8620759952,-0.4537698937,-0.7140478417,0.7441824078,-0.5261508551,0.5878009432,-0.6775409485,-0.3312902349,0.1768167757,0.8890448401,0.4921538051,0.1343631344,0.2980896545,0.8219313444,-0.4183839726,0.1946383992,-0.0075618445,0.5825727646,-0.485527858,-0.7982725729,0.3156565179,-0.3626576656,0.2597205809,-0.456934078,0.9131614785,-0.5485857477,0.6834163558,-0.2690718512,-0.6449247216,0.5359755949,-0.8750349972,0.1713185364,-0.3509569511,0.5103601058,-0.0207240952,0.8384101539,0.9620345659,-0.3846461394,0.1513374406,0.1448987695,-0.483034033,-0.9967711253,-0.5740076104,-0.4446495484,-0.487278232,-0.3187542074,-0.2933295225,-0.3617324522,-1.0306746063,0.7170415876,0.2789194375,0.0246586828,0.3048738638,0.1932507084,0.7741045688,-0.6039685562,-0.1424384522,-0.7850085703,-0.1278324747,-0.7603292986,-0.9242563562,-0.0402073897,0.2055569809,-0.9589736964,-0.4502034705,0.2177548242,-0.3794188337,0.2744601472,-1.207975013,0.4531958701,0.4524322857,-0.1063973783,-0.8291336928,-1.0809693469,-0.0298671969,0.6025684319,-0.0943587362,-0.1448645555,0.6476536092,-0.2307182094,-0.4718980338,-0.6980534886,0.417454058,0.1821609913,-0.2829734139,0.5605431275,0.5626938824,-0.2485876484,-1.0878890415,-1.1695350467,0.4440291518,0.6773310033,0.494494703,-0.7366861966,0.8728383942,0.4141449005,0.1701855346,0.4015013705,-0.2522641987,0.0242280874,-0.8490636348,0.6701091155,0.9480629763,-0.0447546982,0.0081015846,0.3084697144,0.3324324557,0.5225294334,0.1075530986,0.9636840932,-0.9730642801,-0.0880815629,0.514099276,0.2901380277,-0.3589144245,0.627514124,0.6517632682,-0.3354343775,0.4427429115,0.1206128232,-0.4988292957,-0.9570903391,0.0232778334,0.6760579226,-0.3847032374,0.1652288323,0.4842151714,0.2122642815,-0.2651773857,0.2149018327,0.6766143622,0.2311645214,-0.7156487554,-0.7816216577,0.5244337072,0.4943271884,-0.4692673514,0.1317268776,0.9631290059,-0.0985032071,-0.3152515998,0.3002295157,-0.1372428092,-0.3944554802,0.9647801006,-0.7775606568,-0.0368678926,0.9675251837,-0.4396611129,0.8249107864,0.8045028783,-0.4609329541,0.9431584151,0.2990806981,-0.8842806094,0.0226089389,-0.1171895352,0.1645838025,0.4481947048,-0.7059255046,-0.3229425692,-0.2957997302,0.5280779022,0.6395957848,0.1710173588,0.738665288,0.7314738146,0.2887213179,0.1650008604,0.5560880065,0.0889596248,0.8553584325,-0.6327300979,-0.102770142,-0.2743516567,-0.3622999516,0.5479684704,-0.9221077468,-0.8569508404,0.3083858037,0.0504751082,0.2296636517,-0.7510253307,-0.8938524415,0.3164273322,0.8202760056,0.5417449753,-0.0198107183,-0.4193320809,-0.7251794189,0.3549386634,-0.9614486946,-0.607636928,-0.7409268449,-0.4435930046,-0.0833820349,0.5943612413,-0.790624903,0.2052377987,-0.3917881403,-0.9170428989,0.1191102348,0.3786134071,0.10140332,-0.9500188241,-0.4708377992,0.6332321432,0.4481089449,-0.8744162162,0.8333779843,-0.8734157402,-0.2453799716,-0.5771517129,0.096739522,-0.8087072372,0.7219785365,0.314280351,-0.2528931355,-0.6784363966,-0.4968500432,0.5735315749,0.3193832141,-0.1470047494,-0.2967569719,0.9136075019,-0.7116481619,0.1169976353,0.009026339,0.45281,-0.1535651398,-0.6489295288,-0.6460081939,-0.8603359786,0.5826239222,0.1461909509,-0.0547849743,0.6680787349,0.8388327239,0.7125608143,0.1382624989,-0.0860069681,-0.1400785626,-0.2550372051,0.2463957349,0.4247554125,-0.8863570033,0.7178691578,-0.936052721,0.4536535105,0.4084341613,-0.6233331071,0.2529214828,0.6946406122,-0.341405575,0.3566766519,-0.7705022767,0.5928022712,0.4767515188,-0.8223848263,-0.2392603809,0.8635758999,0.0663971298,-0.5411990559,0.2944587733,0.0691320037,-0.9926113924,0.9598036082,-0.7523037798,0.1932032833,-0.4565461535,-0.4589847413,0.8260632471,0.0264606101,-0.6163194579,-0.2996063971,-0.7648084144,-0.2313141211,0.1692398258,-0.1573730011,0.4855429869,-0.2460082661,0.9365942716,-0.0630286292,-0.4281718376,-0.2946618295,-0.1915597215,0.7200089981,-0.611714892,0.4245960115,0.3236348306,-0.9004208217,-0.9189332034,-0.6755927414,0.477356627,-0.0838692312,-0.5610117501,0.7080923206,0.2827515912,-0.8527001692,0.259663076,0.4471475951,-0.774204506,-0.524327346,-0.220144992,0.8777541709,-0.9210891169,0.6098724691,-0.6661961185,-0.9222681317,0.6707833762,0.8403813201,-0.0547376138,0.3215066719,0.6915284245,-0.8380722282,-0.9847050826,-0.2561820204,0.1246498467,-0.6082269558,0.4442551174,0.1835906769,-0.2374279453,0.5594815178,0.4174352866,0.3774165794,0.3064691553,-0.9005743833,-0.909362325,0.7838952546,-0.423359074,-0.1227249306,-0.248082354,-0.1799157837,0.5396856683,0.5817205379,-0.3842512866,0.7913084966,0.7587199322,-0.4873183732,0.9858594583,-0.7044204119,-0.947104881,0.2972492681,0.8629923155,0.3838737685,0.8124609589,0.5646124756,0.9738342399,0.2575197912,-0.8443741412,-0.1243039391,0.5702122929,-0.4119236109,0.8005928848,0.1820504738,0.9653419903,0.4512475439,-0.5574525724,0.7683254349,0.9931185762,0.6385937882,-0.6508461646,-0.1699772517,0.4737863628,-0.5119155751,0.4058381527,-0.2799537427,-0.4852780745,0.8501323005,-0.1437353564,-0.2206096801,0.2934858614,0.5071494662,0.4828484889,-0.2403748392,0.18110892,0.7005247203,0.6756278541,0.7434290982,-0.8431374868,-0.5787269803,-0.4492546635,-0.0305823556,0.1257635982,-0.3793932287,0.0997887852,-0.5324805159,-0.8299360675,0.996678994,-0.5487585048
   -0.0888506754,-0.8140262896,0.5137483579,-0.8547082208,0.5924276224,0.0168695685,-0.6899839001,-0.3367480876,-0.073302815,-0.7057630317,-0.8496151878,0.7128364522,-0.016333211,-0.3564650233,-0.5922502269,0.9974869015,0.8914373652,0.4737489204,-0.4103009224,-0.1288569805,0.1273354146,0.4594494178,0.1919534852,-0.8670556838,-0.7814130913,-0.1668057575,0.561711959,0.1690854978,0.8531462741,0.5819891057,-0.6248241578,0.7145085232,0.6122403353,-0.0625707442,-0.9433837579,0.166286394,0.2087716389,-0.0486120424,-0.0935742136,0.5281788193,-0.9871688541,-0.3564981579,0.4694047564,-0.2373902475,0.1455703045,-0.4532968666,0.1745315951,-0.4936831923,0.9226824925,-0.9429512494,-0.2225322098,0.0059225473,0.9287438397,-0.4259037155,0.6370471319,0.3096776463,0.5036634229,-0.2419231518,-0.6430006557,-0.5883740684,-0.0775071641,-0.8698851955,-0.1758419041,-0.2155587033,0.4262687497,0.2842611469,-0.3457167059,-0.0544207848,-0.0443953697,-0.4559519178,0.8953411169,-0.6353874196,0.897884083,0.4331590667,0.918359397,0.5939270737,-0.9435686706,-0.5484855323,-0.3755783963,0.2021343161,-0.8202466066,0.1502660385,0.5154019176,-0.4435471975,-0.753669863,-0.0152685144,-0.7901900452,0.9090409081,-0.1119238243,0.2919384162,0.5379323716,0.8410642701,0.1087246675,-0.2459723426,0.4225213377,0.7157475477,-0.046617023,-0.9512340482,-0.3487201094,0.9716605539,0.2855102148,0.9684180287,-0.1726058389,0.9874887629,-0.6724333497,0.8682280467,-0.5556375258,-0.5704618067,-0.8784149973,-0.3542395829,-0.2286286729,-0.3467753332,0.5659136035,-0.6476500015,-0.044531761,0.4697974393,-0.7848246602,0.5704885998,0.2451937861,-0.164352478,0.240235176,-0.6278807303,-0.7207421578,-0.3655100684,-0.9220825901,-0.9771669048,0.2217096492,-0.4235607512,-0.9938615265,-0.8886376812,-0.4371358334,-1.1354725098,0.7378962806,-0.2010586807,-1.0718699556,-0.6680329681,0.1508844831,-0.5333252245,0.3925848167,0.0299484597,-0.8676588928,0.7453277064,0.2389094709,-0.6315147035,-0.4296184406,-0.3362126169,-1.0600676045,-0.1634443957,0.0230660085,-0.0075528794,0.6470326997,-0.4922095403,0.0964511447,-0.5622380605,-1.0343470939,-0.5620406937,-0.9371236881,-1.0757738936,-0.7008289743,-0.7594978192,0.7507340165,-0.4599774523,-0.457618001,-1.2136411851,0.2369748075,-0.3774058619,0.4058385185,-0.2856553882,0.5974540523,0.3636746345,0.4290402279,0.5925386012,0.6444354261,-0.2058069304,0.9197695246,0.9669775148,0.4652104675,-0.5257464078,-0.6659804056,-0.4504183138,-0.0245270638,-0.6814094343,-0.58724801,-0.948348511,0.2218293732,0.367327453,-0.8270783904,-0.684447335,0.8472532015,0.2766066981,-0.3663270113,-0.1878178553,0.1170857025,0.2932039858,0.8687084624,0.9805432432,0.9118338693,-0.6756231272,-0.4589217951,-0.6893197707,-0.4069848697,0.0541977969,-0.4233578549,0.2512222736,0.1482989544,0.6376214581,-0.8675462468,-0.077213235,-0.477804676,0.0835365777,0.5163157069,-0.201507991,-0.4614599108,0.7780520315,-0.7862425721,0.1728292967,0.3210271931,-0.5007326443,-0.3213155003,-0.0198556499,0.5169526063,0.9891655762,-0.1791821353,-0.7799964747,0.738312785,0.6120394281,-0.2350732152,0.6315843211,0.5909177124,-0.1421934164,-0.4948604897,-0.0877903712,0.8958852668,-0.9642158453,0.2640288447,0.5269697242,0.8102326788,-0.1077676921,-0.6174013176,-0.6596386856,-0.2511263972,0.2665114897,0.163179518,-0.4824380448,-0.5937754381,0.3015365294,-0.7349416734,0.775626338,-0.8413292318,-0.8052223851,0.6840928247,0.2608544536,-0.3708586822,0.8160581458,0.8475600998,0.5085816336,0.6950437617,-0.9016005439,0.8554896204,-0.1583595381,-0.2791919502,0.6881624217,-0.6002693818,-0.2562554342,-0.7037101462,-0.3192640695,-0.6079961536,-0.5959557215,-0.7377167399,-0.8319777608,0.8321877117,-0.6308958208,-0.6469490627,0.4043029539,-0.3759152084,-1.1409192497,-0.8549408472,-1.169332742,-1.0257831213,0.1567006764,-0.4019541057,-1.1758301531,-0.9206457042,0.8130295216,-1.0168530315,-1.0180322781,0.7211728587,-0.276985338,0.6428089132,0.4069170422,-0.3576314154,-0.015439067,-0.1740303417,-0.3437891806,-0.7402319532,0.8649417604,-0.3193389313,0.9083759901,-1.0745144018,-0.231305331,0.5802833558,0.4298798576,0.4423774748,-0.2617488336,0.0998013667,0.0025959155,0.4400427701,-0.6414490008,0.5181127497,0.9333790415,-0.6023787108,-0.9231092131,0.3028379917,0.9870000672,-0.2403617255,-0.4307429705,-0.6662176667,-0.2763102753,-0.6688539941,-0.3156065103,0.7013195583,-0.8574580338,-0.1415877207,-0.6031470486,0.306207524,0.6655590505,0.3532649859,0.4697311352,-0.6564209134,0.6027453755,-0.6075635253,0.8189172074,0.3038459321,0.4479247489,-0.0256034413,-0.7815179512,-0.2818940513,-0.9902838073,-0.7580053172,0.5343986562,0.882982844,-0.981271829,0.8006886304,-0.2304657496,0.4828185247,-0.2334326231,0.5350728411,-0.0600362434,0.6708498573,0.5460193974,0.4625161089,0.6130801532,-0.8593802014,-0.0313487474,0.9051586506,-0.6062483009,-0.7811270942,-0.1039141894,0.7615185514,0.4647760371,-0.4888147832,-0.8588019251,-0.8410424143,0.3878811671,0.13157851,0.5154833504,-0.7317435871,-0.8084766999,0.0473689356,0.4588472795,0.5615491461,0.1117315849,-0.4294999753,-0.4119322406,-0.7051327023,0.6122497077,0.5159342828,0.3008209759,-0.8589856601,0.3340529169,0.7884235419,0.3095638615,-0.6271132262,0.2667976006,-0.1540940574,0.6142713161,-0.043463507,0.5173815194,0.7281978651,-0.2034445506,0.5677776494,-0.3368594924,0.9369610865,-0.779966318,-0.3299855789,-0.2932127079,0.1921725085,-0.430213248,0.9533279287,-0.0179195633,0.2178907597,0.7195510982,0.8184850206,0.9953526636,0.4635696708,-0.9621043829,-0.4378810593,-0.3958514536,-0.8328313739,-0.4153672018,0.4193318662,0.1142215843,0.6663097925,-0.7712857713,0.1199693203,0.7761406437,-0.6362677835,-0.7011395217,0.1148164633,0.3427557799,0.2532928063,-0.2818246436,-0.8720337446,-0.991226567,-0.5872358218,0.4739945451,-0.8083905032,-0.2063090017,-0.1203327859,0.3311159449,0.5879321808,-0.0973021914,-0.6935673423,-0.0532517801,0.1776507479,-0.9440551686,0.0287890686,-0.7280643859,-1.0180417152,-0.434829448,-1.1223113865,0.5205133675,-0.7409202439,0.2894242905,0.1541380874,-0.7730732352,0.7122093031,0.3796178546,0.2718991051,0.2246539908,0.0374838766,0.4539405793,0.593547675,0.147675853,-0.6315587537,-0.3380537597,0.241143142,-0.0587576139,-0.8517876176,-0.2064381563,0.1627565092,0.2081863271,0.4606982136,-0.9107317111,-0.7638918675,-1.2029665334,-0.6480192413,-0.0922970907,0.6905647919,0.6181598778,-0.8267813625,-0.0930661154,0.6287461344,-0.9857539867,0.476276951,-0.1043434688,-0.0710095027,-0.0887223124,-0.506658461,-0.9894385345,-0.0819275782,0.5358906895,-0.0549110717,0.0027191893,0.1433066565,0.4442091215,0.1180732993,-0.8644660292,-0.328959606,0.6414385088,-0.964786476,0.8971904809,-0.7845592475,-0.2648195064,-0.7333853212,0.3583907945,0.7774103851,-0.7790619749,-0.971446591,-0.6869955928,-0.8635912328,-0.4422938215,0.8501039073,-0.694192508,-0.5815546358,1.055672351,0.9565607626,0.2054565319,0.896494667,0.9372758311,0.2759086898,0.9739463269,0.679583107,-0.7271232548,-0.5254108704,0.463802378,0.4467978467,-0.9277156219,-0.0711862745,0.9742576457,0.8824674422,0.3933948673,0.0376746745,0.4776636803,-0.0312356178,-0.3308117276,-0.215698045,-0.9126138678,0.7919795038,-0.6456649768,-0.0486825726,-0.921565366,0.2158802965,-1.1228534046,-1.1812425081,0.3400830576,-0.3106180355,-1.0434295058,-0.6781770989,-0.0281396455,-0.5650654492,0.5363980063,-0.644749948,0.8929163962,-0.2767324027,-0.6576922158,-0.4238534922,0.996330196,-0.8255598256,-0.3854978965,-1.0517728079,-0.2325392641,-1.0661386105,-0.5553937276,-0.9884541649,0.5850260685,-0.7289547307,0.9324899243,-0.4369142066,0.5927292916,-0.5876499825,-0.3207398211,-0.9305397551,-1.212318599,0.4389516482,-1.007323316,0.2329717605,0.4518710187,0.881301993,0.0012385282,0.3522812474,0.0329309905,-0.8386789159,0.7731930294,-0.7810637291,0.8404518664,-0.7064260868,-0.8432836006,0.5710087504,-0.1159077506,-0.5433184375,0.817516285,0.5450920269,-0.8402639755,-0.0558334815,-0.0175476919,0.1219627268,0.1589453987,0.071247773,-0.8401906276,0.3387894284,-0.0181936731,0.1035228034,0.7725329189,0.975962122,-0.7301989886,0.6655018981,-0.7315463768,-0.4704764647,-0.1322099937,0.7506452351,-0.0538669403,0.0114999793,0.7055566557,-0.0749017655,0.8243998295,0.008128884,1.1429291645,-0.470526215,1.1833700712,0.0017582148,0.844512044,-0.7150686555,-0.6117976577,0.1126677606,0.0852769318,-0.7901970823,-0.0531631212,0.9170622984,-0.4317372123,0.2530159073,0.3329692253,0.4974866313,-0.2643645367,0.5505628399,0.6855082451,-0.6180874961,0.7343566478,-0.2887320317,0.8357685017,0.5277473916,-0.1422878129,-0.9618992512,-0.9863529829,-0.9929848383,-0.9760502186,-0.2570757436,0.1733835617,0.104834813,0.2627363268,-0.5657233446,-0.2761457193,0.7737305513,0.1040440209,-0.4981511066,0.8185811806,-0.3763640903,0.0959351908,-0.3238020649,0.7415670417,0.6419094591,0.1912473038,0.0948250203,-0.0989864415,0.2182764069,-0.6623167558,-0.3031710161,-0.653740184,-0.8208696423,0.5536169791,0.4046689517,-0.5234823596,0.5620694453,0.6113210944,-0.6257135904,-0.2323461737,-0.8380831619,-0.0161337883,-0.9051633496,-0.9967307621,0.3794756265,0.2119422767,0.6192795936,-0.0836752134,-0.5957319242,-0.653148278,0.7070799791,0.5675642806,-0.7374907368,-0.3740754922,-0.8397330604,0.4469841531,-0.2384349171,-0.9633949655,0.1341029464,0.3846000636,0.8621446299,-0.0745390665,-0.3475433116,-0.731100101,0.01377945,-0.2376513768,0.6892114104,0.7372521594,0.4322945754,0.9291006508,-0.6231728731,-0.3997779338,0.4848652853,-0.68267187,0.7949876198,-0.7808579634,-0.4429965451,0.9823599081,-0.7564161173,0.4969323169,0.3492157719,0.8925115852,-0.3025739596,0.6118949276,-0.4466046638,0.0994029013,-0.9441228672,-0.3426330151,-0.7852398608,0.7972594923,-0.1563412168,-0.951516604,0.1855884137,0.4224490219,0.5190787342,0.8972989288,0.57700086,-0.8754983088,0.0459302634,0.137519656,-0.3849602513,-0.1601348787,-0.1146865275,-0.2399062215,0.8072948977,-0.6203563911,0.0636284507,0.8609118187,-0.1736734792,0.6025717625,-0.5270096859,-0.8981338106,0.0161349585,-0.5155274932,-1.0570866505,0.6790782732,0.8583312132,0.2818012318,-0.2519223262,0.6943860815,-0.3415549892,-0.1853726621,-0.0285290479,-0.7341523948,-0.2416865395,0.0065132061,-0.6381423009,-0.8881103932,0.6373540006,0.1021995319,0.7682450453,-1.1502064772,-0.5341751716,0.1615145968,0.390981367,0.6567355049,0.5990094721,0.8014689944,0.8993392973,0.3694983319,0.5360107332,-0.5023527689,-0.5931668935,-0.6608947987,-0.5355959906,-0.6488537953,-0.0444795377,0.5366253924,-1.2080000111,-0.9526894462,-0.6594614406,0.3864018038,-0.3530332791,-0.3874851145,0.0061246306,-1.1570496305,0.1275610598,0.7752428769,-1.0756291731,-0.212218652,-0.1172805128,-0.2422867495,-0.9720365221,-0.277607516,0.4047583065,-0.3156973715,-0.2600883342,0.4265067683,0.5553642203,0.8211046536,0.1361075638,0.2474578892,0.1269099943,-0.8154965546,0.2564207109,0.1710933589,0.902755904,-0.0809796041,0.2335172182,-0.1309936333,-0.4056851448,-0.81889184,0.7710394542,-0.5618940414,0.3429237668,-0.4193275421,0.4508570208,-0.6185187043,-0.1965382689,-0.5031027316,0.5071146059,0.1045002867,-0.7896099439,-0.9825705998,-0.0266732911,0.0373925951,-0.9175358224,0.9021724374,-0.3912307567,0.8355670231,-0.2776325506,0.1529400575,0.5104180126,0.6889132684,0.167516806,0.6702187307,0.8166840616,-0.6486619421,-0.2517096971,0.6582897868,-0.5908040967,-0.1582143444,-0.0900734693,0.099960862,-0.9811213785,-0.3320072562,-0.545654097,-0.6378432809,0.0249379019,0.5624460689,-0.9914592581,0.3041823242,-0.7104217056,0.9062552359,-0.8178995745,-0.4640963102,-0.7304868623,-0.4023580554,0.0765092645,0.1495415203,-0.2802471733,0.1805665573,-0.1138059951,0.4925661561,-0.2343739456,-1.0745509097,0.1699548674,0.54961316,-0.6193637419,0.3808733193,-0.3471545708,-0.055070394,-0.0748225609,-0.8141622484,-1.0079631174,-0.129007756,0.3673593573,0.468803482,-0.0420833323,-0.4404524626,-0.7528078977,-0.2602110843,-0.3183285211,0.7113235788,-0.1346199604,-0.2382386274,0.8806046503,0.4206638773,-0.1220248712,-0.3124244377,-0.2875620898,0.9513330245,0.1781396205,0.4887089363,-1.0501524827,0.8197442321,-0.5737318742,-1.0379560867,-0.8735152336,-0.5381412538,0.6445656874,-0.9125497918,-0.2775838359,-0.4917838507,-0.5289119383,0.1579128842,0.6319325677,0.2875992892,-0.8880501943,-0.2815311196,-0.4636560775,-0.8666272061,-0.4616476608,0.2387956458,-0.8110629324,0.0250674759,-0.1580271491,-0.5009206439,0.8092387709,0.488379612,0.558816838,0.0132619864,0.4254229552,0.469316454,-0.9932574811,0.951897755,-0.6289851986,0.2610761107,0.7929071253,0.9258689438,0.8421417251,0.5149118056,0.1473850615,-0.6677889059,-0.0784187748,0.8662305097,-0.7607920519,0.543297578,-0.0241443852,-0.7928240513,0.1310765341,-0.1993664594,-0.1683763808,-0.8630540119,0.5289944847,-0.9854907766,-0.3623811457,0.6210943883,-0.0169259526,0.5707626589,0.8183851782,0.391066938,0.0626752407,0.8635670459,-1.1353569341,-0.8516475649,0.685347577,0.7739095548,-0.1289877275,-0.5135103162,-0.0259266738,-0.551993837,-0.0983943602,0.3428985587,0.1172584221,-0.9325141578,-0.8662196353,-0.4948222734,-0.3446761266,0.7777101686,0.1039521771,0.7849929332,-0.751867477,-0.1407960137,0.0174830342,-0.8625626487,-0.8673498204,-0.2434920506,0.376928192,-0.0515611882,0.1420911264,-0.159297067,-0.6101073503,0.9564639013,-0.022201997,-0.4581436762,0.2977469716,0.4147689404,0.4451060643,-0.4923598164,0.5464524798,0.7404478359,-0.6755581879,0.464371289,0.6207458269,0.5565268061,-0.2310939953,-0.0032769558,-0.9170670602,-0.5266440172,0.9795910376,0.9223592719,-0.2824576581,-0.4244521115,-0.6798118618,-0.2948553998,0.8566529138,0.6255286023,0.9302108418,-0.5223759384,0.0797544036,-0.7181767821,0.0585156614,-0.4018074077,-0.7160092736,0.6383389853,-0.0214729293,0.509202964,0.9573021943,-0.3689838311,-0.4296559583,0.7525181411,-0.0742095665,0.5705127478,0.6877566482,0.3429536638,0.5689771773,-0.5400172683,0.4808095406,0.0007044063,-0.2637650737,0.5299638606,0.1401622994,-0.1459942914,-0.1593605094,-0.3283753293,-0.4105033394,0.343278885,-0.0735055984,0.3896209433,-0.7677793824,0.3980111064,-0.2732227978,0.855811523,0.658719398,0.3776196589,0.8267576107,0.3850835137,0.8004033137,0.9275505761,0.3300375592,0.0745368491,-0.6431975108,-0.5981383537,-0.1567368911,0.0872782378,0.5168968673,-1.1779779864,-0.4981553276,0.1927955165,0.2784020855,0.0432937169,-0.2931457907,0.0931884009,0.0757445665,-0.3347874466,0.735439094,-0.881211559,0.7095648937,-1.0081228704,-1.0972680564,-1.170190797,-0.4555696539,0.1935283249,-0.3913949375,-0.0060238451,-0.4988555285,0.1892690172,0.688378446,-0.3181364206,-0.4763339712,0.9590806868,-0.308737835,-1.0928466346,-0.1981126899,-0.7286131099,0.1177831255,-0.5319343289,0.5315218355,0.1524136146,-0.8525538018,0.1462114617,0.4923514232,-0.9964034983,-1.112120271,-0.080883075,-0.773917365,-0.1467150482,0.6767154207,-0.6573302398,0.0950625977,0.5689930978,-0.5325474107,0.7597373423,-0.9968958043,-0.2435523416,-1.1694431997,-0.508793241,0.6527683874,-0.3986737801,-0.6772199426,-0.8093594191,-0.8913891832,0.1707198567,0.5714675429,0.6029456848,-0.5206638848,0.5208958056,-0.6286837127,0.3813519043,0.9134299429,-0.5229310709,-0.1726031176,-0.1288796633,-0.4843308417,0.4028680924,-0.6365631599,0.6339656314,0.9463649848,-0.5957136444,0.8864934463,-0.692720378,0.7530280454,0.3269905477,0.0746734848,0.1798393366,0.09070528,-0.7517597917,0.1941498423,0.3952493773,-0.0127612662,0.8246659119,0.3517249821,0.5143686807,0.8096962207,-0.7228430416,0.589191297,-0.7320283511,-0.911776138,-0.7858915515,0.7257383353,-0.8491063406,-0.6464294972,-0.8457222748,-0.6453430973,0.8489109459,0.1445339981,-0.2894998042,0.9005900398,-0.2503951442,0.5014558522,-0.3014102684,-0.9629352484,0.273051774,-0.9272788809,0.1575528521,-0.767663367,0.7034275978,-0.5456309196,0.1056533538,0.6429949947,-0.2126855611,0.730506658,-0.9308078564,0.208794799,0.5192558504,0.4436376853,-0.6876224609,0.5445016906,0.6317638288,-0.4003322095,-0.2946034447,0.0767328146,0.168194793,-0.4931063455,0.0686580706,0.5929070137,-0.7275775656,0.9802266429,-0.7705421349,0.4835543971,-0.8984425557,-0.0580991868,-0.6326844649,-0.5407647136,0.2679641152,0.9499153006,-0.1957667184,0.0233185368,0.7168238162,-0.3145389285,-0.0238734253,0.4818692304,0.4454953464,0.9305820609,0.6616766927,-0.2281042522,-0.0290778393,0.0673206758,0.4448551357,-0.1107937859,0.9513364714,-1.0305299011,-0.5385575091,-0.7660445335,0.6920891285,0.2727378854,-0.3327186332,-0.8347200571,-0.7191478118,-0.3042405206,0.0538561587,0.4461214967,0.5235960699,-0.9592891202,0.1019794159,-0.775629305,0.308722281,0.3445627025,-0.7404724082,-0.1626363979,-0.2829009342,-0.6378875949,-0.5112884481,0.3850311906,-0.12695715,-0.0466866079,-0.4839185447,-0.0970293679,0.1061590603,-0.7188490123,-1.1034839863,0.6316884616,-1.1747076803,-0.77368471,-0.6575538759,0.2982656151,-0.3141639801,-1.0750791037,-0.6504371242,0.3866943453,0.5316512633,-1.164476495,0.7302599346,-0.766862991,-0.2271548147,0.2416833924,-0.9939397017,-0.1576432665,0.7406586506,-0.403674237,-0.4897225668,-0.2584300475,0.5407133206
##end
biasActivation=0,1,1,1
[BASIC:ACTIVATION]
"org.encog.engine.network.activation.ActivationSigmoid"
"org.encog.engine.network.activation.ActivationSigmoid"
"org.encog.engine.network.activation.ActivationSigmoid"
"org.encog.engine.network.activation.ActivationLinear"
