encog,BasicNetwork,java,3.2.0,1,1451393869865
[BASIC]
[BASIC:PARAMS]
[BASIC:NETWORK]
beginTraining=0
connectionLimit=0
contextTargetOffset=0,0,0,0
contextTargetSize=0,0,0,0
endTraining=3
hasContext=f
inputCount=51
layerCounts=1,205,205,52
layerFeedCounts=1,204,204,51
layerContextCount=0,0,0,0
layerIndex=0,1,206,411
output=0,0,0,0,0,0,0,0,0,0,0,0,0,0,0,0,0,0,0,0,0,0,0,0,0,0,0,0,0,0,0,0,0,0,0,0,0,0,0,0,0,0,0,0,0,0,0,0,0,0,0,0,0,0,0,0,0,0,0,0,0,0,0,0,0,0,0,0,0,0,0,0,0,0,0,0,0,0,0,0,0,0,0,0,0,0,0,0,0,0,0,0,0,0,0,0,0,0,0,0,0,0,0,0,0,0,0,0,0,0,0,0,0,0,0,0,0,0,0,0,0,0,0,0,0,0,0,0,0,0,0,0,0,0,0,0,0,0,0,0,0,0,0,0,0,0,0,0,0,0,0,0,0,0,0,0,0,0,0,0,0,0,0,0,0,0,0,0,0,0,0,0,0,0,0,0,0,0,0,0,0,0,0,0,0,0,0,0,0,0,0,0,0,0,0,0,0,0,0,0,0,0,0,0,0,1,0,0,0,0,0,0,0,0,0,0,0,0,0,0,0,0,0,0,0,0,0,0,0,0,0,0,0,0,0,0,0,0,0,0,0,0,0,0,0,0,0,0,0,0,0,0,0,0,0,0,0,0,0,0,0,0,0,0,0,0,0,0,0,0,0,0,0,0,0,0,0,0,0,0,0,0,0,0,0,0,0,0,0,0,0,0,0,0,0,0,0,0,0,0,0,0,0,0,0,0,0,0,0,0,0,0,0,0,0,0,0,0,0,0,0,0,0,0,0,0,0,0,0,0,0,0,0,0,0,0,0,0,0,0,0,0,0,0,0,0,0,0,0,0,0,0,0,0,0,0,0,0,0,0,0,0,0,0,0,0,0,0,0,0,0,0,0,0,0,0,0,0,0,0,0,0,0,0,0,0,0,0,0,0,0,0,0,0,0,0,0,0,0,0,0,0,0,0,0,0,0,0,0,0,1,0,0,0,0,0,0,0,0,0,0,0,0,0,0,0,0,0,0,0,0,0,0,0,0,0,0,0,0,0,0,0,0,0,0,0,0,0,0,0,0,0,0,0,0,0,0,0,0,0,0,0,1
outputCount=1
weightIndex=0,205,42025,52633
weights=##0
##double#52633
   -0.0110538416,-0.4240828395,0.9543853469,-0.9048930134,0.2291365732,-0.9704919046,-0.1719868999,-0.9793762386,0.6939277501,0.4146706039,0.3355420441,-0.0490402193,-0.2239882221,-0.2608119022,-0.6929463588,0.7060589489,-0.7969659457,0.752199887,-0.2225936065,-0.7861407499,-0.6353803484,0.7687861367,-0.82763623,0.4657370854,-0.8127487528,0.5941622058,-0.6495122362,0.0127262927,0.0384439285,0.6285370445,0.7912433829,0.7180656117,0.6289668717,0.8352528425,0.3888218916,0.2405070788,-0.618138103,-0.600645635,0.5008468675,-0.1045099465,0.2370088995,-0.8853260854,-0.3847556833,-0.5654238227,-0.6400118491,-0.8638493342,0.8540268551,-0.5310919142,-0.2760105171,0.0466031269,0.3882106981,0.9197709315,0.034744901,0.9635406627,0.5509748432,0.3343882817,-0.0413512961,-0.1743374817,0.6344139977,-0.5892976063,-0.8514270878,0.2418568437,-0.5002319284,0.5748888623,0.9931983242,-0.7926127852,-0.2674264546,-0.0446443582,-0.3984591199,0.2478135345,0.5627132734,0.5969764475,-0.0287160284,0.8636941786,0.2595287888,0.2593085258,0.7789235545,0.2809522082,0.2465029219,-0.3574551946,0.8784632679,-0.886649044,0.6113330415,0.3849504195,-0.2278216985,0.0308289867,0.2730746092,-0.3244663967,0.2319058254,0.027444432,0.5005737976,-0.1742990302,0.4675622937,0.382678703,0.0009391689,0.6436471563,0.6272948125,-0.0901504248,-0.678666332,-0.0447711521,0.5109762569,0.5853836505,-0.2600927605,-0.8849268228,0.0300441384,0.1526981913,-0.5924502436,-0.1483295025,0.1478082221,-0.2055576663,0.9334564518,0.2902015294,-0.8198902945,0.4668476717,0.1418417832,-0.5031511138,0.9377772754,0.9899382188,-0.7826748223,-0.6116570278,0.6796300338,0.4873497436,0.9577386483,0.3517188178,0.3447773066,-0.7304915187,0.3531062836,0.4094479154,0.0341918836,-0.24608078,-0.7904543814,-0.7005471315,0.2017207611,0.5163127599,-0.9631591246,0.2708251658,0.5490411968,0.0664027505,0.9184380799,-0.015425798,-0.9496176115,0.4420019021,0.5826120536,0.3188606794,0.1186924688,0.2152475701,0.3935552827,-0.5133324961,0.3562429939,0.0046867174,-0.5188613415,-0.7842636898,-0.1329931245,-0.9130297506,0.7280940964,0.427214922,0.5983331856,-0.798093274,0.8345955877,-0.7988514386,0.6806688347,-0.855374554,-0.8295972433,0.3911038763,-0.7659228726,-0.7614010905,0.6590747285,-0.270972666,-0.3896968068,0.2832746529,-0.6299253825,0.7640879989,0.5391362888,-0.9299335403,-0.9195556634,0.4792546775,0.1478189789,0.0616815108,0.5002684617,0.9293574446,-0.6777468084,0.3199475301,0.3806771608,-0.2556164606,0.3787531481,0.3028743099,-0.7523305614,-0.1582423584,0.5150951651,0.5731839841,-0.0624229974,0.1913565169,-0.990385663,0.0807475508,0.6958484418,0.9770080426,0.6370980908,-0.9560098534,0.0333724696,0.0042792919,-0.7297733875,-0.924469305,0.0603167921,0.6559208721,-0.864689844,0.435533293,-1.0978396515,-1.0498639679,0.3921305747,-0.27828522,-0.0061468087,-0.0621808727,-0.0412184015,0.1843140949,-0.7879247496,-0.2850886171,0.5596309067,0.5957006221,0.7701138803,0.7246806217,-0.4680107103,-0.2737093789,-0.7144466916,-0.2790584599,-0.0690043358,-1.0304527729,0.4052746393,0.3930557114,-0.8505391794,-1.03301955,-0.5695441493,-0.0090684179,-0.4468200744,0.2331471745,-0.0584282034,-0.0499755253,-0.9043799805,-0.2193488401,0.4233942055,0.5163365868,-0.051923731,-0.2548569587,0.8899916807,-0.6285830101,-0.8763592856,0.0103203285,-0.4902702996,0.2573616322,-0.8977977278,0.8329274064,-0.7697293813,-0.3981866648,0.4554467336,-0.532244466,0.4035736643,-0.8570382035,0.471856764,0.7926428472,-0.5891050601,0.5545435888,-0.2182880954,-0.0665256452,-0.7122125754,0.0708421584,-1.0179114285,0.8891819423,0.349100972,-0.888312172,-0.738139944,-0.8432556315,0.8139823103,-1.0925422049,-0.9733034762,0.3561872695,-0.5691249573,-0.8759238681,0.5240650163,0.8555831542,0.1643912165,0.4880137858,0.4682294489,0.3960514073,0.5109534808,-0.5887114217,0.6652506129,0.716758289,0.7425107682,0.6164652077,0.6379861744,0.1799169336,-0.0871773862,-0.2383447547,0.2510906741,0.3957873513,0.7918169969,0.0655171391,0.3360155285,0.8476764267,0.4287187704,-1.0677437893,-0.6839909719,-0.4830620808,0.7770496631,0.5766246584,-0.1688836605,-0.4920275358,-0.680371722,0.6489215535,-0.6368204968,-0.3267724288,-0.3064299055,0.8599928437,0.8608374359,-0.7618023751,0.3152874657,-0.3937686493,-0.6354740726,0.4264238854,-0.9945103804,0.5945767728,0.6314776452,-0.9155055134,-0.3858173394,-0.5324843188,-0.239277871,-0.6929555608,0.645669567,0.4280815241,-0.1819142044,0.0617556278,-0.1164498084,0.8648546232,0.4611919359,-0.1906756883,-0.9842787365,-0.0230378244,0.5644607158,-0.8463763742,0.2593763866,-0.6009217461,0.8441091763,-0.5836214198,-1.0139939616,-0.1735761945,0.4831512333,-0.6875089405,0.3463975736,-0.3602333476,-0.2436023221,-0.4501226765,-0.1043647804,-0.469578508,0.6554561765,-0.5404994933,0.2181000807,-0.8747501037,-0.4862687306,-0.3796293807,-0.4780923652,-0.3883396869,-0.3685756267,0.4845445459,0.4167202362,0.3320455644,-0.0994662211,-0.9978739544,0.2331221126,-0.438404653,-0.5701453479,-0.7537342457,-0.046755632,0.8317962341,0.1699790344,-0.961838819,0.6829524809,-0.1595683281,-0.4617041589,0.5720567112,0.3074088045,-1.0349805168,-0.9560091364,-0.9597563966,0.1160725676,-0.1228756343,-1.086953232,-0.7419400064,-0.5723001266,0.1879828911,0.7132430957,0.2888908912,0.2153437011,0.0693785068,-0.0208437383,0.0691681806,-0.2686460965,0.8786415352,0.8371595578,0.0333706219,-0.8676227907,-0.2163508271,0.6304231496,-0.2609761503,0.1043572225,0.3878254932,0.5439140783,-0.5082996262,-0.5124655792,-0.6448585575,0.2293962598,-1.029980421,0.6824283509,0.4641299622,0.6892632788,-0.7244466135,-0.4184558411,-0.9321468623,-0.7075892073,-0.2290658467,-0.266115183,-0.6888386683,-0.8242240456,-0.8222342172,-0.0004117358,-0.6357489229,-0.1725736093,0.6847994963,0.025901815,0.4656782822,-0.4149608966,-0.3879634865,0.3721821589,-0.9526417704,-0.2390995305,-0.4662250691,0.6348953603,0.8595655786,0.7669062412,0.4075159693,-0.4273831416,-0.9040656389,0.2395615448,0.6950577239,-0.768968532,0.5184579866,-0.8350191174,-0.5105517098,-0.9320666214,-0.4175107629,0.0038881321,0.63959514,0.0782261547,0.5617402719,0.8166165447,0.875265118,0.9189227356,-0.3267173767,-0.611891253,-0.0679155551,0.0341454354,-0.7974528001,-0.6470832584,0.6765387172,-0.2198740561,-0.3716757149,0.3202019056,-0.7690270954,0.5502053259,-0.2522364631,-0.0012650098,-0.9014086464,0.8998340203,0.8013739886,0.3218961229,-0.7115422153,-0.3284281586,0.5980240481,-0.4273251948,0.4404952937,0.1200879794,-0.3600585014,0.5086699148,0.9504863511,0.0371609983,-0.7462774389,0.487089703,-0.904927198,-0.1233211625,-0.3147134185,-0.4102482033,-0.8432441318,0.8796388118,0.2849666552,0.7480831987,-0.451103855,-0.8008523901,-0.4275809974,-0.1318797152,0.9407136033,0.0254212972,-0.6083317176,-0.0444911923,0.3822875881,-0.2892146874,-0.9699014725,-0.759496106,-0.5704431795,-0.1053255293,-0.6565468536,-0.6970299539,0.2693193966,-0.3713670392,0.8808349224,-0.8026188595,-0.1557672135,-0.4986856525,0.009706013,-0.4221795705,-0.0221861638,-0.2365184296,-0.9591120483,0.8229805401,-0.5005612337,0.4530069438,0.3535616474,-0.8388365266,0.3693431729,-0.4801278432,0.5202673824,0.7952806076,-0.196377974,0.9511682748,0.4319048153,0.0278526936,0.3992296719,0.8960957362,-0.577267021,-0.6139901412,0.258979831,-0.2146540818,-0.6046297179,-0.2535083946,-0.8834544012,0.4841933233,0.9457945081,0.4606468102,0.4614594469,0.361311203,-0.5116571859,-0.5205662754,-0.3358867802,-0.5300440659,-0.6192882658,-0.5215800238,0.1007581391,0.6448748319,0.0489571766,-0.017217433,-0.7214952001,-0.3670754154,0.1124944241,-0.5076921266,0.9603231738,-0.7819287424,-0.4782065526,-0.3936083522,-0.7099573949,-0.6536097099,-0.3800976575,-0.8382656706,0.9173518161,-0.7489335035,-0.605599545,0.2938644831,-0.8772010991,-0.4226059337,-0.5245547444,0.6890919229,-0.0572086684,0.5077765642,0.3242489026,-0.417445412,0.2945959532,-0.1132730711,0.345382929,-0.0533048939,0.1013389864,-0.6541325246,0.0117782429,0.6035654789,0.4170060271,0.4289298934,-0.0102748721,0.349827083,-0.4481673293,0.716755247,-0.7361267583,0.0817506705,-0.8046486118,-0.0477060247,-0.737768382,0.9202163688,0.5452977756,0.1656058934,-0.018831335,0.3357136791,0.4287043029,-0.2011398096,0.1104121656,0.2733414789,-0.5711465591,-0.168664569,-0.8419507222,-0.7221919802,0.009887036,-0.0955804456,0.7028412271,0.8740904472,-0.1099080509,0.1049016146,0.1913543167,-0.8446538535,0.7544135164,0.2268591328,0.737674852,0.4475114039,0.6109449948,0.6102907836,-0.6687867671,-0.2136166628,-0.6065672778,-0.1865453768,-0.2436982646,-0.3410690586,0.6430449124,-0.3421100411,0.2171945097,-0.3717049147,-0.8666283481,0.8553704723,0.9630675811,-0.0412114869,0.4954249049,0.6289979695,-0.0869811504,-0.7591041562,0.8426385086,0.3421086325,0.2810680913,0.0162735721,0.3958681757,-0.8786801074,0.2011569561,0.4027500665,-0.8916085058,-0.518078943,0.3521489697,-0.2806744288,0.2909079278,0.9528733075,-0.4171704679,0.1111722057,0.2365388135,-0.2981903005,0.5369059193,0.174633964,-0.1541726357,0.1600351659,-0.7219927192,0.5822267151,0.2517386684,0.647526513,0.9146846432,-0.2923617969,0.4446596886,0.9979324222,-0.7745890946,-0.7492719528,0.8973992627,0.18357345,0.2835808443,-0.137472258,-0.8098118969,-0.0595579716,0.0825111093,0.7702406562,-0.3643212012,0.3932024641,0.1604402261,-0.6037670289,0.9039458122,-0.3198090616,-0.7744714052,-0.9869210062,-0.3525145195,-0.4215844918,0.7808584917,0.3084705314,0.1262160176,-0.8714438949,0.7494340661,-0.9296924856,-0.1675224892,0.259964536,-0.9008186565,-0.218347312,-0.8839680769,-0.5843355183,-0.5320517748,-0.7482593295,0.8090630929,-0.8226485003,0.7885044861,0.2409779569,-0.1488232679,-0.1096069786,0.9135417763,-0.9140570846,0.9144004296,-0.7111716468,0.2406736212,-0.6756142091,0.0281836474,0.1203686772,-0.6625645787,-0.6797712978,0.204397724,-0.2286029506,0.5662844527,-0.1114343564,-0.9376641282,-0.108031598,-0.2904001354,-0.0793375159,0.4537131796,0.0208095414,-0.4053173169,0.0089569678,0.0876666093,-0.7896808509,-0.2812441915,0.072058714,-0.844245001,-0.3484322179,-0.1204175463,0.9797492169,-0.0430409378,0.299297872,-0.2276260435,0.1779818451,-0.4773186139,0.4969237252,0.6709741551,-0.6861181569,-0.7582535662,-0.3984684769,0.9966750119,-0.1392536695,0.4854005436,0.6088793232,-0.0286911978,0.7430443011,0.2323119277,-0.2216029438,-0.7633703232,-0.0385833765,0.6935706745,0.2581865294,0.4793136614,0.2049807301,0.9376887467,-0.289978576,-0.9440413446,0.5398071772,0.5029046695,-0.065652703,-0.3819155648,-0.0930334787,-0.9143399068,0.49528158,-0.2628673493,0.8744824446,0.0382560441,0.3456135793,-0.4705331728,-0.8011448097,0.1227591717,-0.5481955234,-0.7186276347,-0.5372431215,-0.931381061,0.4189873292,-0.9247168971,0.7000315032,-0.7857308157,0.1159670679,0.4086485031,0.0206949329,-0.8698250048,-0.6997795005,-0.168800722,0.2359349122,-0.7557766654,0.2428963063,0.5576817664,-0.5168889399,-0.5332769595,0.3538150443,0.098990743,0.8507548712,0.815404826,-0.1935308549,-0.1140571414,0.0035697137,-0.9595787221,-0.8369770844,0.8942766387,0.8074308328,0.2493468607,0.9993125379,-0.7303475172,0.1161284121,-0.7564915727,-0.2992665163,0.3052364617,-1.0009599763,-0.4008478756,-0.4020775473,0.8375395045,0.2969885889,-0.2015214125,0.9060015243,0.7985015095,0.3989030618,-0.4597511972,-0.5498034722,0.3351256504,-0.6548969775,-0.2990418682,-0.7352823309,0.3350401013,-0.0538341356,-0.5401636894,-0.2822404718,-0.4504550892,0.9091533546,-0.5761525492,0.6365010601,-0.2774817469,-0.0373883647,0.7526900389,-0.5678944058,0.711510177,0.9815712248,0.2837969355,0.2247208367,-0.3853042694,-0.8874529853,-0.3426646227,0.9684788671,-0.1045156615,-0.1014617262,0.441206976,0.5764961403,0.5075197994,0.404028644,-0.7439522828,0.0458734865,-0.9803197134,0.3399861428,0.9002279632,-0.4173038891,0.74107835,-0.8111368373,-0.5251475508,-0.2729664063,-0.1539390879,-0.6704035281,-0.4912397126,0.4779398899,0.4992092728,-0.8373927876,-0.9164750363,0.4184533294,-0.0196608947,0.2348009023,0.95845434,-0.1594033828,-0.1904995413,0.3645674336,-0.3044093484,-0.1296231663,0.871977757,0.7667810742,0.7907195734,-0.4072145662,0.5432897985,-0.8221995338,-0.2316750968,-0.8232017524,-0.1858102428,0.9804686283,-0.6333208094,-0.9996245198,0.4156651824,0.3291129518,0.6027531095,0.7754617121,-0.0560620026,-0.7254547953,-0.0727392295,0.6729858976,0.9854645015,0.8890615304,0.3436506606,0.4466348046,0.2419353678,0.3914424452,0.5331056408,0.5627592632,-0.3447243544,0.2719528425,-0.0204570526,-0.6807586468,-0.4673552411,-0.5826580106,0.094614192,-0.0295055946,-0.3285634937,0.2358435291,-0.6572946395,-0.1414041882,0.4842790618,-0.2178245215,0.3659368149,-0.4666192225,0.1240349739,0.8825402309,-0.8908367093,-0.1213311171,-0.3911988335,-0.7403754472,-0.0550261,-0.7627359174,-0.0530910613,0.6575995881,0.7986921289,0.5359547075,-0.738076036,-0.0384975842,0.2721492757,0.4105134617,-0.0823537083,0.3503282416,0.7748172649,0.3306974258,-0.3568896549,0.3658460203,-0.3634569804,-0.2747519454,0.6575849235,-0.9062171682,0.2448140896,-0.8931088216,0.7955732003,-0.7392683058,-0.8363741647,-0.8026629976,0.6318127245,0.36477,-0.7402920063,0.0522801066,0.6062754199,-0.1995404838,0.8402199887,0.186399446,0.1491675853,-0.016153614,0.7142743685,-0.2889463371,0.8059298948,-0.5225388734,-0.5551100681,-0.6041954747,-0.6377626035,0.1153186309,0.3470386035,-0.0796299493,0.9689995156,0.1279181662,0.6761219941,0.8726713818,0.2673600494,-0.7327566251,0.7402760901,-0.0626906519,0.5136971727,-0.0694642872,-0.9746287476,0.0078691552,0.704623434,0.2914272594,-0.6799877818,0.3119203831,0.7019857571,-0.5873249053,-0.1594619015,-0.4639830134,0.3578654408,0.3834269244,0.3560223795,0.9506972966,0.6395781592,-0.5619117348,-0.6867270778,-0.4645159832,0.7546739608,-0.9174509898,0.9618319639,-0.8961157717,-0.7240627307,-0.7808165729,0.4789761148,-0.5716106138,-0.7336131159,0.2718501586,-0.7812750044,-0.9579123317,-0.8630045171,0.7908882631,-0.6940312909,0.5613361915,-0.986402903,-0.6189310646,-0.5987733753,-0.7380230932,-0.0813250505,0.7197346968,-0.0917842165,-0.8316676749,0.8731335813,0.1896064933,-0.3025498987,-0.3222281692,0.7279556581,0.8573349605,0.7312403695,0.1857116837,0.7257254088,0.1065863576,0.6886942537,0.7106150185,-0.8616760636,0.2468706947,-0.4092837052,0.5189918448,-0.1080707797,-0.8452863938,0.4250079096,0.7503990476,-0.8079838867,0.8905704153,-0.2289326117,-0.9575596138,0.1483563445,0.3254433181,0.4251898975,0.1557664964,-0.5999814833,-0.2341186126,0.0254674777,0.5990748872,-0.2596318909,-0.4210194295,-0.3232109548,-0.7458900569,0.742067475,0.8173836899,0.5758403913,0.0006629247,-0.6179241577,-0.1557195579,0.6361041815,0.3415719662,0.6666493156,0.9584074004,-0.8871400433,0.0277220774,0.2563408725,-0.9809519893,-0.7718158665,-0.3169548569,-0.9216949458,0.0710325967,0.7959500031,-0.5704800768,0.0127667149,-0.0429569576,0.8468277307,-0.50820436,0.4011069574,-0.9939106426,0.2532843575,0.9240740409,0.7777381354,0.5315565524,0.3545837999,0.0313452724,-0.5482945854,-0.4168422391,-0.4182131515,-0.8018479927,-0.8656569759,-0.491542319,0.0827511698,-0.5882926194,-0.4337179327,0.5905678851,0.3471313045,0.9072714021,0.1424505226,0.6731468198,-0.1686213315,-0.2195443568,0.5370732435,-0.2146001925,-0.416258447,0.6756998022,-0.6713280419,0.7670790461,0.8692651244,-0.7156814246,0.6250652709,-0.106516393,-0.2365224898,-0.9035452141,0.6883686596,-0.499540562,-0.0660406352,-0.0373971817,0.5599944779,0.6093993616,0.9522047417,0.7313039323,0.6856519544,-0.4477569257,-0.7682397815,-0.1258537379,-0.4596528077,0.5964771491,0.4966553376,0.1107648182,0.2533831708,0.5701350328,0.4433349514,-0.9661585151,-0.7666402573,-0.5132029524,-0.6624329614,-0.2658949775,0.7931736374,-0.8294096089,0.6956270785,-0.5746689347,-0.2249815428,-0.1188108642,-0.1468863265,0.0693421233,0.1753846817,0.9388142286,0.6180407406,-0.9989924191,-0.2299403363,-0.6507665089,-0.1097809301,-0.4467563016,0.7391276324,0.428761622,0.2862563282,-0.3348067022,0.2919696905,0.4292601925,0.7645570563,0.5913273265,-0.7204314957,-0.8368623501,-0.7496773305,-0.6417582689,0.8829848656,0.6283493173,-0.7394485401,-0.4421394152,-0.8946044985,-0.3666026091,0.5290385932,-0.111665478,-0.4459084833,0.4223309439,-0.3686238901,0.7958610525,-0.0580887981,-0.7002540773,0.6099529267,-0.9003154396,0.785025973,-0.7442148498,-0.4010451661,0.6170963069,-0.0021049418,0.5851292614,-0.5506355019,0.7884344255,-0.4757254386,-0.457957985,0.3539614603,-0.6979160739,-0.0377825387,0.9052796719,0.4723221362,0.7194766944,-0.8109263892,0.6631816161,0.555819817,-0.8999085112,0.9864897395,0.6086250451,0.5726246686,0.6264539455,-0.3345905506,0.9700340314,0.332703732,-0.2450867631,0.244939549,0.566311747,0.5858592262,-0.4352786206,0.1184306052,-0.6325749979,0.2203735654,-0.4118345567,-0.8845226785,0.4055048676,-0.4974933249,-0.7477221006,-0.4408917372,-0.9295255618,-0.6792831925,-0.1350494064,0.4344613684,-0.3551650644,-0.7119284106,0.7399347464,-0.4862160478,-0.5078577325,-0.1327519771,-0.678159047,-0.5185672958,-0.830688283,0.4955324849,-0.6888608151,0.0588736889,0.5516179429,-0.2901792731,0.7891587878,0.1296823454,0.9576949778,-0.7283821238,0.3430884817,-0.1354565117,-0.7254637705,0.2920384352,-0.8090236375,0.8462513073,0.0824944825,-0.64319372,-0.6932700985,0.1947093663,-0.2197181061,0.6512546634,-0.4548840561,0.6919306053,0.7099699976,0.0853262116,-0.2332392894,0.9070373385,-0.718010299,-0.5814270732,0.9631497974,-0.678738745,0.1001312882,0.3851561864,-0.6183718258,0.4529434202,0.0865444169,0.8188467419,0.650400188,0.9825342729,0.6067381205,0.7780247203,-0.0964704416,-0.1224063728,-0.4054191933,0.6706796235,-0.0940606184,0.523799736,-0.3226997406,-0.6205896718,-0.8215878719,0.8199039756,0.3004836367,0.3864250874,0.1225896441,-0.6371785273,-0.1469225287,-0.1014584731,-0.8540268505,-0.4874595199,-0.2076123282,0.9721866495,0.7869232411,-0.4528323133,0.7690795215,-0.3616031688,-0.1603401117,0.7819191574,0.7521776783,-0.9721821753,-0.5207375624,-0.3058796693,-0.8459338249,-0.504295243,-0.6133303904,0.0482060221,0.9554884213,0.74692213,-0.1263204999,-0.9792795798,0.8305471989,-0.03905618,0.0079495796,-0.6746829097,-0.7282953338,-0.0831469204,-0.2620033063,-0.6622410287,0.7147823574,-0.8816574646,0.0181970634,-0.7790816223,-0.3360388205,-0.0812858101,0.9337862844,-0.9502230009,0.8167814168,0.6458794197,-0.1741406731,0.9364259004,-0.8108572738,-0.2726410236,-0.5892479005,-0.8449344804,0.2403041423,-0.1847170126,-0.0668663643,0.2670056728,-0.0021159276,-0.0886090453,-0.7651782819,-0.7543344518,-0.8171397002,-0.5079682451,0.9359672556,-0.3984262888,-0.6654300169,0.6331636405,0.5319620931,-0.4926318993,0.9357096555,0.1353542377,-0.4759425484,-0.0772039685,-0.4626647756,-0.3512194511,-0.455636073,0.7324095054,-0.1161380261,-0.2017710488,0.4808514902,0.8070886491,0.0507598743,0.3080951964,0.6023494864,0.2559948397,-0.4939229787,0.1273844112,0.6835466365,0.4246175794,-0.6376072393,-0.4452889022,0.129991036,0.0832510573,0.3748645635,0.3632991334,-0.8969098443,-0.4607011621,-0.870295413,-0.0740182306,0.6438842795,0.7622738613,0.1564843655,-0.6597983671,0.8041793148,-0.4912015591,0.0531348065,-0.4449814612,0.7592811698,-0.5523957332,-0.3890538067,-0.5139295739,0.9452613781,0.2845324037,-0.0604318157,0.1606514846,-0.8221757153,-0.1124667097,0.5920098128,0.8226340285,0.7785336117,0.4116667417,-0.3103605137,-0.9324924407,0.6998124534,0.424101947,0.0471849889,0.9653709552,-0.3500567191,0.7376158356,0.4243476304,0.1713387376,-0.5001415215,0.4929971589,0.3822139191,-0.4930685382,-0.9465723463,0.4792740016,0.0295710029,-0.7487696257,-0.0884458474,-0.7726393301,0.8109074074,0.2388607195,-0.3494375623,-0.718156654,-0.6593664676,-0.8693803844,-0.1704105279,0.8259800866,-0.9719183461,0.0384760579,-0.3863684065,-0.6932991777,-0.2974940776,0.1505709147,-0.5975492351,-0.9403926392,-0.7619176373,-0.6437830698,0.4516683246,0.9339733839,-0.8210911245,-0.1291012759,0.4997181098,-0.082255553,0.3640052366,-0.13872721,-0.6075441666,0.762537983,0.5523130956,-0.9298325029,0.7081590842,-0.3913567025,0.0476959781,0.4415830901,-0.6174726762,-0.389978427,-0.6760607153,-0.2543083127,-0.6663181089,0.559305866,0.6497502911,-0.7961627167,-0.9128340014,0.5128011077,-0.2862418532,-0.8864642528,-0.5990552656,-0.5845158953,-0.7504861221,-0.5265251767,0.8904050614,0.7260035395,0.660490385,-0.3914858695,-0.3466441832,-0.9583200325,-0.3549175575,-0.2053148369,0.8950277146,-0.2764941785,-0.1723842358,0.8841912903,0.5530733417,0.5211454077,0.3533016878,-0.0695922444,0.9225671615,-0.8020650927,-0.4266721993,-0.1871183212,0.2810055116,-0.8441176225,0.6097673166,0.8623320542,0.5133066053,-0.9393322502,-0.9893756152,0.4856497503,0.7368105303,0.4666428311,0.368825032,0.7908975116,0.9262792494,-0.5581686977,-0.0527828424,0.2123099571,-0.4611033998,0.1929287208,0.3035705375,-0.8647064191,-0.8607317038,0.6903025179,0.9155768219,-0.4785732474,0.0244219252,0.2929920001,-0.1941504641,0.5334597162,-0.1511930502,-0.6262916509,-0.8330759198,0.1603145903,-0.7507052921,0.9438346222,0.9862577308,0.8420853696,-0.5298215873,0.27842575,0.671229637,-0.9049620774,-0.0118268481,0.5412085398,0.6741408247,-0.8633900058,0.1374158883,0.4039632355,0.1172141941,0.5104112035,0.73446546,-0.3003842938,0.417594521,-0.2887769561,-0.2966974206,0.9910530716,0.9123484555,-0.1900011147,-0.299670165,-0.7476919253,0.4834645229,0.0788639715,-0.2606283105,-0.5345331017,-0.8171468765,-0.3838845785,0.8166744809,0.2512875987,-0.1426534667,0.97122223,-0.4640935786,-0.5057998929,-0.2136057853,-0.2301747347,-0.2668424002,-0.0326937693,0.2435862558,0.3514325848,0.1019399786,0.9573796511,0.2486064943,-0.6690571305,-0.1818126044,-0.1101340758,0.0652793931,-0.6494014483,0.1652555639,-0.0461175176,0.8900466028,0.578032688,0.1589220712,-0.2727813679,0.4642716485,0.3947455219,0.1723863805,0.8013355553,0.6992399308,-0.9915908274,-0.4387301705,-0.5936336923,-0.6988412753,-0.9221323651,0.2886156315,0.036115822,-0.6038428187,-0.6618632224,0.5498888741,-0.926939096,-0.8447136745,0.2254043451,0.3979765201,0.4133502363,-0.5804809421,-0.4979700442,-0.6318125926,-0.9081956257,-0.6752498463,-0.1184548954,0.1032522494,0.9069157511,-0.0732037364,0.6536531604,-0.0216763666,0.0458486719,-0.5811946514,-0.7390686079,0.9800535657,0.5378384527,0.5758461311,0.5367459927,-0.5396627496,-0.3532430521,-0.7652729723,0.5317545283,-0.67812916,-0.8344415344,0.5619824633,0.2420812669,-0.6262331168,0.9604844612,0.2143812357,-0.8146651491,0.4397863663,-0.0178486114,-0.5360734808,0.5256082985,0.4833387129,-0.6114024214,0.3228558629,0.1984790015,-0.1532604033,-0.3258105135,0.6686411902,0.0360087278,0.249257817,-0.209284558,-0.6310112002,0.8917436202,-0.0244081402,0.2743387754,-0.593160634,-0.2342858045,0.9881745868,0.3702071916,-0.9946320627,0.9294353475,0.0521732336,-0.8425472296,0.7529839382,-0.9490936577,-0.1395105878,0.6868872803,0.7283311665,0.319610824,0.1587591088,-0.9574743874,-0.3747122037,-0.428483191,0.8703526848,-0.406461089,-0.122033623,-0.5859233095,-0.7786251243,-0.0076985573,0.7857138321,-0.6487727641,0.8783601069,-0.6371328375,-0.36188854,0.9210849006,-0.9775087621,-0.5867255992,0.8399749354,0.7574692641,-0.4619238685,-0.4267588249,-0.963645694,-0.152134781,0.1375476486,0.0556886281,0.2375339969,0.5014245335,-0.5770129125,-0.8913058482,0.9567281187,-0.4024669631,0.0619054353,0.0135382647,-0.7283960927,-0.3619753151,-0.1004519472,0.2731811713,0.0762348502,-0.09777313,-0.9161053236,0.7245674517,0.0791475578,-0.4340486406,-0.8093405824,0.663626061,0.9917983294,0.8391896088,0.348290763,0.9702703294,0.6408778384,0.0276361974,0.3629715733,-0.7666020385,0.0933111339,0.7846419562,-0.1436856026,0.8758910385,0.7939529524,-0.8907391608,-0.6731150906,0.2796160142,-0.3728888454,0.5347264904,0.4021550335,-0.0895762807,0.1684998526,-0.759243074,0.8365498178,-0.5441553286,-0.3167137178,-0.8214454606,-0.3000760013,0.8866125134,0.3145673677,-0.804193902,0.4898666881,-0.2913828632,0.1900559699,0.1616827446,0.2567013717,-0.0390484398,0.5751730755,0.0918399962,0.7284859114,-0.5956115118,0.9418634207,-0.7265822544,-0.5639874573,0.6336850014,0.1497798665,-0.6099597394,0.8378078782,0.2025825541,-0.4568087878,0.646816184,-0.5548670973,-0.2511930233,0.0816006317,0.8953385328,0.9469829791,-0.8809315256,-0.5352543267,0.7713800121,-0.6649121578,-0.5059383726,-0.7424017388,0.7564164523,0.0416069171,0.5134653907,0.0153646945,0.4295799333,-0.9993472483,-0.5990569062,0.4084856465,-0.5342943399,-0.0870605418,0.0891424427,0.3476361662,0.8238085259,-0.819646978,0.344695517,0.1214209898,-0.1406122027,-0.7786190073,0.8932187718,-0.5421020212,-0.5505728825,-0.5435359563,0.544313037,0.7765312449,-0.882605496,-0.5035274635,-0.6814286698,0.1862380235,0.1582423496,0.2550112075,-0.4374602056,0.6865605518,0.7634074215,-0.9265808325,-0.9062041782,-0.7835058096,-0.8414938256,0.8584652164,0.3058699305,-0.0808641361,0.6648581896,-0.8561287235,-0.6967151753,-0.9237456295,0.9514392962,-0.6577344771,-0.9754524149,0.4237200722,0.0794504862,0.308039777,0.5230823328,-0.2079145798,0.4042283651,-0.4796130361,-0.0069202241,-0.9874137158,0.7354869378,0.5518750624,0.1474906523,0.0170260332,-0.4151465987,0.5894242377,0.8875905966,-0.6649017299,-0.1004981716,0.6617515312,0.8627021184,0.6504028493,-0.312846834,0.2643708587,0.0951946024,-0.5726010019,0.6410752368,-0.0154069886,0.6054843088,-0.4675009289,0.7650827376,0.1265256554,-0.9629656284,-0.1370252036,0.9985372407,-0.6639266687,-0.7186451985,0.9700041527,-0.1586528067,-0.7740625443,-0.8969975172,-0.3159380072,-0.021032082,-0.9993836808,0.7645811757,-0.2600799539,0.9074016122,0.0814050883,-0.3482584861,0.4016469159,-0.4418026527,0.7313958035,0.8981810083,-0.9123919199,0.9234510718,0.6804773809,0.0106440428,-0.0045341067,0.6808056069,-0.2496643887,-0.5060781223,0.7271795833,-0.1815493499,0.4794531614,-0.5241473524,0.9140052536,-0.7398772261,0.7481095718,0.3323213626,0.8414958829,0.490105426,0.4033812583,-0.6877400933,0.0745013244,0.1782289278,-0.1218675504,-0.8373529597,0.0821683071,0.8048704771,0.8460604997,0.7535083984,0.8629404345,-0.7140458545,0.7866052614,-0.2970835102,-0.4304418156,-0.4020491188,-0.3299602867,-0.9980093001,-0.8659410889,-0.5971214941,0.552424647,-0.3601027114,0.8927768433,0.6733017174,0.2066177279,-0.7711506097,-0.7886569167,0.3173320871,-0.2527265028,0.6291070153,0.109685611,0.803628063,-0.7441566291,0.5739770477,-0.112970721,0.7863949669,0.4055756405,0.2948132474,-0.2531041839,-0.2696150039,-0.9134845289,0.1460162494,0.422103826,0.5358972234,0.0305049046,0.2300335635,0.799768787,0.1637775954,-0.5638171436,-0.9776404261,0.5463030525,0.2604189348,-0.4060148822,-0.0034644586,0.7324158513,-0.2172390615,-0.4888556452,0.2491496001,0.4581132867,-0.3710913833,-0.4633098917,-0.8751632406,-0.5223016629,-0.7649598962,-0.0135512054,0.8412789052,0.8247708568,-0.7434089652,-0.2319562958,-0.8857952042,-0.5627724269,0.1370701697,-0.9941049966,-0.2176099327,0.7822620907,0.7611515803,-0.3337802665,-0.5673427714,-0.518635113,-0.9259437865,0.1820318103,0.024875665,-0.0646766835,0.7065518928,0.065446712,-0.4830383641,0.9492216075,-0.4000466859,0.5961580426,0.4771829639,0.3574408628,0.6311220509,-0.680515595,0.772635596,-0.3513409385,0.2374665495,0.7983225287,0.0612814168,0.5908510574,-0.9580578676,-0.8253292965,0.5739466865,-0.1437114217,0.4780509975,0.8073240967,-0.3842451481,-0.3534597719,-0.5839312214,0.8968747483,0.2639124859,0.3174714856,0.7819117365,0.1107115745,-0.0373360273,-0.9957552965,0.1944023799,-0.7919796335,-0.8456994279,0.2463191114,0.5780038443,-0.3352162094,-0.0958395806,0.6124508121,0.7939527018,0.2987813875,0.525628524,-0.6743072162,0.2640323993,-0.1054104269,0.2051367704,0.8883948812,-0.4044267406,-0.1714183615,-0.3728360814
   -0.2927961686,-0.7935475206,0.1457104762,-0.6646088415,-0.1206964735,-0.9416528957,0.6633320009,0.5351400399,0.6263702704,-0.8842811526,-0.393656708,-0.0605388783,0.6544328598,0.6265794175,0.9139838523,-0.6554725,-0.1255895156,0.2494065971,1.0001025579,0.3023716458,0.734331709,-0.5393530802,0.878157661,0.2458854043,0.3443344725,0.6816687944,0.2862167885,0.6138199965,0.6016660897,-0.6001437471,-0.1880430575,0.9757860179,0.3156832499,0.2975152047,-0.9823355002,-0.8427465612,-0.6671479826,-0.625079693,0.565235213,-0.6354483941,0.6617478324,0.0757055939,0.3411742081,0.3098692396,0.5980555085,-0.5881355272,-0.4184040126,-0.6637455651,0.8495692356,0.0887497277,0.9972244284,0.5426146636,0.6611925779,0.6300735163,0.8983927822,0.9087167705,0.9399384751,-0.4970926285,-0.6799563241,0.4201869765,0.3799292413,-0.757317798,0.1467291121,0.1935108774,-0.4126034339,0.5781882914,-0.762389533,0.6010334441,-0.7943184858,0.556575297,0.5514584934,-0.6040409782,0.0402345252,0.6683522524,0.2716533174,-0.1686577306,-0.8163845872,0.9723875659,0.9311844415,0.8151334698,0.1404933673,0.2209090204,-0.4623492581,0.9750879059,0.9526469528,-0.0154962256,-0.3017395284,0.8438564862,0.3239641083,0.7771183612,-0.2551687431,0.9539404313,-0.2545578513,0.1810586886,0.8587901002,-0.0312996633,-0.3798122365,0.9719900402,-0.8038266224,0.8073561738,-0.611582983,-0.7560629265,0.0126268421,0.7699872876,-0.3475446511,0.5342838229,-0.2115943801,-0.3374676012,0.3017375735,-0.0512263044,0.3533742135,-0.0782103963,0.6378078802,0.2865094752,-0.9879935009,0.7404163728,-0.5006801669,0.1649533198,0.6683857298,0.1919295513,-0.6129636277,0.1449267627,-0.0487954687,-0.6442946398,0.5888298122,0.8556107121,-0.6612350938,0.4419793957,-0.6953181585,-0.8804545494,-0.710403331,0.916846628,-0.2283164743,0.0776306377,0.3393652593,-0.3727385976,0.3890353037,-0.6858746947,-0.7179438842,0.9260374407,-0.1569530103,0.9816478628,-0.7612096963,0.7968478377,-0.7678622266,-0.0738239079,-0.1890833002,0.9792250643,0.1918362197,-0.1879528478,-0.8006064442,-0.9064390341,-0.9802197328,-0.7530424239,0.3297884991,0.753411452,0.8007172315,-0.0930367276,0.9772785312,-0.2460269459,-0.4811915119,0.661479524,-0.1083499711,0.0701298066,0.2461060402,-0.3017190114,0.922298745,0.1084063672,-0.8594006112,0.6485017004,-0.8567701948,0.7684914569,-0.3018313382,0.7116350668,0.978057713,-0.4190668293,0.8141080482,0.7805338713,0.3250063439,0.8321389804,0.9208211123,-0.4335897282,0.6819089508,-0.3106242694,0.1128207934,-0.2761641979,-0.7287918401,0.3257696429,0.2717294065,-0.0242586299,-0.8350440262,0.0453063123,-0.8087213596,-0.7615827413,-0.5901862306,-0.5921692901,0.7023095606,0.746513127,-0.8479477016,0.3540471816,0.7977726056,0.1780380071,-0.237448312,0.3305194476,-0.2422724102,-0.2206396923,0.9618014402,-0.7771410935,-0.9616430898,0.9548089404,-0.2205278288,0.7956151931,-0.4285513285,-0.3707486718,0.8380115397,0.978764252,0.3631153955,0.9197897363,0.6542256019,-0.1125335163,-0.8194004868,0.3509908142,-0.5134322729,0.3643979142,0.1798153324,0.9923430879,-0.205727465,-0.3891169942,-0.4696509663,-0.9167430431,-0.1356909807,0.810668097,-0.9595413257,-0.3419353023,-0.5675257008,0.7549214001,-0.2179258141,0.1710204603,-0.6877001312,-0.5327669971,-0.2842026252,0.1213002698,-0.9819015277,-0.1713851309,-0.6840980772,0.678002027,0.3903547293,-0.7974991642,-0.8046666135,0.3051455068,-0.7792748671,-0.9402533837,-0.2692908022,0.3866723599,0.8770380534,0.6036297987,0.6873186632,0.8514461118,-0.0717062662,0.3948498453,0.8441229641,-0.2017478376,-0.230335706,-0.0234719059,-0.381244843,-0.8792022125,0.2474937281,-0.5007922418,0.6925201743,0.1327121379,-0.7157020953,-0.6541460745,-0.3646051783,-0.807453762,0.5037645689,-0.243146441,-0.4689722184,-0.6712270111,0.855753339,0.4550154964,0.5997317981,-0.1352128341,0.2412957093,0.2705704505,-0.1664772603,0.0439054193,-0.8624049511,0.7661710094,0.6010414763,0.6543662745,0.2230266025,-0.1381083644,0.2926320015,-0.3456698685,0.0021374886,-0.5397713326,-0.064697628,-0.2031207337,0.4306467018,-0.9288996824,-0.1802674803,0.2562443916,0.5404451108,-0.5631533258,-0.874725749,0.2466718452,0.0645954599,0.1572297001,-0.4550487522,0.6596892151,-0.9376676318,-0.6855667673,0.9104590669,-0.3231602862,-0.4559376698,-0.9019370147,0.8171651393,0.4008149924,-0.9036362854,-0.5698534541,0.2491087718,0.4792285758,0.5069867662,-0.4098666228,-0.7959988539,-0.2703841358,-0.610146397,-0.1601051829,0.3182253195,-0.2355658664,-0.1899417798,-0.9512759217,0.4918362229,-0.3839374661,-0.0911335136,0.3239546869,0.5135606631,-0.6381979093,-0.4712838541,0.6078682925,0.6857973217,-0.2511242955,-0.1617831821,0.3588790456,0.4496167554,-0.1805718495,0.9571499966,-0.8796507784,0.0097613958,0.5355260792,-0.4185309495,-0.8263185911,-0.0403544503,0.4041580158,0.6082992247,-0.8422999301,0.9063553989,-0.896539077,0.7609376378,-0.3063484571,-0.9170463134,-0.8984126107,0.2138532838,-0.9897959598,0.0369562832,-0.7187240601,0.2176870322,0.5684476505,0.1283790571,0.6160619753,0.7242516271,0.6868943359,0.2816910027,-0.3255425423,0.0115316873,0.1664779344,-0.4526623238,0.3706774759,0.3086837074,-0.0844458407,0.7394365101,-0.4738363206,-0.5789639439,0.5761271609,0.0607768101,0.5072795945,0.3550889781,0.1427167142,0.7278197586,0.850310621,0.9435145922,-0.4003761552,0.5956984117,-0.1135359659,-0.5286165455,0.5336652036,-0.216782299,0.3668689849,0.2950317478,0.7653058778,0.2978544338,0.0875764983,-0.5206730973,-0.0275671697,-0.339242709,-0.4854405254,0.4104019767,-0.6846451007,0.5317468299,-0.5912873104,-0.5732115369,-0.9381972023,-0.6866841617,-0.2967885418,0.8103680052,0.3745968993,-0.6088354218,-0.8597885578,-0.0279698261,0.6294534337,0.3886009305,-0.2007641328,-0.6940192397,0.5316426363,0.5038975999,0.6065847818,-0.4631403426,-0.9505432568,0.7693116665,-0.1462073905,0.7857911327,0.0800473666,0.1760845854,0.3226281497,-0.3046161721,-0.431199508,0.799442187,0.4100945759,0.5547307618,0.6455864813,-1.0764053244,-0.7465705632,0.4244093261,0.7385100704,0.1667366325,-0.1448953433,0.2614812888,0.7045353707,0.6060470119,0.2078265342,0.0444927922,-0.0466391315,-0.0973108561,0.419535743,-0.1015256459,-0.4275805748,0.4268107339,-0.1615926681,-0.780059133,-0.5481217227,0.3825438618,0.177850725,-0.1981084013,-0.590360964,-1.0669950176,0.6415097211,-1.0411898088,0.3163376878,-0.6747050735,-0.9517375067,0.6516646631,-0.7796554066,0.0154988988,-1.0427784085,0.612907406,0.4727644902,-0.2063135208,0.7927339394,-0.5285248126,0.8524364886,-1.0910883773,-1.0306191653,-0.1222108492,0.6909340751,0.1942126601,-0.9657159476,-0.371245187,-1.0024348892,0.1916122957,0.7055753414,0.7927620672,0.5843718331,0.2771176099,-0.8295425757,0.8346851804,-0.808869148,-0.2142799424,0.0371430012,-0.2591172049,0.6103531551,-0.863604531,0.5463852454,-0.8558020707,-0.1877158975,-1.0428959507,0.6791717056,-0.5510420243,0.0699034313,-0.7902096215,0.2817243058,-1.0440252986,0.0839252527,0.3153834119,0.1904993448,-1.0124557506,-0.8922019474,0.278796479,-0.6428125038,-0.987552863,0.0727046932,-0.1860727148,-0.0262861905,-0.2290517429,0.7125624102,-0.5313420894,0.5972377081,0.399796877,0.6890228149,0.7498548106,-0.7248470097,-0.442773361,0.7164718938,-0.7516311857,0.6700878311,0.5479555614,-0.3129699921,-0.2359648721,-0.8150952219,0.4481860362,-0.2044481059,-0.5855077692,0.0877007562,-0.7693951692,-0.3353733367,0.8410873786,0.6368070636,0.8893830889,-0.5304221979,-0.8279343996,-0.7942106261,0.5651763268,0.0634631718,-0.6906192976,0.4084477368,-0.3298755625,0.1020750086,-1.027210236,0.2238165754,-0.9871483113,-0.8310600765,-0.1589657591,-0.8788353115,-0.0765332767,-1.0996810965,0.6768399626,-0.7784422495,-0.6214374418,0.1102073098,0.4519171342,-0.7599541902,-0.8372209137,-0.0846651217,-0.5280396643,-0.0237117094,0.8109905758,0.8601657209,0.5016485229,-0.926071009,-0.9010693323,0.0418983231,-0.110354975,0.3284085858,0.8025673815,0.235465547,0.6935975477,0.7754021232,0.0059156081,-0.9814653717,-0.1948618295,-0.1841809733,-0.8105253841,-0.1034928208,-0.9251166511,0.340803096,0.3552280478,-0.5724808148,0.4374339133,-0.1432674957,0.1516439206,0.3474410083,-0.9636249322,-0.3897801994,-1.001325373,0.6948773843,0.3492763936,-0.2868880911,0.2127569354,-1.0638325758,-0.6873081553,0.267490128,-0.8681880127,-0.9096153848,-0.552840248,0.4906701315,0.2402453012,-0.1456631815,-0.0177971797,-0.7845398585,-0.3494482194,-0.3690697165,-0.9620161622,0.5234787443,-0.8462755463,0.455105798,-0.0716347885,0.9544865245,0.8040943739,0.8509551825,-0.1207718667,-0.7704166646,-0.0722581376,-0.5483123349,-0.706198637,-0.0258340933,-0.3387058829,0.0565281003,0.698751161,0.3429278411,-0.4230747899,0.3191935286,-0.632771839,0.6448596173,0.307356089,0.360197866,-0.0522263762,0.9682485888,0.1708545756,-0.6081480967,-0.9145868166,-0.1943210163,-0.2037646328,0.3432633072,0.0486099753,0.6790319064,0.7478600365,0.4853366182,-0.6461259915,0.7644853347,0.1506370302,0.0557732522,-0.6092378316,-0.4824858779,-0.6849783292,0.8840715008,-0.9531217857,-0.7021100024,0.362016156,-0.9834734711,0.3328727816,-0.0053184353,0.8481695575,-0.6587696212,-0.992556621,-0.3487456986,0.3905778226,0.2130719662,-0.7976656078,-0.9097294385,-0.7081162265,0.0787370816,0.0473370809,0.5386895739,-0.8347228921,0.1017083913,0.2952895794,0.2527674414,-0.440505602,0.7872654365,0.9470768979,-0.8569428573,0.5847956535,0.6074846328,-0.1233690795,-0.6005914683,-0.4669184914,0.6262392716,0.4559304078,-0.8840316633,-0.4873411512,-0.8758004817,0.180000994,0.9161801616,0.0634751837,0.223832415,-0.7080848111,0.577784484,-0.2129985397,0.514401877,-0.5922076223,-0.3421813422,0.9702555014,-0.3230313049,0.14179882,0.117616912,0.2108020034,-0.8906094643,-0.2688523499,0.9478103498,-0.9582474611,0.5513219402,-0.3389011217,0.7933269495,0.556765556,0.7092143239,-0.7100406109,0.5783915647,0.0350463759,-0.1186840222,0.4740829427,0.131525924,-0.4336528038,0.5826720686,0.1928701732,0.8105486312,0.6759670896,0.1701246366,-0.8262314095,0.1275751643,0.9497520028,-0.5326874019,0.5172725801,0.3740178772,0.6590947581,-0.6103282558,0.3219234009,-0.7600324396,-0.6140649473,-0.430565259,0.3093091879,0.4672856309,0.6477594596,0.9806311296,0.4490649511,0.4184197538,0.5226014254,0.5640873254,-0.4161274252,0.7575882205,0.2740412723,-0.1475733803,0.0544608194,-0.952312241,0.9762061981,-0.4049308212,0.3246053193,-0.6190880263,0.1387702744,0.3832320437,-0.3938714159,-0.9962486575,0.3446497616,-0.7250708701,0.4838999991,0.9419932196,-0.1884734561,0.4326665417,-0.4591641767,0.6257218325,-0.8561987436,-0.3150339932,-0.0171008077,0.5143182852,-0.1693598409,-0.7216819959,0.2641001154,0.7214605564,0.9344516991,0.3752286375,0.7114954775,-0.3598765009,-0.2968088021,-0.2573038028,0.150189038,0.5663522801,0.1953608539,0.36451585,0.5283314322,0.3303951897,-0.0949902613,0.0662796363,-0.4578798307,-0.0905619808,0.3867337998,0.1403764725,-0.7392003654,-0.9351303155,-0.1193241407,-0.0290078506,0.7516610881,0.9611494148,-0.0624743853,-0.340890667,0.7050426637,0.7920333126,0.0435196381,0.6475075648,0.0593293715,0.4055743568,0.2454413768,0.3457632602,0.6259530966,0.9291224012,0.1217694358,0.6614383703,-0.4299920686,-0.584383281,0.647773877,-0.5011516494,-0.7492074781,0.8983502148,0.7399990784,-0.0721226539,0.5079449678,-0.0183708835,-0.0797959268,-0.3368445169,-0.3682210111,0.2892632392,0.27850727,0.768922264,0.543467682,-0.1424376029,0.5983864518,-0.215973435,0.9200435172,-0.7416167205,0.4816787766,-0.1530733611,0.31939834,-0.2719642986,0.4735807778,0.8206901124,0.3052833715,-0.7116236483,0.1876483635,-0.5820060131,0.5723092074,0.8737619205,0.4307968171,-0.6738753599,-0.9290541822,0.4556584714,-0.6716992037,-0.6680221764,0.1325225496,-0.832358556,0.4487943353,-0.5529413354,0.5942281226,-0.5696043466,0.9292708414,-0.9675183354,-0.0758893676,-0.9232847115,-0.3999169022,0.9239707014,0.3460775503,-0.5234960859,-0.8900567369,-0.4431409743,0.9648957218,-0.3382255305,0.0509228707,-0.9089107347,-0.1088086329,0.4516492692,-0.9165471719,-0.4637865779,0.3664500826,0.5773600025,-0.938676581,0.8763928733,0.8880168388,0.8072477339,-0.8433156984,-0.7985925678,-0.6659040191,0.0717629027,0.9850445094,0.8016100398,-0.9112487698,-0.4115346764,0.7302724498,0.3530173843,-0.8330943176,0.9870241865,-0.730404094,0.982219281,0.3393418082,0.4342180548,0.2986020372,0.4214239811,-0.7422985473,0.7589348687,0.4562373759,-0.8725508881,0.5794858376,-0.4228280578,-0.5501921699,0.4067216759,-0.9069444427,-0.5829640348,0.1799786837,0.5402780494,-0.1573694162,-0.1562569979,0.8657745945,0.9087639845,0.2532902622,-0.415381508,-0.8304204048,0.1174346079,0.2559733131,0.6540972499,0.3221370952,0.121154422,0.4124778324,0.4787234647,-0.7524501236,0.3493973037,0.0404612907,0.022150701,0.6882800983,-0.1687534954,-0.6615594664,-0.0898581017,-0.6698507072,-0.6796053481,-0.4892082178,0.5555693714,-0.0782800683,-0.5798562524,0.8927506323,0.2834148091,-0.57261239,0.7084051689,-0.9245879466,-0.5442307238,-0.9038033264,-0.137300333,-0.9692696074,0.5968332125,0.6430245938,-0.2148426306,-0.7634806299,0.5179164318,0.3454897778,-0.272482222,-0.1985479183,0.4424381239,-0.825429991,-0.5838702303,0.5900609979,0.1309268531,0.9196024465,-0.8230484036,-0.6522620359,0.006020559,0.3132836224,0.0605508853,-0.1615704857,-0.7225334441,-0.8433305548,-0.032895362,-0.0938396938,0.0671215337,0.4441751988,-0.2286007684,-0.273013752,-0.4660484438,0.4885755406,-0.552169582,-0.1929586269,-0.0009679365,-0.9539954962,0.1954033245,-0.8289855981,-0.9294521307,-0.5590445028,0.5627324527,-0.5255465695,-0.2312068362,0.691281304,0.5730416795,-0.8712340707,0.6511715112,-0.3668059186,-0.1508357432,-0.5737812557,-0.0628041494,-0.9537346365,-0.2614571881,0.6649380962,-0.3665115033,-0.2215739414,-0.5617706534,0.2739095801,-0.3412188609,0.8709664496,0.119885238,0.9379781674,-0.0310851577,-0.3164638058,-0.9452187626,0.7228482032,0.6818400456,0.0191443265,0.789694079,-0.8252052792,-0.7683121596,0.6665335062,0.4619123793,-0.9233451837,0.4562168463,-0.7401469812,0.2108361354,-0.0240261531,-0.5193278674,0.0657956512,0.3925749666,0.50181065,0.9336242571,0.3140061783,0.3144103667,0.3906459386,0.2073156504,-0.8443315623,-0.140204295,0.1113823006,-0.9173393805,-0.7195806071,-0.8866437745,0.490344199,-0.6457546536,0.5575210067,-0.0141109521,0.3362779716,0.4553278877,-0.3553116336,-0.1606368343,0.0653518313,-0.9171618257,-0.378824377,-0.8880805519,-0.6738441341,0.822378014,-0.3888411983,0.94287064,0.6247020389,-0.2267789128,0.408735803,0.7977013595,0.9494241875,0.1733129514,0.102926402,0.093068101,-0.6038219757,0.0242710379,-0.2973277509,-0.178200766,0.7932411383,0.7163846537,0.7618368703,0.1778950026,-0.6736870088,0.6536149799,-0.9957943351,0.1815275257,0.163514922,0.8785950735,-0.0515140905,-0.6959592026,-0.9196098574,0.6976298659,0.5333067539,-0.9070493129,0.0849037418,-0.6943038363,0.7422192234,0.7969449393,-0.9575573184,-0.588557351,-0.7713037819,0.9908831723,-0.6991841994,0.8621898785,0.9411325145,-0.7992031198,-0.6847461887,0.268930283,0.7478447619,-0.471110567,0.273409302,0.6313281699,-0.9379285143,0.2785360744,-0.2796432651,0.9627197206,-0.5330269128,-0.4207160767,-0.8164075517,-0.0848870086,0.3406318413,-0.9881480259,-0.2019653446,-0.5958120856,0.4810518983,-0.7668689039,-0.0689765564,0.2342962964,0.7311592835,-0.3988159667,0.8073207762,-0.2765381816,-0.3961981028,-0.1997545953,0.1341104904,-0.6716199625,0.9067495156,-0.5342782955,-0.2740017004,0.2694183855,-0.6323062122,-0.1908086981,-0.8699882083,-0.8443838318,0.2592482405,-0.7565955591,-0.7493995704,-0.3903154317,-0.976051727,-0.9927167592,-0.0253644487,-0.1069933581,0.8992511619,0.7853032587,-0.2035896308,0.5306373208,0.5425360563,0.3605856752,-0.5573600285,-0.0636965888,-0.3438960179,-0.8162870776,-0.5025386788,0.0374035952,0.6121778402,0.0539130574,0.0274332562,-0.0999915707,0.0779024051,0.7159675739,0.2065364892,-0.6461396549,0.640344328,-0.5091701593,-0.058826392,0.6173736497,0.4314921337,0.9006251029,-0.4921356119,-0.0773654761,0.7532562229,-0.7063495215,-0.88523077,-0.8469036628,-0.2975311293,0.4693749628,0.6536422844,-0.5948969159,-0.2041157722,-0.6965605762,-0.8021216743,0.7398425087,-0.4048216804,-0.6273433935,0.690989318,-0.3186070207,-0.6680509538,0.58001113,-0.4410909019,0.9052000537,0.5327161836,0.779659488,0.3349933798,0.8503811627,-0.3560786187,-0.5980699506,-0.7149802499,-0.6552743871,-0.3430718347,-0.9216769409,0.0321876729,-0.7703054134,-0.2669780641,-0.733489364,-0.8178815149,-0.0145788597,0.8284099686,-0.1246632258,-0.0521445996,-0.6442897949,-0.6807785869,0.8898173429,-0.2251364938,0.9730385885,0.626507296,-0.0038599143,-0.0339702344,-0.016445029,0.8412405166,0.2066646224,0.8832477682,0.4314099621,-0.7670784506,-0.6990219548,0.3450258798,-0.2603655314,0.8429776595,0.9461745505,-0.3652603129,-0.1566073676,-0.6145230892,0.2382383305,0.3652126766,0.3569727834,0.6714849785,0.7553249035,0.8270027094,0.6036476266,0.7523019106,0.3466835368,-0.8865979787,0.740674242,-0.9555378694,0.2596103731,0.2454372249,0.8842940849,-0.5452655616,0.2605421799,-0.7031306948,0.234732985,-0.4948779928,-0.2360374002,0.5191936247,0.2012011479,-0.5421376142,0.9554490258,0.4666399188,-0.4731068468,-0.5595725018,-0.0829367755,-0.8788277011,-0.5860120437,0.5705236435,-0.2476486607,-0.9825107481,0.6486488875,0.0810914947,-0.2886561124,0.3680236391,0.7260236513,0.4453061014,0.3155557621,0.1879426963,0.9752443281,0.501576887,0.48298623,-0.5798519651,-0.3155726275,0.5785476506,0.6531189341,0.0602756417,-0.7743263848,-0.3799034344,-0.0880781082,0.2816958777,-0.8199317388,0.3103361815,-0.8831525042,-0.439486521,-0.5373191095,0.192604359,0.0091372015,-0.1994324425,-0.5584436044,0.824509585,0.4022980887,0.4584315993,-0.907239706,0.8428403453,-0.819850263,-0.3315865347,0.0652881036,-0.851344249,-0.4512226476,-0.6324446078,0.8661559668,0.002240227,0.098055202,0.4206339918,-0.0446446618,0.1541125714,-0.0606580717,-0.2548397506,0.8768620488,-0.029974042,-0.1695194511,-0.563620473,-0.6163636974,0.5559679359,-0.6992015436,-0.107728439,0.5626226809,0.8831604288,-0.2238925813,0.9385504627,-0.0402498623,0.9130597354,-0.296296422,0.9536647179,0.7049320039,0.7223565296,-0.3226325481,-0.0062028119,0.6370659839,-0.37202414,-0.4376360668,0.9178651103,-0.5709658421,-0.6879228491,-0.3795577107,0.5125200949,-0.2872970185,0.9470542014,-0.3651638372,0.6171481289,0.2039232845,0.3205351844,0.0352635714,-0.7455119895,0.827530272,0.9603826494,-0.9770730928,-0.2724608356,-0.1576564765,-0.7403064805,-0.3044870613,-0.1992539862,0.9661669952,-0.3982009056,-0.8278071925,0.7688136079,0.5007890161,-0.5147349524,-0.281377968,0.6097998075,0.4569822918,0.6488914281,-0.1280594958,-0.895503151,-0.3204960978,0.1967126592,-0.4342275082,0.9614313447,0.9552749905,-0.27700246,-0.7447733625,0.9418642797,0.2224823232,0.4245539322,-0.9581040412,0.9847910159,-0.4726248315,0.2892053216,-0.2011421515,-0.6680587108,0.3174684192,-0.912171368,0.295674074,-0.3472207884,0.48244103,-0.3436473372,0.3233907777,0.1695032692,-0.5040436691,0.8971909002,-0.1804615227,0.7820463233,-0.4593379727,0.9770274551,-0.0068679345,0.1930756099,0.6331901994,0.4217717513,0.4496708098,-0.9670072596,-0.2508426985,-0.7524324122,0.3161383528,0.984933702,-0.0518358355,0.0857931389,-0.6339972883,-0.0902311453,-0.501204007,-0.6919390473,-0.8557837203,0.9711029359,-0.9963776328,0.1512179538,0.0922158244,-0.239724944,0.5241972428,-0.1576545598,0.6729224879,-0.5786412979,0.5153902654,-0.7072902495,-0.7740390828,-0.0710080252,-0.3547178251,0.2924974762,-0.3855319177,0.0968378573,-0.1973643866,-0.2159817242,0.2264359217,0.9814686941,-0.3554144097,-0.1659248718,-0.1726021175,-0.7887890997,0.7013139908,-0.2112321132,0.3684342873,0.0078049557,0.001049574,0.8984932804,-0.3888276671,-0.196680537,0.6950679754,0.942944912,-0.247213908,0.8813230263,0.6826917042,0.8561132604,0.0509965118,-0.0142876268,-0.7637098549,-0.6487143213,-0.5509285858,0.9537982957,-0.3737204415,-0.4539536038,-0.7991745031,-0.6603115412,-0.2538769213,-0.412723484,-0.5043796679,-0.9607125956,0.7373307159,-0.7238459835,0.0833643671,0.9152965488,-0.3855406461,0.6931537518,0.899512924,-0.5777858185,-0.1098872465,0.8230474496,0.6900682,-0.7686645301,0.1999415491,0.1799037136,-0.3634207328,-0.1442475454,0.9276432505,-0.5679119775,-0.0188579266,0.2753540516,0.8299622422,0.0272627301,0.6513994408,-0.4381739484,-0.3383102161,0.8173870647,-0.1144589339,-0.4963488789,0.8006640112,0.704093542,-0.1426964779,-0.7688911992,-0.1272300673,-0.8381940971,-0.6990297443,-0.1587244929,-0.623060566,-0.9334967608,0.1363715898,-0.9769754696,-0.6898487253,-0.8830441336,0.093884721,-0.3179739625,-0.2075689104,0.5616073885,-0.6605662784,0.5657470689,-0.3081486118,-0.1968017169,-0.9005104608,0.8884515406,-0.7504684447,-0.9762340958,0.2860699963,0.9562002437,0.7046378513,0.8096444809,0.1217397895,0.7918508442,0.9193834102,0.7764651158,0.7646104915,0.7600578831,0.0040282417,0.1941557877,-0.066659451,0.1922727764,-0.0581207689,0.6119413503,-0.4678647151,0.0117438152,-0.7857098623,0.483343532,0.2757468965,-0.6414838346,-0.5743384032,-0.2088190638,0.3144744557,0.2144318685,-0.071558882,0.6725690418,-0.1408360903,0.0281298399,0.4425046484,0.0439202018,-0.1937919189,0.3400458709,-0.2917512399,0.2259436451,0.3625466671,-0.5925873728,0.0554062757,-0.4313545251,-0.3293337603,0.8292596506,0.0842306424,-0.92367133,0.4336002466,0.1714133561,-0.7375962554,-0.9674069161,0.5399290097,-0.4085029648,0.5556543429,-0.3746645549,-0.3112202739,0.4639308543,-0.9472419291,-0.4155553305,0.0148264687,0.0049318537,0.5905374398,0.7433252984,0.725985497,-0.1024860502,0.378861833,0.7908506223,0.6649386955,0.9164879339,-0.3743524892,-0.2305904427,-0.9389133013,-0.446538529,0.1618576083,0.7633832076,0.0285957675,0.6418391035,-0.9334978654,0.5114495509,-0.745125652,-0.0181777537,-0.7083620249,0.031583441,0.6128777635,0.9654091911,0.2873688895,-0.7539433936,0.7861082104,-0.7986048969,0.6268455123,-0.3935623491,-0.1063852389,-0.8596279758,0.6312653531,0.718592053,0.1149933632,0.6997288705,0.9948727971,0.9676821658,0.3153868389,-0.111348568,-0.5900408966,0.1431672178,0.6704848853,-0.5668776246,-0.8081375925,0.0638033129,-0.7084759256,-0.5990787582,-0.0960322809,0.9630506529,-0.7489648105,0.1364183356,-0.2128001653,0.4738193122,0.1132236556,-0.478081226,-0.0907442696,0.6422012491,0.8128425988,-0.3601231497,0.2353345105,0.7677875279,0.5532916771,0.1053133164,-0.3251094796,0.3122785879,0.9813299241,0.7578582993,0.6428468565,-0.9755157566,0.3120757477,-0.2132486995,-0.8134515116,-0.9346763154,-0.5459930689,-0.1441588025,-0.8931439871,-0.8671745246,0.1339606331,0.2285862421,0.0870519005,0.5871275557,-0.977866614,0.8930540613,-0.1841126285,-0.4245227609,-0.1429189011,0.6869216567,0.1129730218,-0.8427687844,-0.4292809457,-0.5775245947,-0.9462211782,-0.5711444502,0.4133219109,0.0116110597,-0.9053658822,-0.351074319,0.0785237015,0.5908337465,-0.8022723699,0.3631264237,-0.1716821656,0.6462579673,0.956107455,-0.4707480331,0.6180570932,-0.8613924009,0.7186810622,0.6422058759,-0.7785463647,0.6282158947,-0.2847847022,0.8590010895,0.3555789949,-0.5999745202,0.1813363829,-0.8762400781,0.8058640795,-0.4114116427,-0.5164700874,0.2927140636,-0.4549098903,-0.6969340963,0.2441408583,-0.7407954221,-0.1115660682,0.7522288716,0.4663735652,-0.921318095,-0.441622609,0.3694573869,-0.3407082461,-0.9062941408,0.8697979587,0.9377409524,0.9628185208,-0.9410543701,0.8249234172,-0.2853215557,-0.7272636646,-0.7338202183,-0.7556590752,0.5574781155,-0.6343129554,0.669296254,0.8919970157,0.0479575921,0.0241718688,-0.9907076394,-0.3998024032,-0.3824561235,0.1615514033,0.9392747923,0.3946079524,-0.3277266544,0.9470456193,0.1494596121,-0.3807472602,-0.2822082486,-0.0692661382,-0.5078277399,-0.9384840073,0.4843542209,-0.831445148,-0.8931524491,0.0771411196,0.0518252556,-0.6526933142,0.5450296743,-0.284769097,-0.0253212671,-0.0903531663,0.8953721939,0.8432475018,-0.5930020955,-0.8209078589,0.914256487,0.2720124484,-0.7725246025,0.4850188294,-0.8773004448,0.8807066518,0.1644132142,0.2876624936,-0.0124615985,-0.2581296057,0.9207227311,0.3031181046,-0.0097543481,0.2464033351,0.2989246999,-0.3716599919,-0.2199782539,0.2285645069,-0.6738507522,0.8661419253,0.2931764988,0.0909723178,-0.6208641228,0.250196951,0.8781290992,0.916909239,0.3092334648,-0.2299624436,-0.5795918887,0.6587983655,0.5547049498,-0.7039444127,0.4676514757,0.1362502933,-0.6707961035,0.7045022646,-0.6453934942,-0.7119837568,0.6198213702,0.0024881833,0.3281298918,-0.7664885016,-0.5609609407,-0.5470166855,0.6721876977,0.4105107175,-0.1137472834,-0.300182996,0.8340819256,0.700147933,-0.7145325315,-0.1073220275,0.5433177022,-0.448083447,0.3102978175,-0.1878856845,0.9488689049,0.1086693615,-0.8910323603,-0.0054664962,0.7319125353,-0.668381484,-0.570689812,-0.1427976169,0.2369615329,0.1253355504,0.7437680891,-0.1767528258,-0.4043617879,-0.5372486279,0.3743933444,-0.5533465275,0.8516742631,0.5101562651,-0.3821526688,-0.4627337509,0.0859107491,0.3991812082,-0.7403971847,0.408302019,0.9636474445,-0.2705140724,-0.5640127581,0.2597856993,0.5296686261,0.0240617157,0.7665612555,-0.2742367736,-0.6743607182,-0.8272904024,-0.0937374006,-0.4221284367,0.466458094,-0.2648475259,0.8362008936,0.0701695481,0.2060862435,0.5660351205,0.4886576316,0.5641378934,-0.4394057128,0.4399241867,0.3720861828,-0.8463208132,-0.062931593,-0.3236918017,0.1961117914,0.2901178921,0.7547041594,-0.2354024439,-0.5034684237,0.4072003464,-0.9282403995,0.9891245354,-0.739685468,-0.4539052374,-0.7898353372,0.0541432859,-0.4493984725,0.9803912293,0.3805211528,-0.2911701664,-0.8682946932,0.8411017086,0.3071027516,0.3722820791,-0.9058895108,-0.2583399615,0.8528550163,-0.2414802029,0.4794735691,0.4029219324,-0.3556046221,0.5014846387,-0.0943770851,-0.7218350224,-0.3029868561,-0.2199598714,-0.8084412288,0.1780886376,-0.9603305046,0.942971668,0.9824532576,-0.1041857502,0.3399974896,-0.8660134689,0.3746503672,-0.1681149728,0.5293020575,0.9167138699,0.5466750324,-0.3807339422,0.4275600059,-0.1002952917,0.3541878095,0.7483443047,0.3684200166,0.3614319476,0.0150755053,0.1919286052,-0.175797354,0.8752903629,0.6743605516,0.0302496725,-0.9690996741,-0.0654033958,0.0592463171,-0.9240399056,0.6131773635,-0.4224108025,0.0981080463,0.4991343344,-0.7906300609,-0.9875714571,0.5454928583,-0.5477312706,-0.9035138895,0.2421969162,0.6071197472,0.6952814932,-0.1847941908,-0.3101015329,0.564879582,0.2205127129,-0.2051191586,-0.1765407785,-0.5981648933,0.8777243521,-0.021465111,0.7807270798,0.4272209412,-0.0008997521,-0.5521364916,-0.0055281831,0.901443579,-0.9757538863,-0.9517658685,-0.1826149165,-0.338918611,-0.8748104625,-0.9863139351,-0.852919595,0.7438846163,0.8313799824,0.5919304906,-0.9545252556,-0.9862246213,-0.3453112147,-0.3306495357,0.3918806898,-0.2141523282,-0.2855908401,0.3960009186,-0.5481779218,0.451367364,-0.6377438061,0.8106086596,-0.4417816266,0.1027721992,0.8073668506,0.465572369,0.7082924756,-0.8413282034,-0.2587000332,0.0519626034,-0.8058108405,0.9888476513,0.9630362566,-0.9754782055,-0.7720249236,-0.4480515565,0.0039783069,-0.7733357508,0.5666387516,0.9570134811,0.765645894,0.5154761492,0.1370905848,-0.7845741805,-0.9188005828,0.3867155506,-0.3388371482,-0.2610408585,0.4673930282,-0.4001876149,-0.719390297,-0.9717456845,-0.3773784987,-0.1971315402,-0.8178928361,0.2851240864,0.1153968001,-0.842342544,-0.7789734277,-0.9624469277,-0.003347238,-0.0353750693,0.5525673914,0.7646977685,-0.5752549,0.2878883152,-0.7555084169,0.5218865431,0.2904514024,-0.4197630841,-0.0856107636,0.5656196407,-0.1580288685,0.3081319152,-0.651454249,-0.0214308197,0.3099256257,-0.4232936311,0.1281684028,0.2945791563,0.5323580975,0.7547652095,0.2543863418
   -0.8763345626,-0.4202663652,-0.9002147575,0.7732505936,0.779830565,-0.4693981494,0.5189540025,-0.3307159888,-0.7479799419,-0.6768032919,-0.3926105192,-0.3947412046,0.2069532919,-0.407377475,-0.2987109637,-0.9506702024,-0.8201829671,-0.4760315875,0.9559566242,-0.177671683,-0.2727175756,-0.144942143,0.1106805737,0.8619372147,0.5525049839,0.0014487198,-0.3862664095,-0.6603950235,0.6301246036,-0.818566763,0.7473727551,-0.1982824104,0.3312655512,-0.4589619795,0.7528395217,-0.7215733352,0.5485364694,-0.720975944,-0.0446402793,0.4167353764,-0.1789696244,-0.2281132946,0.8891435575,0.6038812727,-0.5406753375,0.6988557048,-0.5776143885,-0.9076637227,0.6704810981,-0.833104835,-0.1177351614,0.1248066901,-0.316954176,0.8357035734,0.1799445684,0.059233184,0.8720493589,-0.95728621,0.9355725062,0.4937908083,-0.1159934057,-0.0719069475,0.6032807317,-0.6081110138,0.7619167988,-0.4402570287,0.5961857002,0.2071715175,-0.9297363862,-0.9417004671,0.4113882418,-0.991483425,-0.9799849421,-0.2778669009,0.7549735617,-0.3949632915,0.5936235238,0.1583574683,0.6670112398,0.6710788414,0.6700257782,-0.6222154359,0.6465552311,0.8712242723,0.149642964,-0.0199849391,-0.2233561343,-0.014711325,-0.9206194013,-0.781652243,0.8492998493,0.0333220987,-0.2223714246,0.1548248893,-0.5094697392,0.4006089672,-0.0407388387,0.7792230688,-0.7146734438,0.9626680792,-0.1393630011,-0.8659467186,0.9026645657,-0.789747392,-0.6354008942,0.4395608894,-0.7794955067,-0.6256498965,-0.8745251253,0.2187256283,0.4507909204,-0.4488175111,-0.3059239267,-0.5777383904,-0.735547199,0.8272060633,0.6426988442,-0.44638268,-0.0835965341,0.4041115,-0.3098762958,-0.2060243795,-0.6294593803,0.7238238484,-0.1733844532,0.1272537476,0.4247463431,0.5935025319,0.4389236394,0.4651033126,0.8358870905,0.3105413496,0.4296631867,-0.2280896986,0.4448136922,0.7875684753,-0.6295924812,-0.8102049242,0.3013613533,0.6774464578,0.5705037165,-0.8363876279,-0.2106503462,-0.5017277795,0.2582569841,0.5659513019,-0.2484174511,0.7583770633,0.6778384645,-0.1778646493,-0.3851516312,-0.9186733413,-0.7800963252,0.0352223805,0.5149198185,-0.6690789434,-0.4534074916,0.1236999399,0.4215539779,-0.2638053196,0.7165292327,-0.1169912973,-0.7238123856,-0.9835836712,0.3098224896,-0.7625044073,0.0534606213,-0.493910824,-0.4469347029,-0.7615393411,0.0135597656,0.2799507707,0.4443350482,-0.7473663624,-0.3016875601,0.2779730364,0.87819351,0.0744786403,0.1235694746,-0.569637728,-0.2293131752,-0.9488058474,-0.1123964255,-0.2174408482,0.1843455109,-0.7922869633,0.2980624448,0.6202387244,0.4531844604,0.3717025287,0.4965781655,-0.4056895869,-0.6922970592,0.2985642395,0.5837671917,-0.1540819825,-1.000115405,-0.2035658443,0.7442303535,-0.8685602892,0.4281974408,-0.1488173613,0.3715528558,0.9474880428,0.2625938702,0.751414425,-0.8066957213,-0.3440900641,0.0695106509,0.8283675776,0.4001458396,-0.8943805645,0.7506913242,-0.5905546905,-0.2246576664,0.838588638,-0.9540741972,0.5990926639,0.0482090968,-0.1636683145,0.9514312593,0.3420423061,0.2528342638,0.1363546826,-0.7028057358,-0.0751762227,-0.3286471558,0.4304606073,-0.5258611088,0.6007634939,0.4589467232,0.6897493133,0.057173587,0.2149847463,0.26884466,0.7896175289,-0.5659025764,-0.1705922992,0.8773222899,-0.8652411426,0.4266938489,0.3477493987,0.8087021222,-0.7158362219,0.9176838098,-0.8594762447,-0.0396464583,0.5761196443,0.4753351283,0.6700415627,0.2276928086,0.753210684,0.9784625022,-0.8845895144,0.1291830573,0.587318001,-0.7585724971,0.9975350665,-0.5686657024,0.5046195739,-0.3608614211,-0.1958832801,-0.2262965855,-0.7894097442,0.7320510519,0.6146537379,-0.7061058326,0.3150017761,-0.1088328813,0.7254412861,-0.7474428086,0.9569227377,-0.0769641478,0.2745714054,0.6583899965,0.4297186189,-0.3052468007,0.8669330122,0.8931369668,0.8060517737,0.7589619828,0.199211897,0.3425984246,-0.4371185699,-0.0211481009,0.6848907263,0.9915853178,0.2064636923,0.1531595211,0.0792490408,-0.8909901573,0.8973515386,0.6411682961,0.1043632567,-0.1872051773,-0.9246051783,-0.0122914542,-0.9258933353,-0.2750809831,0.0847402714,0.5481574681,0.5191494317,-0.4095919398,-0.2023950722,-0.8865608654,-0.1880414025,0.9023344626,-0.7545910428,-0.4649755066,0.7917980792,0.5268176083,-0.7684899742,-0.6500686338,0.3897286669,-0.6719762428,0.9684689248,0.4057244506,-0.7463919731,0.7931660449,0.6969167569,-0.5144846817,0.3730907008,-0.3424955202,0.3117815011,0.9329624174,-0.2953718961,0.529345948,-0.0127119892,-0.722728931,0.7964685278,0.5150442083,0.801958015,-0.1418065284,-0.5863428624,-0.1560001043,-0.6363898838,-0.5489713034,0.1574175379,0.4936605205,0.4343597942,0.8916226921,-0.8817560437,0.8145204668,-0.4443805987,-0.2986317207,0.4447168723,0.1551209945,-0.3269018331,0.7122051564,-0.9753126117,-0.5129497615,-0.2381978058,0.6916198951,-0.9178149539,0.0299432087,-0.5489655385,0.967645943,0.8080362619,-0.1235182104,-0.3506051773,0.0538636218,0.984864326,0.6300900538,-0.830219994,0.2744001296,-0.3879105957,-0.0335423019,-0.6329210723,0.3889295381,0.5309285388,0.3854931701,0.6996961289,0.2176727947,0.0493956446,-0.2906294582,-0.5184951002,-0.7336022785,-0.4326984869,-0.2289939267,0.3798941575,-0.6485809839,0.2012538105,-0.973637101,-0.8957549955,-0.7754017493,-0.5915694852,-0.8205489709,-0.9817645798,-0.8016561276,-0.38228727,-0.1926726517,-0.2351597422,-0.2293887963,0.8424190597,0.9850956162,-0.1086687543,0.2499024417,-0.6824287685,-0.0890935329,-0.5257230127,-0.6197333416,0.1187612876,-0.4690425886,0.7445429617,-0.0337001984,-0.2116218568,-0.8355071663,0.7122915217,-0.5018553069,0.96060759,-0.8711960061,-0.2080181041,0.7764910308,0.9864322932,0.2406264194,0.1548147616,0.5397590088,0.4466452455,0.1935281479,0.3332264913,0.1739530326,0.883928769,-0.2887684308,-0.6498708164,-0.0148533746,-0.9558820723,-0.8085277209,0.593004529,0.9833800706,0.5676241001,0.2878452488,-0.5135564093,0.4970530258,-0.807149151,0.0348048233,-0.382853191,0.2979245247,0.8892798654,0.9726647238,0.8589239983,0.7261129754,-0.0337009128,-0.7274019548,-0.5023056526,0.815096161,-0.7856254203,0.8616372595,0.3564864216,0.4167112397,0.0219645951,-0.4523257889,0.9204381599,0.3261547447,0.50213676,-0.8555398786,-0.5382031237,0.4069825844,-0.382431924,-0.4033944138,-0.8350807389,-0.2838899583,-0.6944550795,-0.8954194242,0.2512713787,0.6288117753,0.6029630458,0.2497144365,0.104428668,0.963721818,-0.2286724221,0.1191958883,-0.6049240564,0.1078335778,0.4217530196,0.4310730273,0.2060073954,-0.8585001619,-0.3600367528,-0.3407466762,0.1571265873,0.9634327578,0.1112915133,-0.8414963761,0.5304464592,0.4096948065,0.2456804444,-0.7105498516,0.3747129126,0.4087440805,0.3026820426,-0.4564215072,0.7322868748,0.0463436753,0.5164576849,0.668233628,0.5603801725,0.750652312,-0.7792218772,0.7916198994,-0.9401803424,0.3871790232,0.9740234843,-0.4521989726,-0.3018348549,-0.6102077828,0.6841832703,0.2017001086,0.3550858242,0.8857196781,-0.266143642,-0.225900387,-0.5526397412,0.8205485629,0.1052509998,-0.8333586135,0.0538763892,0.0832254053,0.5051848223,-0.7131733501,0.0406315294,0.6310561137,0.4900848275,-0.8269840011,0.1857323688,-0.3852940292,0.5909873923,0.1194294044,0.3043949721,-0.4968003646,0.4385382687,-0.1988537885,-0.6260552217,0.2089211405,0.8879925838,0.3991051415,-0.3411833976,-0.7873861061,0.1442148392,0.7251042897,0.8355546339,-0.3116193205,-0.1133210879,0.3524195644,0.1178124365,0.6286836552,-0.6055319455,-0.2872875013,0.3813529504,0.9693443539,-0.3287251067,0.2772146263,0.2890484897,-0.2854563162,-0.4295985696,0.625543105,0.4158807439,0.0618219287,-0.080240957,0.5987929055,-0.6260592227,-0.4729212538,-0.3531315174,-0.5810816267,-0.0625709701,0.06957317,-0.0961401235,-0.1862667702,-0.849164997,0.216923608,0.1924727266,0.1419105702,0.5380388243,-0.8225874694,0.4890559097,0.5179828653,0.0591081199,-0.9715369658,-0.6304323223,0.9373419608,0.4035011423,0.7146857145,0.134575658,-0.5987609231,-0.9690347945,0.2998317913,0.9342568523,0.0417848103,0.3133569998,-0.9716834517,0.8933976373,-0.7530508691,-0.3403574113,-0.5370853559,0.2363937651,-0.214438615,-0.3591025878,-0.3902398885,0.4122503629,0.9323102931,0.1153062847,-0.9566536413,0.2195819323,0.5927439505,0.3531633956,-0.968473831,-0.0683876496,-0.571730172,-0.8381276911,0.660511701,-0.5788251308,0.9811547722,-0.9890540352,0.9598744872,0.285712116,-0.2004749976,0.1570066777,-0.9724545645,-0.027723908,-0.4376338848,-0.4404228884,0.9442646343,0.0741613438,0.7997907128,0.8923839152,0.4819901797,0.743634016,-0.7622306846,-0.1887196708,0.4652795183,0.0959522804,0.5146985526,-0.3461787138,-0.6359881997,0.7098820067,-0.8302064889,-0.3537664074,0.6929880518,0.8653609387,-0.3999182201,0.5284159302,0.6369311723,0.1684986954,-0.3165496788,0.178938855,-0.3245140626,-0.8234232288,0.4075517232,-0.759955201,0.2082189979,-0.9769514647,-0.5091020517,0.7426480695,0.1796188788,-0.9574607682,-0.9901865401,-0.2686651531,0.7040959808,0.3958459801,-0.9769554042,0.889363189,-0.3090174212,-0.3050622265,-0.8032404311,0.1636630265,-0.5304671764,0.6279554821,0.4295484672,0.3898361667,0.4139227408,-0.4157881509,0.4774232532,0.917156291,0.5682502302,-0.7208085057,-0.4211822353,-0.7664310445,-0.7284649328,0.3795509121,0.0795877153,0.5906915932,0.7827189031,-0.8718815294,0.0580106923,-0.3711864907,-0.0943347378,0.9688944153,0.949786159,0.0018958864,-0.3858404546,0.1720508641,-0.8269645475,0.0025717807,0.6829180908,-0.5410681885,-0.2466982133,0.1871461241,-0.7174571395,-0.3729468729,-0.051449751,-0.9994042774,0.6646120685,-0.8248974454,0.8741678025,0.401569259,0.7265895519,-0.0720602865,-0.8720367157,-0.5126127112,-0.333129914,0.6615960977,0.4151674087,0.1190422443,-0.3962296783,0.7270485137,-0.8265672379,0.546198432,0.2005287843,-0.3186481069,0.1978338087,-0.9678079669,0.290305874,0.9003736682,0.2658668855,-0.520968895,-0.498816134,-0.7839406055,-0.2375497944,-0.9476044212,-0.1188330888,0.5352999425,0.3049238572,-0.1933627385,-0.4768189653,-0.5338419448,0.3680498029,0.3097798346,0.190074137,0.9428683527,0.9090118807,-0.7314811457,0.9396159936,-0.149162672,0.9924158033,-0.8467782472,-0.2505017459,0.6516433514,-0.5847108416,-0.1826906007,-0.8576655552,-0.9919633341,0.3320814098,0.1503482876,-0.189340034,-0.5910606083,0.8796638947,-0.3531338382,0.2419320928,0.7944455228,0.8023298259,0.0875363914,0.3435299756,0.1808209276,0.0767942914,-0.8639142175,-0.9322453604,0.2855033508,0.5371942545,-0.0300869825,0.036828986,-0.8478975889,-0.4999114476,0.9050886526,-0.8321022109,-0.2246003966,-0.6105421014,-0.9786448811,0.2980277004,-0.2736517037,-0.6382951193,-0.2128732759,0.8092072445,0.7770737342,0.9306539621,0.6844896495,-0.7466531784,0.5258730358,-0.4074485205,0.8342019513,0.9772787083,0.0222151955,0.4510656471,0.6206935613,-0.2522429465,-0.6082589176,-0.1577134482,-0.6841602764,-0.6235421166,-0.5387365591,0.9597261574,0.7100938081,-0.6550209016,-0.6162331101,-0.5206816993,0.725221683,0.4298404741,0.2634079239,-0.8155813046,-0.9484326576,0.3274836602,0.7805149115,-0.4091950707,0.7669200941,-0.7207278177,0.816588097,-0.4283235348,-0.0372588816,-0.3035085588,-0.9207004008,0.9826546412,-0.6308365274,-0.214651288,0.7274934135,0.2867826695,-0.0200079116,0.5421842202,-0.8991721689,-0.4748945038,0.212261192,0.6080847323,-0.8515599116,-0.7620969142,-0.4532415277,0.4076063647,-0.4071719317,0.2541612736,-0.6943653754,0.0311116664,0.1976941633,0.4562347956,-0.6897907711,0.4341975614,-0.3767748593,0.1542127631,0.8403956157,0.5626953483,0.5510921437,-0.7890813376,-0.238346011,0.4776707008,0.8094506894,0.1669103554,-0.3539148203,0.480423668,0.4979406703,-0.6345199223,0.9013368931,0.2374886735,-0.8873136461,0.0776544413,-0.1063494166,-0.0943654837,0.6712963838,-0.3728055681,0.0732520814,-0.7431356299,0.8378637765,0.5155954115,-0.9006484084,0.8034157843,0.0479659247,-0.4529128845,-0.034856305,0.9227606819,0.6336645965,0.9536336564,0.1228073458,0.982605362,-0.0514940662,-0.4800664807,0.6085058745,0.4658904984,-0.5074795454,-0.2915804336,-0.8326130144,0.0957911401,0.0372230517,0.784259034,-0.62141724,0.9607167111,0.7506129925,-0.0596464673,-0.2197903475,-0.3606889906,0.3221739191,-0.5776609505,0.9943684933,-0.6745477903,0.067497437,-0.3464140544,0.8521444869,0.953252861,-0.8448348239,0.3601989574,-0.4813927865,0.3220598861,-0.4720153331,-0.3039828042,0.6178106289,-0.7785454157,-0.7682465359,-0.6323858525,0.3577930625,0.55625263,-0.5616229146,-0.240702326,0.6555772197,-0.5284959289,-0.4087545766,-0.941889989,0.2621701802,0.4774933323,0.5302327458,0.3788277707,-0.1124366006,0.5747392118,-0.3833023055,0.8889619388,-0.6742672927,0.3789948835,-0.1415167121,0.9337578767,0.5796383094,-0.7537521038,-0.965083082,-0.8388046797,0.9862247852,0.3977201744,0.8218103532,-0.353011618,0.3414210896,0.0448680161,-0.083540265,-0.9804144528,0.0251405532,0.5143820956,-0.8373544186,-0.4148303221,0.126280881,-0.6268125388,0.6756327857,0.4526580102,0.567724153,0.5590619751,0.9671706145,0.6587021552,0.2313368241,-0.5224558773,0.0704927104,0.2926880992,0.0829697246,0.1831173911,0.6653170917,-0.3782637963,0.2974580596,0.4480258911,-0.7971538499,0.2157012052,-0.6163785911,0.9153665469,-0.969233346,0.0721722147,-0.6907362721,0.2184706568,-0.4817502542,0.7414727189,0.6261733469,0.1059038951,-0.8317443698,0.4516605787,-0.40487703,0.5664663106,0.8060101379,-0.7791672822,-0.6891303218,0.954192327,0.5770515982,0.045601686,0.8271549266,-0.8866492573,-0.8008160337,-0.1068665314,0.2817045446,0.5034447327,-0.9759997398,0.9831459277,0.0212287376,-0.6757881555,-0.8254221275,-0.2106583888,-0.2735779142,-0.3593759971,0.6704785709,0.2371936939,-0.4630364558,0.5078875065,-0.447251503,0.7989006617,-0.8234835572,-0.9035569716,0.0089181694,-0.3756046245,-0.9222715132,-0.1830343815,-0.5019975199,-0.3336549277,-0.4927682436,-0.5546353,-0.1244993029,-0.1948486367,-0.3093572935,0.2477840721,0.5183964629,-0.0260497653,0.9375621674,-0.8943980921,-0.5498422055,0.2836120478,-0.2334246567,0.6404307574,-0.0833784793,-0.6597087892,0.8840182161,0.7026205936,-0.3943060716,-0.8783017534,0.6069668044,0.0558867506,0.7685016689,-0.4682140113,-0.5291587232,0.2262644,-0.3860624363,0.4234902278,-0.4883171065,-0.15303723,-0.3385586893,0.3665436298,0.3885797892,-0.4191214108,0.3659994822,-0.7275242644,0.0086669731,0.7436429614,-0.256854475,-0.9803870383,-0.8478736697,-0.0674723857,0.993959762,0.0780785992,0.0971866209,-0.3524613479,-0.8699306107,0.1347928136,-0.7548765211,0.9183696786,-0.4013515194,0.7184726463,-0.2547405851,-0.0709888288,0.9074179826,-0.1753679872,0.1199638132,0.6427504846,-0.7503542832,0.5405817048,0.8896529337,-0.5728281537,-0.8708536184,-0.3295706124,-0.8022100894,-0.3208436393,-0.014718451,0.3600796029,-0.5641152454,0.449882006,0.817959666,0.7222337664,-0.13150565,-0.9301763649,0.8126360548,0.461390169,-0.7417775436,-0.2262470224,-0.0346870874,-0.5011560233,-0.509280291,0.3257386364,-0.2924606879,0.5976872311,0.1996836174,0.6441460901,-0.4685887998,-0.0061820901,-0.608141434,-0.5733623082,-0.3854286005,-0.0091053829,0.0720358152,0.7751726711,-0.5547903931,-0.354572794,0.8680534994,0.8210071304,0.4470623952,-0.6683138447,0.6557966282,0.3496940486,0.6044132111,-0.603252119,-0.8158029138,-0.5739167208,-0.9129076234,0.7794856743,-0.2997663659,0.0193215511,0.8754770903,-0.3644302995,-0.4260680941,0.6278524675,-0.6145085773,-0.0375329987,0.9233644118,0.9044165069,-0.9063936776,0.2244414926,-0.7603494643,0.2810510226,0.1618396114,-0.0224460349,0.0119565386,0.5940902435,-0.9372440136,0.4946620852,-0.6475044457,0.709165273,-0.7955329797,-0.6095796065,0.6215275933,-0.8537959109,-0.4443688398,-0.7537196936,-0.9476404606,0.7044315466,-0.7295462719,0.235490115,0.3763451536,-0.9126306276,0.3080684843,0.748094985,-0.5521149306,-0.4721638286,0.085629813,0.0159369573,0.8694267979,-0.5870525787,0.0471283491,0.7376549484,-0.3835352776,0.9091154763,0.3445753526,-0.2963152514,-0.3374598963,-0.4129504362,0.4349105206,0.4212590248,0.6042410766,-0.9532442118,-0.2893795748,-0.2605926828,0.2862026502,-0.457462872,0.124738514,0.4866513551,-0.5738932906,0.6079934367,0.8158451093,0.0325284913,0.2523773272,-0.3189785579,0.733067408,-0.9604551705,-0.9342958002,0.7288147488,-0.7389205179,-0.0387779013,0.9909957757,0.8728638345,0.8451022802,-0.2694257857,0.475426126,-0.9860439475,-0.3840963771,0.3724119679,-0.0230884892,0.4571756326,0.0135716462,-0.3716569753,0.5764150654,-0.463096323,-0.5813523909,-0.4182280736,0.602946799,0.241818165,0.7648602722,-0.7170999112,0.2585635964,0.8398939499,-0.823608481,-0.626274197,0.2433692176,0.50340276,0.5867435482,0.7130442352,0.3805142973,-0.0660868012,0.3649654311,-0.9985525745,0.2411963452,-0.0127092548,-0.0593468849,-0.593675709,-0.230340254,0.2986977525,-0.5710505774,-0.9520936308,0.1011430793,0.1271169525,0.3454787345,0.9442858479,-0.2470239751,-0.1881746832,-0.6308595256,-0.6625642923,0.739843818,0.1780117047,0.8527302506,0.168548577,0.4536226788,0.8260484307,-0.2620710299,-0.7715735433,-0.5829517969,-0.7315828164,-0.840613708,0.2824807246,-0.591284638,-0.9452909713,0.5716737496,-0.8042678682,-0.411921499,-0.1033755947,-0.1296214998,0.0578108062,0.620451341,-0.2070268724,-0.4789904223,-0.6920437512,0.8020069773,-0.845325615,0.6820447656,-0.1399826627,0.1847778805,0.9297567426,-0.6696787791,-0.7725476769,0.701655897,0.7283581389,0.3860354783,-0.3516711664,0.2913922467,0.947725889,-0.1622565553,0.2103238707,-0.9764024744,0.897216682,0.8673604044,0.9757238111,-0.7762582952,0.9232965826,-0.0248389855,-0.8935755936,-0.4018458702,0.53454103,-0.8952206911,0.9889307848,-0.640976479,0.526634839,-0.2317913041,0.3593574469,0.3493979746,-0.8926278015,-0.8291980417,0.4284282704,-0.8318150395,0.0216566738,0.3362712548,0.006476507,-0.7252250873,0.6765012039,0.2316881181,-0.3715552163,-0.7840767109,0.266028103,-0.1075165435,-0.3211148974,0.5469864482,-0.1035309393,0.5474475535,0.5169588407,0.1606857725,0.7111651419,-0.2562699333,0.6014367497,0.3102256083,0.0155667853,-0.5281599701,0.6156989565,0.7546696762,-0.5977661942,0.2906458513,-0.407265037,0.8839410717,0.8758353932,-0.5476246864,-0.9598563535,-0.1561777346,0.9781501113,-0.9723844247,-0.9348667411,0.6609551037,0.9130658998,0.03031317,0.4995214274,0.3678408065,0.6715800731,0.5427740054,-0.9752648471,0.1278399699,-0.8432006796,-0.1593366355,-0.7031891865,-0.6398274356,0.308939707,0.5180059062,-0.9286058394,-0.1350820638,-0.7696733286,0.6121856632,-0.6712596786,-0.0519851945,0.3103950289,-0.2710539565,0.4043322353,0.5462612683,-0.6493110319,-0.8326101692,0.0857884665,-0.6476852053,-0.3101379458,0.0449791834,-0.2059524205,0.9396922315,0.3286772264,-0.577464366,0.6521837643,0.8877697984,0.0550067988,0.4292400913,-0.3615009781,-0.0932169087,-0.4311675389,0.387632838,-0.29409527,-0.0371729187,-0.3927547221,0.9386135327,-0.0930783596,0.3901608014,-0.9305543115,0.1664412082,-0.4813201201,0.0796839096,-0.870951805,0.7237342732,0.1679189508,-0.5230164357,-0.5774420758,-0.0435294896,-0.0440122705,0.8342875491,0.0474175033,0.0289870784,-0.4161555317,0.2719877088,-0.1860398162,0.0489805103,0.4770567944,-0.0836647354,0.3069332806,0.1925067143,0.9108017093,0.0244408124,0.0231934827,-0.1710190266,0.1348655899,-0.8907256776,0.4967068551,-0.353822054,0.4986441886,0.064665141,0.4235488368,-0.2247683346,-0.4238573682,0.2903019884,-0.2130957577,-0.0843644604,0.2909754222,-0.1832670398,-0.0179327387,-0.5397576482,-0.9586335642,-0.5696344727,-0.0585585419,-0.3797357396,-0.1748510744,0.7984665359,0.2595397723,-0.4497272015,0.3647655179,-0.6239818163,-0.6472464535,0.4149228396,-0.3219587053,-0.0415167859,-0.9348920544,-0.1923172637,-0.3716475438,0.2624062026,-0.6654092256,-0.7027789742,0.6163370914,-0.387841513,0.8600850895,-0.4415050163,0.7695891939,-0.0604667193,0.6041458218,0.6863837603,0.2922652578,-0.5912543289,-0.5820002217,-0.1793116196,-0.9118688476,0.0414326215,-0.3334543589,0.7711317453,0.3894683725,-0.6583470307,0.8533539667,-0.3576413705,0.3781677863,-0.0791125721,-0.754332814,0.4589356842,-0.1873172368,-0.8769614153,-0.5006003935,0.7903514344,-0.3473614524,0.6494309033,0.2841374098,-0.62398372,0.6838322587,0.1838107208,-0.0918613481,-0.2497375026,-0.8567671102,-0.9826537498,-0.0566667351,-0.1326557635,0.3439813113,-0.32637242,0.8503230556,-0.2735624775,0.3003902665,-0.4663333274,-0.396618295,0.9966402564,-0.6470556256,0.4608973662,-0.6845452298,0.6419722128,-0.2066998701,0.4261753733,0.8631596833,0.5463750425,-0.5107140984,-0.8672217183,0.51178575,-0.8612877295,-0.4900980662,-0.3585944451,-0.4536967853,-0.9822307021,-0.2496796544,-0.0048214695,-0.1336820531,0.5772534001,0.5568851313,0.8446404215,-0.3288379344,-0.3692062735,0.3521121597,-0.9272436851,-0.9751966854,-0.9630586968,-0.7403108251,-0.580086825,-0.4891096238,0.324169031,0.7294757969,0.108919839,-0.1482561934,-0.6841283158,-0.8374964815,0.4700070197,-0.4666439626,-0.2446340858,-0.46402429,0.5658273051,0.4303913756,0.9308902461,-0.9717323852,0.8164551582,0.4311860024,-0.6993949205,0.6439263529,-0.3756130836,-0.9372520258,0.1175926911,0.8386709176,0.9995407935,-0.8842427765,-0.9451427699,-0.8556078222,0.1842568764,0.2695655568,-0.1696752771,-0.2058471213,-0.7217028715,0.7171966552,-0.1681569307,-0.6528123614,0.8638453882,0.7903460755,-0.2578179552,0.3139029524,-0.3751110703,0.5843812495,-0.8359667004,0.7808771885,0.0003106543,-0.4166585166,0.2450103598,0.0358605912,-0.2472952879,0.2849379597,-0.6973513752,0.1927752798,-0.3504391215,-0.1744462657,0.4494053709,-0.1832847516,-0.9398276337,-0.3947562608,-0.7823402524,-0.4510536339,-0.4137457363,0.9127347812,0.1847127812,-0.2680936228,0.6869435336,0.5631208538,0.5977873716,0.0342049008,-0.696200987,0.4593865766,0.0117236064,-0.9243765694,-0.5141985841,-0.6556396816,-0.149497801,0.0521153366,0.0143533298,0.2987610741,-0.8408023879,0.3608058622,0.0282792175,0.4296750246,0.1020249339,-0.7750078734,0.648825417,0.4828602268,-0.3491835608,-0.6808568757,0.604660141,0.4677466123,-0.8026737214,0.3938997245,-0.1431265226,-0.7175640125,0.1782304781,0.901074671,-0.7760226109,0.3387020348,-0.2998730629,-0.3813474174,0.0069057146,-0.8130096902,0.1645354317,-0.7242100459,-0.3859858341,-0.858581755,0.8928976122,0.1778151547,-0.8139196687,0.9047751471,-0.2484229966,-0.1687715719,-0.7786963262,0.1935221968,0.7768590066,0.5687018937,-0.7996944689,-0.7951660625,-0.6334378573,0.8985873927,0.4377242811,-0.2316677367,-0.2029528992,-0.3416283188,-0.2676237861,0.8557578009,-0.4924906197,0.2504480499,0.2098527587,-0.12953862,-0.0269228445,-0.2079654841,-0.4252257238,-0.575221794,0.409112975,-0.828166528,0.8334642535,0.4650278594,0.8962137626,0.1750316861,-0.5758944492,-0.6034857056,-0.4947891834,0.6083003003,0.3314279057,-0.7914741582,-0.5778301882,-0.575205168,-0.7779795717,0.5993352067,0.0733907967,-0.1508448256,-0.435824644,-0.8988005317,0.2504081949,0.5025055949,-0.2460807005,0.2053600828,-0.7650091949,0.5274547357,0.2400132454,0.4870428797,-0.0758581982,0.7130956147,0.6489525549,0.7304580641,-0.0449012668,0.6200056244,-1.0900330361,-0.9461997844,0.8303335235,-0.2947534678,0.3800205849,0.0342482905,-0.9574475292,0.4473644812,-1.0311880972,-0.1670343822,-0.80030375,-0.5286100118,0.2637737803,-0.679900097,-0.8500600907,0.6738379468,0.6550734528,-0.8002167738,-0.8933071274,0.3477076236,0.4606125317,-0.8648679576,0.7549803392,0.3074826616,-0.9489729967,0.8732471821,0.4695362821,-0.9858689218,-0.0253127703,-0.6297861508,0.2536174505,0.7001052667,0.0826979465,-0.0838983749,-0.9498106319,0.4943419937,0.6538982652,-0.7400355361,-0.2261666657,-0.452737598,0.5198616721,0.7348406967,0.4543650225,0.1557720098,-0.8101039718,-0.6172469727,-0.6381655189,0.8882607092,-0.0239564293,-0.9202914632,0.1315261348,-0.2903972326,-0.88191909,-0.33930132,0.888958782,-0.8938431724,-1.091480967,0.0446992869,-0.6251144039,-0.7892340928,0.8176033013,-0.6403294376,0.0702941268,-1.0722426012,0.6183134504,0.0675570871,-0.6785937029,-0.94205693,-0.4886364082,-0.9107121847,0.4646784067,-0.5763809367,-0.7497977878,-1.0702239223,-1.0481988717,-0.0064341036,-0.7339878271,0.8079520797,-0.5253004881,0.0080484616,-0.2072892898,-0.2433995997,-0.9094670195,-0.8961839735,-1.008050565,-0.2023150047,0.3466953337,0.4391022343,0.0781143344,-0.9829758055,0.4058147445,-0.1813748983,0.4433257691,0.7144532037,0.170753762,0.818587022,0.7824384757,0.5237916019,-0.5903906899,-0.088325238,0.2180415652,-0.4621566555,-0.1852873122,-0.4079405351,-0.5745414759,-0.566603238,0.4576295689,-0.5656033518,-0.2422527859,-0.4037754407,0.2541600018,-0.4511737956,0.3706998713,0.2460838165,-0.2506615894,-0.9540275991,-0.6521568934,-0.4382840118,-0.0875664057,-0.1780561192,0.8254379072,0.8058469054,-0.6720512736,-0.6466663389,0.1174796335,-0.549813228,-0.6793786439,-0.1117808653,0.8406980225,0.3004301693,-0.9195765931,-0.428837931,0.0395571849,0.6212560516,0.7875611783,-0.4317913933,-0.6887443925,-0.7386722512,0.7374753431,-0.8081107348,-0.0692738482,-0.2217070332,0.4658409506,-0.9737810626,-0.0243639463,-0.4362162149,-0.1264325754,0.0516968909,-0.5486130754,-1.0315833412,0.3517985642,0.770306768,-0.583885249,0.4267924186,0.0543856271,-0.0058319677,0.7353694277,-0.7079010529,-1.0633631925,-0.1173381541,0.2321509332,0.3422002648,-0.7319814766,-0.5616580804,-0.7804788964,0.5245299568,0.1231462531,0.8095542012,0.0836188555,-0.4979175923,-0.6440676505,0.8301915122,-0.697620021,-0.065132372,0.224586042,-0.35530645,0.070537141,0.110067502,0.0166134335,-0.6669531127,-1.0753801185,0.5567232897,0.6738175028,0.5357849714,0.3679546178,0.6810481255,-0.582701897,-0.9210118762,-0.5043353604,-0.6137292309,-0.6275480369,0.599283543,0.619670114,-0.301333144,0.1939726867,-0.8311547002,-0.1063119188,-0.6074411047,0.690850752,-0.0796056573,-0.0617675424,-0.384683728,-0.5486264879,-0.3278015067,0.4656140343,-0.4876447541,-0.5318748036,-0.4469275509,-1.0950595233,0.852138952,0.7629869083,-0.3726222177,-0.9728836733,0.6511773994,-0.9878633748,-0.4799770599,-0.4301569999,-0.200972527,0.1710492023,-0.9585367552,0.8626187878,-0.3167070669,-0.9005036334,0.8127008943,-0.5482611449,0.8146244144,0.1865467228,0.8716663598,0.7252952443,-0.5482805742,-0.0244342514,-0.6086886113,-0.4618231298,0.2263223533,-0.2107842021,-0.8815769962,0.837069525,0.7682244559,0.3544560992,0.1848095026,0.2854558737,0.3302638684,0.4275427558,0.6392074568,0.8886154579,0.4133256008,-0.5809712538,-0.9090996868,-0.381375307,-0.6086584626,0.0187639244,-0.6652816048,0.0393568709,-0.8637095614,0.8208950186,-1.0239611006,-1.0685178432,-0.3568020609,-1.0511343683,0.0557858985,-1.0825324076,-0.3448634517,0.6804162437,-0.3245696609,-0.9134229066,-0.711774349,0.0725842066,0.6219900442,-0.3801285492,0.6566315075,-0.4132962504,-0.0069702897,0.4152083308,0.4975672518,0.7134059766,-0.1783390899,-0.2877577261,0.7962928941,0.5976188653,-0.2984579091,0.7174246968,-0.5888846813,0.6685997697,-0.5881214251,0.2290038899,0.6983882864,-0.7602270821,-0.4575774406,-0.7379749807,0.1375124309,0.1840544142,0.1184731167,-0.3266698734,-1.0440647378,-0.4914727637,-0.7741238063,0.7865581276,0.754151166,0.0046037383,-0.3639753868,0.0171448126,0.1307014007,-0.1320068516,-0.5691419279,-0.5026771517,-0.6928258983,-0.67629843,0.5618631431,0.7011217759,0.7532042792,-0.748968018,-0.1949267273,-0.9966319895,-0.1885261831,-0.1914157622,0.7260687841,0.6346848444,-0.6772885246,-0.9407449345,-1.0350231266,0.6464924426,0.2506928895,-0.4047619307,0.5314716143,0.1960078463,0.3072405685,-0.8369762728,0.4957739529,0.8412449719,0.5772238975,-0.7116006071,-0.3863482882,-0.7679853903,0.1435591359,-0.0985507049,-1.0485804117,-0.2650755734,0.7122094189,-0.0384454631,0.5109391552,-0.9416210371,-0.7628152443,0.0823930971,-0.1453811411,0.8775796356,0.545542032,-0.8430601711,0.7304140223,0.4595247344,-0.0376149934,-1.0175335388,-0.303173158,-0.7119905742
