encog,BasicNetwork,java,3.2.0,1,1451428324514
[BASIC]
[BASIC:PARAMS]
[BASIC:NETWORK]
beginTraining=0
connectionLimit=0
contextTargetOffset=0,0,0,0
contextTargetSize=0,0,0,0
endTraining=3
hasContext=f
inputCount=180
layerCounts=1,181,181,181
layerFeedCounts=1,180,180,180
layerContextCount=0,0,0,0
layerIndex=0,1,182,363
output=0,0,0,0,0,0,0,0,0,0,0,0,0,0,0,0,0,0,0,0,0,0,0,0,0,0,0,0,0,0,0,0,0,0,0,0,0,0,0,0,0,0,0,0,0,0,0,0,0,0,0,0,0,0,0,0,0,0,0,0,0,0,0,0,0,0,0,0,0,0,0,0,0,0,0,0,0,0,0,0,0,0,0,0,0,0,0,0,0,0,0,0,0,0,0,0,0,0,0,0,0,0,0,0,0,0,0,0,0,0,0,0,0,0,0,0,0,0,0,0,0,0,0,0,0,0,0,0,0,0,0,0,0,0,0,0,0,0,0,0,0,0,0,0,0,0,0,0,0,0,0,0,0,0,0,0,0,0,0,0,0,0,0,0,0,0,0,0,0,0,0,0,0,0,0,0,0,0,0,0,0,1,0,0,0,0,0,0,0,0,0,0,0,0,0,0,0,0,0,0,0,0,0,0,0,0,0,0,0,0,0,0,0,0,0,0,0,0,0,0,0,0,0,0,0,0,0,0,0,0,0,0,0,0,0,0,0,0,0,0,0,0,0,0,0,0,0,0,0,0,0,0,0,0,0,0,0,0,0,0,0,0,0,0,0,0,0,0,0,0,0,0,0,0,0,0,0,0,0,0,0,0,0,0,0,0,0,0,0,0,0,0,0,0,0,0,0,0,0,0,0,0,0,0,0,0,0,0,0,0,0,0,0,0,0,0,0,0,0,0,0,0,0,0,0,0,0,0,0,0,0,0,0,0,0,0,0,0,0,0,0,0,0,0,0,0,0,0,0,0,0,0,0,0,0,0,0,0,0,0,0,0,1,0,0,0,0,0,0,0,0,0,0,0,0,0,0,0,0,0,0,0,0,0,0,0,0,0,0,0,0,0,0,0,0,0,0,0,0,0,0,0,0,0,0,0,0,0,0,0,0,0,0,0,0,0,0,0,0,0,0,0,0,0,0,0,0,0,0,0,0,0,0,0,0,0,0,0,0,0,0,0,0,0,0,0,0,0,0,0,0,0,0,0,0,0,0,0,0,0,0,0,0,0,0,0,0,0,0,0,0,0,0,0,0,0,0,0,0,0,0,0,0,0,0,0,0,0,0,0,0,0,0,0,0,0,0,0,0,0,0,0,0,0,0,0,0,0,0,0,0,0,0,0,0,0,0,0,0,0,0,0,0,0,0,0,0,0,0,0,0,0,0,0,0,0,0,0,0,0,0,0,0,1
outputCount=1
weightIndex=0,181,32761,65341
weights=##0
##double#65341
   0.4049656132,0.8152371448,0.451722785,0.4807047619,-8.8590766489,-0.7788250364,0.236179133,0.8849831835,-0.6837579323,-0.2702716471,0.7438919276,-0.3395036147,0.5759098203,0.0262918179,0.9900726241,-0.8231285295,0.3854024672,-0.9654305221,0.2533817867,0.1002939458,-0.1191593325,0.5194679593,0.4065226439,-0.0649634784,-0.9856395724,0.9225897818,-0.1080997335,-0.7608973316,-0.3817700241,-0.5248894166,0.0516690304,-0.2833118605,0.6990004656,-0.3700783863,-0.0703074241,0.1304542127,-0.575314982,-0.0102881521,0.0107147073,-0.5408670361,0.0257326812,-0.9233987533,-0.3015751781,-0.3269737251,0.5878478292,0.2098957455,0.021841309,0.4092557203,-0.5184408315,-0.0602520052,-0.7273237712,0.0731867086,-0.4016008881,0.8278470774,-0.1563930966,-0.7299878119,0.2234000792,0.0200695419,0.5466382011,-0.5801080676,0.9083385228,0.3691665909,0.2025315983,0.7841188905,0.4669171684,0.0047350959,-0.3938143382,-0.5959248989,0.3353082247,-0.5695385147,-0.3436572655,-0.3158687843,0.3390831724,0.6265980445,-0.7003580827,-0.224506825,-0.1837447748,0.8785517819,-0.3077289006,0.0164473276,-0.1647469749,-0.5422103272,0.7450945561,0.3246000785,0.0123954791,0.6464628397,-0.0895284305,-0.1594730881,-0.7500854339,0.320552135,0.15863436,-0.2877692094,-0.5832245785,0.8249557617,-0.2429878926,-0.6956267904,-0.8623837942,-0.6510915496,0.153604976,-0.2576799044,0.3520074048,-0.8528358896,-0.3530988945,0.0893689543,0.4265221508,0.6838112573,0.070110011,1.0242658711,-0.2617916931,0.8357267238,-0.790652458,0.2243216834,0.1233297401,-0.6015253157,-0.8336330608,-0.1513522005,-0.7904838758,0.841807242,0.4033547315,0.344909052,-0.9233825341,0.3063134481,0.6576188217,0.7863446337,-0.6831407802,0.4502737676,-0.4732523329,-0.8156649179,-0.3623927497,-0.7749774632,0.7214546163,0.4456411492,-0.4610084575,0.2382076803,0.0621519295,0.6645606397,0.956961632,0.6707897137,0.1697818367,0.2287672475,0.1951059085,-0.5211477884,0.4908085278,-0.3449426969,0.4926740789,-0.1092201113,-0.7276070427,-0.6726629908,0.2158613448,-0.1792147043,0.7362121824,0.8633636867,-0.8591105418,-0.7147281595,-0.7622002113,0.3539424455,0.7976346521,-0.5781476569,-0.0581089879,0.5835009925,0.355657196,-0.9002003794,0.6681420709,0.680149093,0.9296493104,-0.57834902,0.7605495035,0.2634652039,-0.9517487438,-0.9039021336,0.8778781644,0.956837628,0.8094239835,0.798250512,0.1770349155,-0.7962743913,0.559995026,-0.9113122613,0.0140034696,-0.6500573984,-0.9454075007,0.2206309723,0.0015507955,0.2702369726,-0.506076285,0.7738609297,-0.9409275761,-0.8934619429,-0.4976646764,-0.278350216,0.2744211128,0.8227288434,0.7810381976,-0.1059687901,0.5076135287,0.1325087268,0.7342450492,-0.2469170183,-0.9769627342,-0.0002626456,-0.4040254239,0.1888033099,0.1733596661,-0.9257884401,-0.1735345283,0.1572252822,0.1139457189,-0.9783973572,-0.1797933206,0.0098097741,0.3514825744,-0.0417938331,0.4490454198,0.6005110074,0.9151031191,-0.349749608,-0.6763798799,0.9311138982,0.1423099153,-0.8582639064,-0.4703286533,-0.1438171659,-0.3696331122,-0.0159692377,-0.4899977108,-0.5818815875,-0.1531133168,-0.5093139873,0.8730921023,0.3832125125,-0.5834289585,0.6875043669,-0.7038541987,-0.7338167578,0.5941693007,0.6444336271,-0.7087781475,0.0732842446,0.4551510644,0.8649903463,-0.5795014129,-0.5972521772,0.5377863688,0.1504371707,0.27425905,0.0039866232,-0.1695558684,0.0891281534,-0.1327379528,0.5153859691,0.6596024672,0.4184846009,0.9416101359,-0.5022931491,-0.4353990054,0.2234377002,0.3801306731,0.4944455889,-0.8984057299,0.1239081719,0.5056823996,0.3729832945,0.8649574404,0.1902239614,0.5659920903,0.9972216769,0.9760057072,0.8101497195,0.1224975905,0.536989726,-0.4028714361,0.8398744187,0.1565509931,0.9138291826,0.1648441266,-0.065728355,0.8746277096,-0.8340287452,0.7939298851,-0.6141437436,0.6892497262,0.7311246842,-0.3289976083,-0.2902299291,-0.1132063419,0.9433702724,0.4226291137,-0.124969843,-0.2303597853,0.3291814161,-0.6838261452,0.7313642041,0.2144153586,0.0188731682,-0.635056632,0.7562475765,0.9032440376,-0.9056676063,0.3754518965,0.419613161,0.8554532253,-0.0011118539,-0.4343287196,0.6009642946,-0.3862907907,-0.1237820853,0.2212970351,0.0556337037,0.7847490234,-0.0280976847,-0.1356338875,-0.6633348299,-0.6366638785,0.9926211818,0.2202135959,-0.1926371209,-0.9424785953,0.4894035665,0.0616804623,0.2206057578,-0.359270148,0.2134426162,-0.187119013,0.1531956092,0.4975368084,-0.4287483351,0.9926024194,-0.3183580768,-0.1931310837,0.8406411095,-0.1507483812,0.2359823156,0.0613575727,0.705815752,0.3989526201,0.4547428738,-0.7021486388,-0.4628531674,0.1187276431,-0.6380804548,0.4709496407,0.8377212176,-0.9498654196,-0.261759168,-0.5734427349,0.5515499898,-1.0218985974,-0.4703408423,0.9102475141,0.4324926712,0.6206627228,-0.8055198936,-0.472830169,-0.5098974669,-0.7563656512,-0.8508600779,-0.0580936777,-1.7900468959,-0.2202827819,0.9837868968,0.8894839811,-0.4663326462,0.8470810366,-0.5917387718,-0.6689970286,0.2041216654,0.3775708979,-0.9793390346,0.3548053974,0.5691249768,-0.5017621399,0.2398470311,0.7103721382,0.7998726691,-0.2742576446,0.4170261311,0.6884754108,0.7512651504,-0.8829704591,0.3464344927,0.0094991819,0.3883228762,-0.1819307892,-0.5520681605,-0.284602394,-0.3066653318,-1.0186835793,0.9857161704,0.0470148025,0.9000093963,-0.9725356248,0.1126513918,0.3551434055,-0.5442502551,0.8219796968,-0.4564606637,0.8045712455,0.8738279985,-0.9505099301,-0.157603988,0.5001391681,0.0302028263,0.1007386079,0.8649332884,-0.7739211728,-0.7388200735,0.0605311669,-0.1130337431,-0.821157872,0.544032286,0.5863774354,-0.6352868065,-0.5568909008,0.1575787362,0.5283284363,0.9563536117,0.8075105517,0.2868584896,0.1200490379,-0.8629469206,0.6578530768,-0.406545458,0.6159013963,-0.5832562607,0.3426112352,-0.4162123661,0.331826477,-0.2155155459,-0.8388013501,0.4778167672,0.8868004243,-0.9311347173,0.2261586983,-0.9612035264,-0.2637624513,0.4598419819,0.268027607,0.352211465,-0.2688875093,-0.4877910209,-0.2179086524,-0.1068575755,-0.0337325051,0.0753652518,0.488162547,-0.7536221765,-0.0641783471,-0.0618796809,-0.1657317192,0.1213674217,-0.6067353465,0.9877499013,-0.2251784909,-0.0601278997,0.1380725478,0.9303964961,-0.2076610856,0.1370049664,0.1740348121,-0.7992723674,0.2669836232,-0.3543766734,-0.8489359896,0.8279670912,0.3864812615,-0.9486091959,0.7653534333,0.3579865908,-0.0676609013,0.2591296161,0.0098675047,-0.5171795083,-0.7094884508,0.5290073574,-0.388291811,-0.434078091,-0.3562909826,0.2160249526,-0.4279126521,0.5020774739,-0.2107791337,0.8044556649,-0.772865572,-0.3925074279,-0.8033043372,0.5871073833,0.9905598618,0.8313969492,-0.4518797129,0.7124993673,0.2963272711,0.8801709182,-0.0222738355,-0.992698483,-0.5922380016,-0.7758766577,-0.242282145,-0.1786207902,-0.4531832706,-0.5039977074,-0.1684783506,-0.2450742546,0.2467004308,-0.0658295414,0.5893850932,-0.0177983991,-0.1878718059,0.8331700034,0.0796874804,-0.3700790104,0.7833957679,0.7708813259,-0.5843403895,-0.0301079652,0.0210151807,0.1099803117,-0.9522399484,0.1035385156,0.4831289625,-0.7709254985,0.4844818221,0.8390974857,-0.8222102018,0.1014462025,0.1559465868,-0.8335111616,0.9672105308,-0.0093006391,-0.6824164722,0.7591040177,0.4369829381,-0.8726523088,-0.0911828253,-0.5539714006,-0.1517778873,0.8300634482,0.4840636541,-0.0940621771,0.9309258066,-0.9271717688,-0.0612894851,0.1612495953,0.9291219122,0.8417934047,0.7895968008,0.9787168419,-0.7280984974,0.9267811531,0.9995212623,-0.1077507939,-0.8386410225,0.2427380219,0.1435303503,-0.2717811377,-0.6466011645,-0.6850917678,0.1931457685,-0.7435103366,-0.1104429763,0.7507519812,0.3587937628,-0.4868247393,-0.530871776,-0.5586857433,-0.1306818766,0.3007451399,-0.2192547963,-0.0926824035,0.1498928252,0.4791333966,0.281948465,-0.9622019248,-0.7311383418,0.3681216617,-0.3439155492,-0.1506186024,0.1216235252,0.0401670037,-0.8370414851,-0.7212366848,-0.7923044925,-0.1387465991,0.4249920234,0.6104027607,0.5546339097,0.7344679732,-0.0308176961,-0.0516707766,0.406301967,0.4150856747,0.2106545766,0.6173541184,-0.5614724748,0.3970998828,0.08404658,-0.7547478052,-0.7869538468,-0.7600058657,-0.4523552089,0.5001423299,0.5079476695,-0.0673437516,0.5548526402,-0.8030303454,-0.2565751365,0.1690939489,-0.0664641457,0.9252996785,-0.8023177018,-0.0992477895,-0.299720654,0.3245595112,-0.3100968344,0.6491190708,-0.5658394068,-0.8757973935,0.6244120695,-0.6656194132,0.5411911267,-0.8502906717,0.6092054883,-0.8213948596,0.7848902331,0.2173768039,-0.2581896046,-1.0360991582,0.6431935813,0.6791633826,-0.1634554905,-0.1788397009,-0.3698736977,-0.2531045512,-0.9293350981,-0.3794333549,0.5441333289,-0.0941781897,0.2030259542,-0.6540679659,0.1722224276,-0.6459045477,0.843392453,-0.7663493503,-0.6965715244,0.1930052877,0.40346631,-0.0472752698,-0.5853863646,0.9702375606,-0.5670133091,0.5716863606,0.7781543191,1.0002172254,0.8031076829,-0.8948199738,-0.9504645271,0.7270993782,0.207013845,-0.7725304538,-0.50837622,0.0890198998,-0.3690970583,-0.2591064601,-0.543546243,0.9482728901,0.7404422113,-0.1260723231,0.7249585664,-0.6030066769,0.5718469369,-0.5634515609,-0.2222613255,0.2293301117,0.3038966592,0.7133670092,0.4471054942,-0.8554675828,-0.7428448136,-0.5956408854,-0.0596064579,-0.6750798788,-0.2945893715,0.7660071998,-0.5849510032,-0.3353397708,0.9358782144,-0.0845435429,0.399897657,-0.737774878,-0.3627348548,0.5281862057,-0.9849131324,-0.3719939444,0.5394293604,0.6729666734,0.5080018857,-0.7555621518,0.4148367839,-0.3559346765,-0.5606257528,-0.1886633065,0.8189808357,0.248069705,0.1789225744,0.7109523472,0.124023685,-0.9921682432,-0.481124849,-0.684588873,0.0438627574,0.7133668294,0.3096597017,-0.6451083041,0.5233833057,0.674581084,0.8369194076,-0.6437850968,0.811492182,-0.7563930674,0.2865637644,-1.6001099126,-0.9090716627,-0.0070284303,-0.2867564059,-0.524913306,0.4517224955,-0.1112542568,-0.2217200645,-0.6623929813,-0.1358161052,-0.5413778751,0.3671805649,-0.4082569914,-0.2766202866,-0.0162137415,0.1940380729,0.0519847016,-0.8930050079,-0.9906181346,0.5140435324,-0.4397452291,-0.7497333142,-0.1254083107,-0.8533272932,0.9356451573,0.0822860725,-0.1020632186,-0.6473409521,-0.1257073342,0.1598594463,0.6143874057,0.6941259717,0.1639489323,-0.1271862032,0.7984641102,-0.0457608412,-0.3048972176,-0.2682016327,-0.8518769766,-0.1604655129,0.2640667966,0.6322653865,-0.4318725491,0.1077578491,-0.1328728391,0.7955536691,-0.3785604411,0.2982929457,-0.3201943284,0.7466546192,-0.360192264,0.4828107283,0.1811343616,0.196302503,-0.4894930353,0.7234572728,0.7410441104,0.6424917969,-0.3272258942,0.8974864369,0.3029432852,0.5705194789,-0.3089033371,0.5915332965,-0.02568402,0.1917808126,-0.3820017432,-0.5470458536,0.591529712,0.2262657188,0.3168817667,0.2064019698,-0.4730913808,-0.5829435812,0.8267985487,-0.5122872479,-0.4322197182,-0.0733073854,0.8812382454,0.6629207681,-0.319397543,-0.0813725387,0.0073233122,-1.0165594298,0.0812077823,-0.5848690931,0.3301699805,-0.2453442228,0.9666265917,-0.5612501284,-0.7072850863,-0.8456150009,-0.5283856955,0.8929524662,0.805129442,-0.5889592363,0.3498560769,-0.6771371503,-0.0475224844,-0.4912534068,-0.7328768062,0.1075379844,-0.1213368201,0.0869742865,-0.8693321578,0.9353029148,0.7293572926,0.717531767,-0.5554805856,0.8470121757,0.4803007763,0.7439789121,0.8700919242,-0.7336326471,-0.4061338407,0.2483744655,0.2835197633,0.6286759266,0.7704074591,0.8190490657,-0.4846395029,-0.622186372,0.3222725593,0.4088932161,0.3839596545,0.8351108782,0.4166592735,0.253349121,-0.6237572976,0.0506340336,-0.7150824823,0.3364750929,0.695837104,0.6983377335,0.3171362786,0.7143373747,-0.920572007,-0.0624272902,0.7570075893,0.026485268,0.6249567008,-0.7058126485,0.7496823498,-0.4245196822,-0.3520269902,-0.4788738588,0.1591918275,0.2612444445,-0.2793291794,-0.460878939,-0.6716323926,-0.2431552452,0.3587687682,-0.8194763753,0.227081851,0.8605319818,0.0401277407,0.1946134712,-0.9942834049,0.8596108298,0.9354781587,-0.9529953865,-0.8513729274,0.1896013639,-0.2191206594,-0.1472490901,0.1173820473,-0.6758447035,-0.6452624909,-0.8011328455,0.0181147622,-0.3301751432,-0.02255394,-1.001741201,0.2832432292,0.4265326205,-0.014484039,-0.5446282054,0.792718999,-0.481432239,-0.5806935342,-0.2486514506,0.4918162503,0.3205658753,-0.4655759396,-0.4187451383,-0.485085956,0.5983987247,0.7701305964,0.8988144891,0.5495599747,0.1764630816,-0.0269369942,-0.650866616,-0.9090649012,0.3293415407,-0.7742024387,-0.3651702373,-0.0544378073,-0.1376847183,-0.5745727782,-0.5982619201,-0.7221314452,0.1914228867,0.6297005091,-0.2065366314,0.5220160994,-0.5483748621,-0.5157659313,0.3113500414,0.7846244765,-0.4893106303,0.7750462079,-0.7916616469,-0.3784834047,-1.0250954937,0.444377656,-0.5921772166,-0.8596174279,0.7679574859,-0.643727618,-0.8237698616,0.0802651274,-0.9020344312,0.3863176824,1.7782847457,0.9388337598,-0.758696594,0.0791928079,0.8309080729,-0.5717344915,0.7115781751,-0.4999374499,0.8661205261,-0.3071460864,0.6528579595,0.5810685285,-0.6135787607,0.0161539086,-0.8074546639,0.147602295,0.8420246975,-0.1354871681,-0.7544553357,0.4070991736,-0.513380733,-0.5000130149,0.7800908953,0.1263295612,-0.2349926467,-0.8542898908,-0.2591326302,-0.631215709,0.0761093488,0.2131870176,-0.1070839768,-0.4429524203,-0.0496061347,-0.4186093944,-0.7533051128,0.8482163745,-0.2474944133,-0.322436809,-0.830240337,0.5618692828,-0.5171356829,0.8582761111,-0.6019698764,0.4897887222,0.6467914493,0.2708336055,-0.009684891,-0.6959126647,-0.4852215663,-0.7289151824,0.226851106,-0.6626004006,0.3268848978,-0.7389384083,0.3003554799,-0.5567493793,0.9397492965,0.3100457206,0.2862057209,-0.6243221769,-0.1274820955,-0.9764032167,0.3538808819,-0.9773734003,0.0326281704,0.0857626375,0.7615516339,-0.110992174,-0.2111594049,0.9700535626,1.0361721814,0.036568607,0.5359559743,-0.0441552876,-0.911320909,0.1485141167,0.0421168401,-0.7954832974,-0.7917772836,0.4896350853,-0.2857409218,-0.0212462263,-0.8098839197,0.1687608456,0.1060352452,-0.9757712099,0.9238626534,-0.029087509,0.2420030464,-0.0395480071,-0.6070589961,0.0160310096,0.8831587011,0.633047247,0.2779499884,0.4087137777,0.2196460602,-0.5005306142,0.8389997703,0.0119876291,0.8462493168,-0.8211158497,-0.167689821,-0.491404817,-0.6259550198,-0.050429313,0.7966380164,-0.8562645193,-0.2471557983,0.8782118609,0.7745673186,-0.7110691009,0.7453940023,-0.5635116821,0.8893650374,0.4086621713,-0.9528890971,0.7350127057,0.6418364421,-0.7789345472,0.9400882484,-0.9687836118,-0.2623743644,-0.2554841811,-0.5628172824,0.9428417946,-0.2094919807,-0.9149323939,-0.0750306037,0.8724053514,-0.0183772896,-0.4344080111,-0.7609799328,0.4642178267,-0.2499950256,0.5152127811,-0.7470266756,0.4452252903,0.8976486993,-0.6134834452,0.1730359676,-0.6642926398,0.8334030393,0.4763974814,0.799775055,0.6722325293,0.3468771913,0.7369438724,-0.6630941537,0.7256696356,-0.9944865933,-0.6543419987,0.7170340954,0.6506075071,0.104113657,0.7776111385,0.5418781118,-0.7936120771,0.0026639361,0.0519068532,-0.5241617938,0.4147642568,0.3275943529,0.2285491098,-0.925524248,-0.4955428105,0.8043185034,0.468357781,-0.3132440926,0.3627992627,0.745480586,-0.1600037948,0.2792078151,0.2876820248,-0.3755798697,-0.6077266095,0.4848341719,0.9671120681,-0.5492156463,-0.3792275811,0.2166509996,0.9113339673,0.6335737967,0.7602712607,-0.2696380989,1.2287004385,-0.2568049963,0.4365304132,-0.4624954802,0.2513977101,-0.6198156853,-0.374202059,-0.2165332363,0.6980569149,0.318545984,0.4065005814,-0.8702479007,-0.2614596784,-0.9616715803,0.0457168743,-0.3777945999,-0.8334812766,-0.1351080053,0.6653776196,-0.9297214302,0.5589312405,0.583285766,-0.6999134443,0.8192438261,-0.7578303802,0.3572568779,-0.4626297784,-0.3638609592,0.1949240481,0.1301862858,-0.3264716901,0.0788309307,-0.1638997311,-0.368372119,0.3758770721,-0.133137316,0.0835862568,-0.1314645539,0.5604238087,0.9813469099,0.0587082009,0.8145951668,-0.4772787226,-0.9609194851,-0.1110698918,-0.7262193693,0.4832242237,-0.8165999728,0.9580738781,0.8708242534,0.641305645,-0.4201345167,-0.7080971321,-0.3739651033,-0.8758723984,-0.5932959829,-0.1523394783,0.2167756217,0.3366474677,0.1769110183,0.0531602632,-0.3965178755,0.8531115455,-0.2485058755,0.000840133,0.9657811115,0.3743349211,0.2352316041,0.053317528,-0.4086074793,-0.2247771969,-0.6420754201,0.9056672076,0.752953414,-0.5384293331,-0.6122943761,-0.6941606858,-0.4467460242,0.6613109851,0.1250256676,0.0583694131,0.8332375178,-0.3477924876,0.4682944414,-0.130685858,-0.9710034321,-0.5336628151,-0.1427657232,-0.9128075472,0.0507775631,-0.1200872493,0.4879281965,-0.1824663321,-0.8365191559,-0.7663926987,-0.0167092707,-0.3330289071,0.8645004725,0.2652842965,-0.7960044702,-0.4669287225,0.692790789,0.1471374124,-0.153688185,-0.3550724015,-0.7438995207,0.06099084,0.7928234266,-0.704479915,-0.0525950827,-0.5178670017,-0.4460473568,0.8677772043,0.909718538,-0.4769596142,0.2946340889,-0.3021061645,0.8746564993,-0.5490301011,-0.2204349265,-0.6363898561,-0.996780181,0.1593902967,-0.8511462798,0.8989593712,0.9225769451,-0.3794972878,-0.152766785,-0.7930270976,0.390661058,0.0536706297,-0.5562266634,-0.1453018457,0.4027513681,0.4879204576,-0.3918340729,0.5714111832,-0.5665886366,-0.9908396011,0.4018999217,0.2378293917,0.4588407661,-0.992026956,-0.22753265,-0.8318321698,-0.0777156654,0.2874262822,-0.0212473841,0.9805958302,0.9680945165,0.1011377713,0.1534774649,-0.179463354,-0.0937835544,0.6033239584,0.350674413,-0.1449622778,0.8911926485,-1.1170459494,-0.7769786521,-0.3071239359,0.3218856455,0.3971240233,-0.2505921303,0.7312412993,-0.4566792912,-0.3115362994,-0.2295886377,-0.400187611,0.3959813874,0.1468019125,0.1659947904,0.2717377125,0.4741486864,-0.200501527,-0.3611217053,0.8803159928,0.86283075,-0.2606478418,0.6721183781,-0.2738986584,-0.7322331134,0.6050018335,0.1273202645,-0.2961328483,-0.3885062623,0.9630167254,-0.4477154772,-0.8434322003,0.3061484586,-0.5905862292,-0.3714014004,-0.7569266457,-0.3224864488,-0.7026295594,0.3314755848,-0.7792031475,-0.5794990129,0.8376678668,-0.2787103156,0.8121630505,-0.8098778915,-0.7222679283,-0.261236886,-0.3090736093,-0.88232645,-0.4597714401,-0.7981709346,0.873204102,0.0905039771,-0.5438243583,-0.3162034823,0.3978719018,0.0272137329,-0.3796656157,0.1828572621,0.2988866712,0.5221618848,0.8447042592,-0.5876156349,0.1145381837,0.9670223214,-0.8018290411,0.0207588272,-0.7601832792,-0.9262669208,0.3224873029,-0.7592161868,-0.4125945839,-0.939360971,-0.1232561413,-0.9026573895,-0.1175697323,0.3409776251,-0.0976543361,0.7913461004,-0.0804037299,-0.4286218186,-0.8995457136,-0.8573405251,-0.520466122,-0.7439093582,-0.6443876423,0.9184054949,0.6200942501,-0.0062174564,-0.0216958979,-0.9273453487,-0.0763391709,0.9311326774,0.1686269003,-0.3769163067,-0.5047702818,0.0464085687,-0.6567358981,-0.848484616,0.1291115387,0.6707047703,-0.5607946932,0.1256248369,0.8101904866,-0.3230894152,-0.2361442605,0.6036841128,-0.8364839151,0.0062893113,0.3905987496,1.0358645447,0.3796481321,-0.977555455,-0.4785768449,0.1313109296,-0.7804423913,0.8274161086,-0.6371626939,-0.1054994939,-0.3926956973,0.5066287156,0.5976628336,-0.5054179034,-0.9511642495,0.9314806324,0.8136518367,-0.2613269715,-0.673649979,0.6755424238,0.7534634464,-0.3208647602,0.2229930576,0.6646974396,0.8199466373,0.654307968,0.9208302757,0.3919173105,-0.6287636787,0.9711397298,-0.8721832991,0.2780025668,-0.8356708701,0.0220440897,0.4903015077,0.6544600166,-0.3412212751,0.4636487527,0.4783476659,0.7619711413,-0.6046088568,0.3904223159,0.8449978694,0.7245224949,0.4383785474,-0.0250558339,0.0637160961,0.7352801673,0.5757667437,-0.4458131819,-0.451863034,0.0772699798,0.3506439916,0.4418114258,-0.5104815207,-0.2144117922,-0.5748844015,-0.071672309,-0.5103730598,0.5359702404,0.2707644164,0.5635704044,0.7298375209,0.6016801301,0.3332205362,-0.4296183622,-0.6993120356,-0.1702328907,-0.4685106534,0.6632944402,-0.340299351,-0.0582438391,0.6438513619,0.6004954015,-0.3864759708,-0.5476591082,0.1028462199,-0.9010780001,-0.8654896002,0.513461125,-0.6685509092,0.0973045493,-0.7119079719,-0.1524979278,0.6774269265,-0.068587594,0.9049789493,-0.5589746075,-0.7587084756,-0.2894099475,-0.1367327202,-0.3150908928,-0.8058324283,0.2027778666,-0.4466769067,0.0609374061,0.8038971233,0.8224594395,-0.0371106905,-0.0213458111,-0.0782373755,0.5149002873,0.4804712822,0.1473468408,-0.858457928,0.3555167614,0.8953520398,0.4437809378,0.6652925775,0.7786630896,0.0216499171,-0.2049771627,0.050209045,0.1778596617,0.8776972009,0.5439318658,-0.6857998203,0.0465608382,-0.7736096536,-0.562353745,-0.1112606605,-0.1918833574,0.8665382662,0.4768253321,-0.5752109587,-0.8349481187,0.074525965,-0.3243879944,0.7161241042,-0.1573096999,0.7777077041,0.6308562588,0.4825507289,-0.1432208097,-0.6158296811,-0.2536836968,0.3722323118,0.5199303158,-0.5706957175,0.0557429388,-0.1948383211,-0.5543296194,0.7672715496,-0.1191895888,0.6614433643,-0.8142280484,0.2742110705,-0.3468678783,0.50751733,0.4649717711,0.7238503282,0.761507108,-0.8929736367,0.6874385399,-0.2612320078,0.9336894921,-0.3756481352,0.9360111994,0.5997485844,0.9728047104,-0.8205150074,-0.9754719461,-1.022919287,-0.2324227751,-0.005379638,0.1282223025,0.5609900334,-0.9560313878,0.0797296001,-0.2495106047,0.4490114261,0.3230294377,0.2630027007,0.6511150342,-0.4155464844,-0.3869667192,0.9379973613,-0.357591393,0.7121612817,-0.8914730458,0.9776197516,0.5042810034,-0.3913136966,0.3965532634,0.6880667916,0.8504384239,-0.2856685413,0.9905286973,0.5635555925,-1.0001840244,-0.7197507589,0.4125398007,0.1623898443,0.8492245485,0.0707638871,-0.8775508813,-0.8579240534,0.8021828425,0.1833960749,-0.2988434283,-0.0519409025,0.5180345591,-0.7978702807,-0.8030566711,0.8295931541,-0.0816945692,0.6988692224,0.4856743461,0.5732491609,-0.0156413098,-0.5367392046,0.9450125624,-0.491861962,-0.3248917156,0.0880097929,-0.6724105912,0.3273502685,0.8173395201,-0.1054604039,0.6651133651,0.8869988933,0.8376068679,0.4069259274,-0.8761648688,-0.6138910955,-0.1614881861,0.8981759082,0.9419891946,0.7022707757,-0.6876863561,0.5777274851,-0.8506716627,-0.2350557898,-0.6928443498,-0.9084496079,0.1343775467,-0.8667503656,0.6840284333,0.1646635155,-0.5988608776,0.0292611546,0.9520995707,-0.4039380586,0.490532229,-0.1889078362,0.5381748393,-0.3709798983,0.9854200014,0.7966638403,-0.3127244894,-0.5160129229,0.1526770345,-0.9678330768,-0.0286553935,1.0804873125,0.2101885653,-0.3484811583,-0.3846628833,-0.6340196989,-0.2384382287,0.2501181516,0.9538537508,-0.6951563588,-0.8823245793,0.2235711442,-0.2982215645,-0.0481622394,-0.1244437048,0.313645165,0.4083291584,0.3277182746,-0.1163072503,-0.278191616,-0.1338125172,0.782281622,-0.9655444722,-0.3244319158,0.6595779707,0.2564177462,0.4158854015,0.8232969635,0.9443755518,-0.3491661148,-0.0525375115,0.1488896716,-0.5721692088,-0.5306073081,0.7423242974,-0.6826122074,0.9105721102,0.8516884738,0.5030360889,-0.9423530268,-0.3393213736,-0.7876850001,0.7853081797,-0.9426671087,0.46240062,-0.183031193,-0.2900428057,-0.8036542132,-0.1679454234,0.8928256997,0.5981123127,0.9629341467,-0.510268017,0.1467422689,-0.1543581987,0.9353097634,-0.2978942253,0.6532917258,-0.0022501345,-0.3740508529,0.7275550044,-0.8610904095,-0.7884913787,-0.2562190167,0.0813281892,0.8066329282,0.7718792536,0.7075259019,-0.0977309726,0.4930137448,0.2218654356,0.8208222349,0.5911616568,0.3714195133,0.8782071897,-0.0942033944,-0.2450643541,0.9185799954,-0.7150062761,-0.9238844993,-0.0088962259,0.8370674893,0.0818079985,0.0475407195,-0.0805074485,-0.5141889298,0.3731773703,0.5123522944,-0.1200234579,-0.2927766373,0.1971971993,-0.4055568585,-0.962702834,-0.1736681359,0.0879812871,0.7349736932,0.9435555504,-0.2830804667,0.8462579229,0.0676446888,0.7577711732,0.0198201109,0.5043396555,0.88862706,0.7517145601,-0.4603826633,-0.1214984621,-0.9225260887,-0.3681102363,0.6056801077,-0.0661679744,-0.7495261624,-0.118531194,0.4533929448,0.8835884013,-0.7137718621,-0.8270357334,0.5970075574,0.2737487685,0.0896058339,-0.1752586649,0.2294663454,-0.464892261,0.9861944468,-0.0290375413,-0.5245666808,-0.0781724555,0.7906286229,-0.8649674623,-0.9897677384,-0.4958137851,-0.2705267412,-0.539754531,-0.8090914346,0.8956274984,0.2958573726,-0.7709431326,-0.4380047791,0.3242611345,0.8582477157,0.1088043797,0.1789391243,-0.7571104488,-0.98351514,0.585106121,0.9868320161,-0.3168222538,0.9549948012,-0.6125570094,-0.7197737704,-0.9734131868,0.8385066216,0.6000439387,0.9323407875,0.7039269167,0.1289266871,-0.4645586921,-0.0972047275,0.2611922375,-0.912348856,-0.3603409139,-0.5165538868,0.5848540305,0.3943954205,-0.7550672854,0.374521142,0.0280026696,0.0885774717,0.7391726228,-0.7940335948,-0.6973353216,0.4751264695,-0.6784839129,-0.0842891895,-0.8309267221,0.4165224222,0.386019919,-0.018848492,-0.4596230374,-0.5178874327,-0.5270028734,0.7608312258,-0.059686052,0.501468334,0.0598948226,-0.628325741,-0.9008335883,0.0941783446,-0.4519077068,0.2097296529,0.9317522913,0.4813801569,-0.9647830096,-0.3287055754,0.568878591,-0.9545625343,-0.60035144,-0.864706865,0.0570144694,0.8309106978,0.8713574226,-0.6033616718,-0.0740192204,-0.1995299906,-0.897201421,0.1434268029,0.9611840669,-0.996824882,-0.8573986279,0.0760344135,0.0693778575,0.4275786784,0.7318692375,-0.9170113963,0.4303679689,0.7550761534,-0.7674451405,-0.7075065022,-0.9562524412,-0.4612345119,0.4778156439,-0.2483621427,0.7424646264,0.5895874185,-0.8252442563,-0.1184907295,0.1592514179,0.4036971698,0.637635752,-0.5475630458,-1.0376583698,-0.454238352,0.6755931937,0.4748460907,-0.7895799263,0.8898375974,-0.3954350826,-0.9830626906,-0.4871895206,-0.7491588642,-0.1570956096,-0.7982789529,-0.0537342764,-0.6513108613,-0.011319858,0.9285076692,-0.3808512584,-0.1672422651,0.3287662815,-0.1931345149,0.5926079975,0.8771399504,-0.1820831211,-0.8141518387,-0.1732842204,0.2291752516,0.525666777,-0.3259832215,0.7770942333,-0.8266151133,0.345411762,-0.5656673183,-0.2145005549,-0.1614220206,0.6158112861,-0.2960709744,-0.9852869699,0.1518822147,0.1153534558,0.9201100582,-0.220620161,0.687774594,0.9600470083,0.4289166796,-0.9717223734,0.915195418,-0.0388032459,0.4784517082,-0.0518192333,-0.7338869934,-0.3439039235,0.0021130757,-0.3684547432,0.7429555433,0.9856799047,0.5578543154,-0.9928965925,0.916904685,-0.4972363958,0.152774105,0.690907905,-0.2024561158,-0.1195820035,-0.8467342725,0.8806223715,-0.6834653084,0.9758234823,0.1294037717,-0.7996942575,0.2532343418,0.0735742778,-0.1543300041,0.6180442983,0.897570672,0.8022323506,0.9168372003,-0.7674272455,-0.3126688601,0.698659792,0.0454463856,0.298597704,0.6781249996,-0.3927938063,0.9731581448,-0.0433094185,-0.2444994208,-0.796664418,0.0434391312,-0.8073881148,0.190449429,0.4103766216,0.4749757906,-0.3515106988,0.7923430504,0.6074005497,0.7252688421,-0.4418635481,-0.0330499451,0.1079127079,0.9510661907,-0.3677518205,-0.2101519629,0.8177495746,-0.0839031227,0.8518678884,-0.3648251987,-0.2313919927,-0.2603746211,0.8090562648,0.3078392745,-0.7227933243,-0.8081873099,-0.4790941969,0.7327529023,-0.5405129269,-0.8270939714,0.1960672939,-0.6698699474,0.7101952318,0.2499618968,-0.2400217847,0.4615581358,0.7946576255,-0.5037936634,-0.8543782469,-0.7531342536,0.42218827,-0.7183959232,-0.365729614,-0.0776994178,-0.4999858387,-0.8042140443,-0.9388489858,-0.1204337747,-0.1172568472,0.5357799596,0.2302495969,-0.9118656665,-0.4375515627,0.5692131486,-0.3908500011,0.8560272132,-0.9899215072,1.006863509,0.8788107697,-0.4936469131,-0.1390326219,0.1938167224,0.196072289,0.2414294231,0.6806477338,-0.2540736035,-0.4579099367,-0.4189411058,-0.052277063,0.7363062135,-0.4865666002,-0.2521665003,0.1249310254,0.0363514399,0.352596804,-0.8489460264,-0.0563294055,-0.9212515157,-0.4848646783,0.4420700663,-0.4379798352,-0.2632630533,-0.3645690979,-0.7580313783
   -0.7136810601,0.607441649,-0.27326464,0.2523057732,-0.1139774911,0.3292801167,0.5342463198,-0.5709963633,-0.7468492059,0.6776444923,0.6755832905,0.6219738103,0.3744564682,-0.1361663092,0.066903531,0.8082306981,0.3783034742,0.5063953703,0.3743659792,-0.2021295393,-0.3801828027,0.6189730704,-0.3417913924,0.4346216637,-0.1119457013,0.2720646004,0.4851974271,0.1413830938,0.6258293718,-0.8193732712,0.5035566104,0.7589236044,-0.4208708249,0.6403488081,0.5201167661,0.095616347,1.0099027506,-0.0245220706,-0.6971127103,0.751099338,-0.0384605646,0.7983753383,-0.4403094723,0.0612612357,-0.782839534,-0.0730628865,0.5942942045,0.8123258903,0.5257620078,-0.3262590236,0.4829512007,-0.6742599744,0.3262843515,0.095506308,0.5445254011,0.4395385234,-0.7028663935,-0.0098996954,-0.1479852625,0.8215437953,0.5761841267,0.0714272749,-0.7840055814,0.2811586907,0.8391714242,0.2025158563,-0.1370924357,0.108462747,0.172385095,-0.9336189393,0.1008978086,0.5955525014,0.6251175661,0.7272397291,0.8038429666,0.3594886783,0.6306347281,0.9649373383,0.6945773674,0.2666890023,-0.9730900873,-0.2963546059,0.1804817208,-0.1461241144,-0.0584119627,-0.3227143469,0.0056763878,-0.2024431033,0.6575676784,-0.8887985043,-0.6875335358,0.1413224163,0.8213513991,-0.552743947,0.8965922687,0.8100659504,-0.5152450011,0.6185563656,-0.0991877562,-0.2534486831,0.6844699334,0.82438571,-0.2525442047,0.1245962409,-0.4301276403,0.6359236024,0.3280852313,-0.9729026471,-0.3392554231,0.1947577951,-1.0685607522,-0.1591080907,0.0418317761,-0.9982002684,-0.6365533705,0.8988524808,-0.5073530627,0.5104696409,0.8518219236,-1.2270477177,0.6252078886,0.3260357355,-0.6585343267,-0.2274060427,-0.346533784,-0.824161719,0.1476294054,-0.4268514263,0.1709657726,0.495901405,0.7039213331,0.5827377487,-0.6490680846,0.68480848,0.9770698075,0.8932965982,0.9173974088,-0.7732299321,0.5012968731,-1.0052523683,0.8958230548,-0.1365095801,-0.4329144764,0.6138104656,0.7098454042,0.6484818558,0.010915293,-0.4716540792,-0.8732840878,-0.7591064551,0.2200313898,0.4994751095,0.7241552428,-0.3424826576,-0.1544484726,0.0829892559,-0.6029649464,-0.6573850102,0.9995207537,-0.4577970631,-0.1831740356,-0.3597636999,0.6728003056,-0.0743054141,0.2078992586,-0.8797018863,-0.0603293581,0.3576231307,-0.7607077623,0.1403165897,0.8663357142,-0.5393645517,0.7402289689,-0.1202504737,0.8164642545,0.4221831467,0.9281013466,-0.8989876912,0.4077974327,0.905396754,-0.9785536748,-0.7557639137,-0.7071857726,0.9560804844,0.1303833881,0.9018277615,-0.3343548047,-0.6776511519,0.2178017674,-0.8139012562,0.8750135575,0.4577252347,0.4744787372,0.1934433496,0.4137806712,-0.6176586591,-0.4379676896,0.111410748,0.8863559632,0.6664299378,0.7582503564,-0.0257973951,0.6372613542,-0.902809746,0.1062495886,0.5728986855,0.9459167141,0.7632709641,0.4990517615,-0.5182588658,-0.470038934,-0.2812750556,-0.9061869246,-0.3433759169,0.7703153795,-0.8404452447,-0.0034273824,0.5234946196,0.8324145926,-0.080082038,0.9241208912,0.7359679334,0.545961164,-0.296199481,0.3470885933,-0.8918370211,-0.1891882826,-0.3276960599,0.6249498492,-0.5048570729,0.5151490911,-0.4555194798,-0.0362006815,-0.3659544868,-0.4406542658,0.3057754569,0.2178445075,-0.0550619052,-0.6785057236,-0.7969291354,-0.5972557432,0.6988495092,-0.9514667592,0.5279189729,0.5071255033,0.5123021052,-0.6306518542,0.5439611384,0.5080494274,-0.4932597271,-0.8551008881,0.3707247537,-0.8472950546,-0.0926638632,0.7422268546,0.7742704814,-0.1127282372,-0.6237711512,0.480517727,-0.8922393524,0.6694161041,-0.7057481184,-0.3180344755,0.3573506483,0.9435536117,0.0782256511,-0.4378439891,-0.3916297528,0.3840475179,-0.0270011232,0.0790673875,-0.7255484868,-0.0778756635,-0.2478232861,0.7633869452,-0.1959274111,0.4826050465,-0.2028000978,-0.3161580759,0.6688810814,0.003157266,0.7986017607,0.2934212434,-0.8729957148,0.0520361541,0.8104956813,0.193487254,-0.843227379,-0.9677629633,0.1180362785,0.1642441254,0.3465189187,0.8984410331,-0.4996905486,-1.0381528397,0.6418343365,-0.0802849841,0.4366884501,0.2591146497,-0.5681218855,-0.1994361104,0.6693344481,-0.5763081437,0.3790048985,0.2792600627,0.4703713886,0.8850299978,0.7802604034,0.6881374588,0.983772211,0.6605922265,-0.4324090538,-0.1152686694,0.2266089446,-0.9572537133,0.6236777866,0.7497831306,-0.0200628613,0.7662704719,-0.4437438398,0.758559477,0.0437845681,-0.1367772811,-0.3494510983,0.1136603176,-0.8835114948,0.3585953695,-0.7410259677,-0.8539843146,0.2902922612,0.9942174761,-0.8269065553,0.069525661,0.4716596369,0.6699845046,0.0370347345,-0.5870721099,-0.4707315098,0.0927879867,-0.4488918074,0.3968796174,-0.1437482856,0.6186609028,0.0963927509,-0.7686445114,0.0544412882,0.1466330793,-0.0343402568,-0.9084265403,0.4121342797,0.2580866945,0.6603506287,-0.7814407833,0.2861831189,-0.3937257306,0.7235695535,-0.6464392231,-0.7964870538,-0.6649432367,0.2061806955,-0.7826163249,0.5611639045,0.4127095417,0.8850779203,0.1246982832,0.8650869208,-0.9557946799,-0.367748689,-0.2760413394,-0.9873599207,-0.0441060888,0.9274563904,0.8686688605,0.3902148958,-0.0456099231,-0.8039933178,-0.9465302803,0.3526435048,-0.9231111099,-0.3741641241,-0.1775481215,-0.0122418562,0.1677787556,-0.1445334365,0.0643201701,0.4010096398,0.1692917556,-1.0193815986,-0.4856532516,-0.748675205,-0.6393853446,0.1966352904,0.0764520729,-0.4602102707,0.9655675118,-0.8473169545,-1.0050515438,0.2416497337,0.4557222514,0.8293252647,0.8294483668,-0.0946004093,0.6852471778,0.9533736796,-0.0905001487,-0.1630871503,-0.0258319694,-0.1203423919,0.6084010468,-0.3316359681,0.1851580781,-0.176198068,0.1158167441,0.6272484091,-0.2102157794,0.2900077779,0.1313870663,0.9440372838,-0.1748654478,-0.2156326494,0.0612150861,-0.7778770106,-0.2928404231,0.328376297,0.5421808363,-0.2831427638,0.9644438236,-0.4120623063,0.6881195531,0.1852839198,0.2423662779,0.6241807086,-0.4878616171,0.3427695931,0.8102405742,-0.3242391584,-0.6310132148,0.09096209,-0.0283013303,-0.8076302221,-0.7788898088,0.5478333385,0.1452541114,0.412959883,0.0025781114,-0.5938586092,0.6783365696,0.8592095217,0.1648604219,0.4239004256,0.9028269409,-0.1266491599,0.7049244219,0.6498926197,-0.3070005624,-0.3878128897,-0.5398923365,-0.0671443802,0.6655196958,0.7141492322,0.787806482,0.0048336569,-0.3144588151,0.113998998,0.4889741095,-1.0086639694,0.4915561733,-0.8619961856,-0.9903806928,0.5819006097,-1.1321526821,0.202539325,-0.4044494892,-0.4650930759,0.8375875454,-0.475727852,-0.7334937734,0.0681065898,-0.2105793057,0.6244968295,-1.0065275024,-1.0675337717,-0.3329912667,-0.2732349225,-0.237851901,-0.9191358464,-0.6011555018,-0.3600668028,-0.2729155715,-0.609748041,-0.6733328529,-0.4104235396,0.122398172,-0.1268195256,-0.8272276221,-0.8829835222,0.4323878554,-0.0719733751,-0.2847746898,0.4822114253,-0.9159112419,0.4449900378,0.5665195389,0.1576217791,-0.7976981637,0.2203872619,-0.2984563927,0.0286346071,0.5885298806,-0.1603576583,0.3843541349,0.60214322,-0.5290393069,-0.0992141771,-0.5708595814,-0.9426798814,0.4914182879,0.0445690272,0.361936203,0.9165257297,0.3634994837,-0.2779155163,0.8763859301,0.3272018724,0.0554150123,-0.8753210907,0.5181117443,-0.4710959267,0.4683597746,-0.6602405117,0.9461434631,0.934111581,0.2128230808,0.3675850023,-0.3929500346,0.9445302363,0.0618592103,0.0599388226,-0.5804027872,-0.0672534904,-0.2251393076,-0.6292766571,0.9909031048,-0.1862517357,0.892515338,-0.3906656909,0.2145173276,0.4313314805,0.590314207,0.7209744166,0.330697254,0.8250804866,0.6892872354,-0.8852638371,0.1363149032,-0.3143034287,0.4957293936,-0.4671220124,0.656612585,0.7628882266,0.1919511065,0.8211385076,0.452072163,-0.9423575426,0.7212611316,-0.0030640937,0.6201952766,0.5821688554,-0.3035542428,-0.0270990596,-0.9378495654,0.0852529114,0.4513183196,-0.4577794237,0.1152358545,-0.7902086542,0.7269611409,-0.966892449,0.4728728985,0.1882352509,0.0356381393,0.5420123743,-0.6844098942,-0.2492555635,-0.2249666635,-0.5533060857,-0.2546304276,-0.9745160052,-0.4827363522,0.5627704828,-0.8017055688,-0.588912604,0.7346763843,-0.1936075795,0.6818205143,0.2095267775,0.6050348757,0.2279421676,-0.774488497,-0.5906947978,0.5604868537,-0.2431324773,-0.58863949,-0.074332834,0.8620059592,-0.7723441883,-0.5654280183,-0.8870853481,-0.5949780082,0.0749891117,0.8527821316,-0.3099054734,0.8813265703,0.354135994,0.5267717695,-0.1063439478,0.7650534126,0.5980115781,0.4718771751,-0.2940608569,-0.7500304043,-0.3950158221,-0.24953881,-0.32044322,-0.8423868706,0.3223914684,0.3112850939,0.02452009,0.024691188,-0.1284355417,0.9558523535,-0.2914530139,0.3691901167,-0.7575754829,-0.939432784,0.7991117117,0.9980664763,-0.6978225444,0.5951229935,-0.1226958796,-0.7573688576,0.5428728344,-0.0884901298,0.3550341284,-0.7118907084,-1.0002360152,-0.3128389677,0.0166574796,0.7344263694,0.4210118099,0.7529579779,-1.2897875044,-0.179466818,-0.5984160693,-0.083187108,0.0453083019,0.6220435136,0.2147613657,-0.0352810394,-0.5329589224,-0.9501675214,-0.1704626787,-0.952281476,-0.0433854083,0.7506973265,0.3435843928,0.6222908659,0.6854410728,0.9150499317,0.4347440014,0.2978016484,-0.8717548597,-0.2703548955,-0.2727579504,-0.1342230467,-0.8266701845,-0.6220150386,-0.9265787017,0.3297936517,0.2662072881,0.7664069247,-0.721507559,0.0126405303,0.687558848,-0.7875557609,-0.8849486418,0.0469033765,-0.4077283284,-0.7949796162,-0.2828140064,0.7988747587,0.4317510113,0.5813851144,0.9567219117,0.1627538698,-0.2852972346,0.9832353458,-0.1455043085,0.0350074662,0.6836687526,0.0278387303,0.7844016098,0.6228229323,-0.8105856474,0.0927200965,0.1098518666,0.7338284469,0.0778828739,0.2732406343,0.367438301,0.3441985556,-0.321857132,0.980810256,0.622106086,-0.6876835832,0.1836643437,0.2443467169,-0.6975028078,0.3075553629,-0.2410193559,0.1537637109,-0.3946745927,-0.9583839413,-0.742887792,-0.8668606628,0.8598787684,-0.4577255352,0.3302987619,0.4148740474,0.3971757806,0.7589578405,0.0925118758,0.3067141366,0.0382365128,-0.985641903,-0.6840008392,0.6904208522,0.4562732873,0.3574955887,0.5492413521,-0.6951017491,-0.6737414168,0.7699083457,-0.9090983757,0.1899937225,0.7567783069,0.8703342788,0.8990294191,0.043554583,-0.3462452796,-0.0041090396,-0.9458019782,0.4472578328,0.3999718349,0.7851931894,0.2575665374,0.4864567305,-0.9128410529,-0.745911239,-0.923471697,0.9924595325,-0.3852887069,-0.404374647,0.4465176492,0.8996919629,-0.8762012892,0.1620222172,-0.1163634539,-0.2959128162,0.6816578741,0.1316446407,0.0093388437,-0.2297079784,-0.4533084034,-0.3446786209,0.8412209854,0.6465235187,-0.4885636463,0.4062498802,0.2013195078,-0.2213593734,-0.2982355052,-0.1808437373,0.0719622924,0.2323932807,0.0471306509,-0.3931259243,0.9924303449,-0.2071993316,0.4998380119,0.008542071,0.4088093895,0.8345764098,-0.6219736568,0.2035849733,-0.9187251303,-0.9707222257,0.9623186731,0.7645682573,-0.5837788331,-0.6963395021,0.720244072,-0.0826349117,-0.119949651,0.7314854122,-0.7077173601,-0.0936522884,-0.6603510781,0.548269308,0.8559459772,-0.4598362624,-0.4800811085,0.5422693878,-0.2352076927,0.3749370752,-0.7789562989,-0.2975220353,0.4596183557,-0.7663786143,0.8512222946,0.2159117451,0.2765488153,0.4367273635,0.712223177,0.1995815894,-0.3406977142,0.1747821003,-0.5737523021,-0.2207643753,0.4754823359,-0.5146529082,0.2888713016,-0.4718334312,0.4886950023,-0.7473414925,-0.4204131632,-0.5750218952,-0.328471678,0.1809239952,-0.9440849715,-0.0784643412,0.649030489,-0.0156348872,-0.3377901593,-0.4010440177,0.9621239149,0.3995615888,0.9233172492,0.6516504945,-0.4924281771,-0.1635461662,-0.024340784,-0.3153584684,0.7536967739,0.6358222339,0.8496471815,-0.7619740503,1.0980266549,0.3587114628,-0.6419119704,-0.2129931087,0.1469144272,-0.8136684347,-0.0677206975,-0.5869753524,0.9018085324,0.4058855871,0.0994938058,1.0147198748,-0.6680817112,-0.7573873654,-0.7642156495,0.1356214022,-0.1033524452,-0.2379693988,-0.3881402529,-0.5468511804,0.2601186527,-0.3059036363,-0.9078357213,0.3531514228,0.3634745749,-0.5178846467,0.1312572721,0.3033721311,0.8915073878,0.9066837367,0.7020297864,-0.2813584368,0.5650790456,0.0963506205,1.1723560216,0.7218564992,0.792909031,0.4441503315,-0.0691813093,0.0118896058,0.6224589824,-0.6152140546,-0.4506795892,0.0120720908,-0.5003150899,-0.67747618,-0.1494949396,-0.6075191214,0.4445109322,0.4915209692,-0.9328404584,0.2194954818,0.4380437984,-0.148706344,0.0280248341,0.646596321,-0.1502702494,-0.079219793,-0.9023709555,-0.5734276116,0.8225853044,-0.3055453056,-0.9196826293,0.1281182608,0.5044074374,-0.4266883471,0.0654914591,0.3254744342,-0.3014209346,-0.0403159125,0.3793512605,-0.4936924494,-0.1902919212,0.8386546895,-0.6664393443,-0.3460738446,-0.1261993154,0.7095899059,0.1531664718,0.1495619463,-0.8411528255,-0.8420189817,1.0079453895,0.7339688217,0.2071639687,-0.1050189365,-0.4779566518,0.078321754,-0.2985538571,-0.3655024493,0.0889891787,-0.9202768373,-0.7281592891,0.5127446153,0.3724195818,-0.5494423955,0.4324239919,-0.9609940623,0.4405274774,0.6729420192,-0.3992630344,0.9185640842,-0.5264177186,0.88396158,0.2173523186,-0.0925390265,0.7699302383,-0.2475064184,-0.8914977417,0.8370224118,0.4647780647,-0.6766049928,-0.2023859989,0.249456374,0.5983525395,0.9307447143,0.3108026924,-0.6549120076,-0.1791278036,0.0441403093,-0.3462952633,-0.8910685529,0.3200041468,-0.8394237247,0.9755822022,0.8492511239,0.7488530567,0.6709791265,0.1924816491,-0.781985715,-0.883484862,-0.2482425934,0.9583771821,-0.8434534296,-0.5003387622,-0.8269639325,-0.35336757,0.4697471811,-0.8943437833,0.3052541232,-0.0482273374,-0.7759495575,-0.9960585677,-0.1374330072,0.1013872242,0.1335554592,-0.8544776954,0.857014472,-0.5870514765,-0.3491352758,-0.7605652709,-0.5869730515,-0.5598254531,0.8271678343,-0.972124489,-0.3166892817,1.0441944533,0.1672577749,0.5344136574,0.7767773259,-0.5461879923,0.5201353103,-0.6590658046,-0.4917973718,0.9008310316,-0.1041357063,0.6496926184,-0.5189488489,-0.2490485339,0.491525438,-0.4780840642,-0.7034172203,0.9741821502,0.1373077858,-0.5640957394,-0.414986536,0.9150630741,-0.0385871116,0.6131851003,-0.775599681,0.6235980926,-0.7511419944,-0.6106263456,-0.5784778596,-0.1358453278,0.4496754819,0.8134059766,-0.1250006129,0.8324455457,-0.1540018283,-0.9283036942,0.026446268,-0.6792697796,-0.6867758372,0.8840259464,0.3552948984,-0.9022254066,-0.5030471795,0.8797888211,0.2052057684,-0.4213989322,-0.7308943307,-0.9960811312,0.2364639934,0.708321676,0.8990499715,-0.2523332741,0.733233845,-0.3899464474,-0.1636484303,-0.2770204583,0.3670138998,0.1713938248,-0.3219779544,0.945555182,-0.0263491009,0.3198939442,-0.2526048608,0.0629296362,0.4671888102,-0.4065560267,0.4125780595,0.3096749579,-0.2703998713,0.1642384904,0.5670312999,-0.1596321445,-0.7013554097,0.5490234183,0.706028497,0.1196951634,-0.3267540634,0.7461794673,0.8035044043,0.7746274343,0.2458028373,-0.2233963422,-0.9483762516,-0.8890055923,0.7106647237,-0.6124385019,-0.0690156259,-0.5526286713,0.3488208048,0.2741109264,0.9591642018,0.3276737592,-0.4925740193,0.7754638146,0.489846104,0.6971863842,0.7750505125,-0.4687773475,0.9354770078,-0.4367752251,0.5922923344,-0.9098874127,0.0142085217,0.2652506655,0.5701783545,-0.8708045785,0.3697435149,-0.2665161249,0.5976945056,-0.0374034794,0.8079539773,-0.2453596553,0.7474974917,-0.0860584695,-0.3176521324,0.3300044631,0.0377763466,0.5535135045,0.2958503329,-0.4457852061,0.3546522633,0.2412994635,0.264618683,0.8833059806,-0.5976209046,-0.5990982895,0.7214659414,0.4433295751,0.3689375914,-0.0677623577,0.4371740552,0.9501498219,-0.8864574583,0.567390999,-0.2182308175,0.0067128558,-0.3029158637,0.2670588017,-0.4867535942,0.3843557032,-0.3726562952,-0.4285228343,-0.6204490148,-0.3047722854,-0.7321379149,0.0055578631,-0.1882127615,0.2015718912,-0.6739756188,-0.5868340229,0.9778244461,-0.1493232079,0.0289918761,-0.630165564,0.53228255,0.8544057207,0.620709181,0.5234556051,0.7645102012,-0.8788558963,0.7529615985,0.0518123489,-0.0701350082,-0.0564119425,-0.2057483812,0.8761799397,-0.0970197486,0.8267753219,0.2899450139,-0.7876197269,-0.8307238302,-0.6240368909,-0.7990392891,-0.1821278159,0.6036781554,0.443570899,-0.7043754627,-0.5432169352,0.4606408813,-0.4774283078,-0.9134163709,0.2535054483,-0.1090675126,0.1391124447,0.9026989522,0.9529268133,0.8741742039,-0.7848676665,-0.3046471109,0.4559608061,0.2708975657,0.487113631,-0.4855882054,-1.1702488418,0.5108774343,-0.2118678298,-0.754896775,0.3243465033,-0.69400918,-0.3029010389,0.9649589737,0.284438887,-0.7329149937,-0.4456522797,-0.9397277573,-0.6978203942,-0.2470061924,0.8818830309,-0.1309499636,0.27623829,0.9916254447,0.559548963,-0.9306714295,-0.9629175984,-0.9407653386,-0.1420181829,-0.8204879376,0.99552967,0.0720500051,0.9971233348,-0.6095842087,0.996334077,-0.9753228391,-0.3285152056,-0.5324911786,0.860155605,-0.6874643796,0.7646709418,-0.4249257981,0.0904522091,-0.7778728794,0.4216821902,0.3251185362,0.8620468881,0.3907036636,-0.4856944719,0.4013141619,0.4532506226,-0.3716404607,-0.0602771677,0.5696613585,0.8404436525,0.6876301999,0.2599235066,-0.304341095,0.2302452604,0.131401984,-0.3373796386,0.0182962063,0.4092363371,-0.5186052288,-0.2734669206,0.0843306351,0.6242695657,0.7404491582,0.5746619498,-0.3977679044,0.8354267703,0.5420833287,0.2849398945,-0.1591569763,-0.9168811485,-0.1587086247,-0.6943294227,-0.637197083,-0.5781201604,-0.573249037,-0.1568970644,-0.0593379798,-0.1863599275,-0.8638945045,0.0926413692,0.4878660395,0.1173344607,0.0439646731,-0.1103487845,0.6535741517,-0.3095319029,-0.6049288474,0.6550977869,1.4040702201,-0.4776531216,0.1307003703,-0.5742802882,0.9452858286,-0.0472077599,0.8401563206,0.4546147046,0.3396965359,0.7549242228,-0.2954356139,-0.7464183937,-0.5493837151,0.6395586879,0.0848201495,0.458958072,0.9342276792,-0.4287306127,0.7530586042,-0.3602319324,-0.4330746743,0.2688981009,-0.3607222297,-0.767949197,0.2613567073,0.3410772011,-0.4627142196,0.4774158961,-0.1943795961,-0.0083985051,0.2208306399,0.9719599606,0.8518032582,0.0246207416,0.2071783152,-0.8760801221,-0.1916888475,-0.4228696696,0.6239494609,-0.5556992224,0.6729513951,0.1459417397,-0.877853238,0.7776640712,0.3118894347,-0.626165068,-0.27647397,-0.0486815911,-0.0987571783,0.8814134412,0.7103258876,0.0168470181,-0.8571982967,0.2146600034,0.4939513636,-0.4236959257,0.949870422,0.8870118188,-0.4945503251,-0.8753800463,-0.7380843693,-0.2083503754,0.0037446015,0.7474494988,0.615037704,-0.4540181395,0.0830935158,-0.055883391,0.5424846389,0.0908854306,-0.5850141778,-0.3433391433,0.9545942113,0.7259302078,-0.7955406374,-0.0713723961,0.2420075865,-0.1174061539,-0.0030183334,0.0136314146,-0.8766219674,0.9649495006,-0.3802156747,0.2165640127,0.5061450209,0.4740404843,-0.9361643816,-0.8273477188,-0.6219504518,-0.6223819332,0.277952388,-0.9678573892,0.6196925788,-0.3412345872,0.2296128306,0.0543113164,-0.9652143167,-0.3627455459,0.1184655037,-0.0268681258,0.4142580005,-0.9364279671,-0.2781079843,-0.3010386455,0.4819452755,0.4284646912,0.6191765378,0.469514985,-0.9552525162,0.6003480453,0.6603024408,-0.1065114516,-0.8000082534,0.4052415111,0.6843148595,-0.3696280705,0.6085285802,0.8263306149,0.0401211633,-0.8081081462,-0.8124922537,-0.5083019707,-1.0366028456,0.5765911754,0.8413274397,0.9375255038,-0.6934600197,0.6007452222,-0.1181591755,-0.9260120396,0.0609706892,1.0041382941,-0.265852415,-0.5903009801,0.6379030993,-0.8870540723,0.6966312094,-0.3902805586,0.6718349206,0.4657676815,0.8677605011,-0.1911682068,0.6825406989,-0.697351331,0.3462674461,0.7963623941,0.7915871864,0.9491034311,-0.4885069261,-0.9832632199,-0.7130533018,-0.0845151588,-0.4142961879,-0.1377976353,0.6710073251,0.6257711515,0.740964644,-0.9024567223,-0.6990252111,-0.4819908816,0.8028571245,0.699318651,-0.3709679459,-0.3975585336,-0.7481292193,-0.6492061358,0.8422632864,-0.7985523406,0.0098036805,0.8092960844,-0.5053803292,0.981013298,-0.5661432289,0.2077687644,0.0448746862,0.0243710289,-0.942852501,0.7123286068,0.9079117421,-0.8909710823,-0.3771368797,-0.8082862794,-0.7232546228,-0.4916874981,-0.4298987411,0.5445457451,-0.7869965462,-0.822319022,-0.4449489821,0.3326484373,-0.1555319919,-0.767109034,0.6886528445,-0.8866504233,0.4250832143,0.3779548268,0.8965413893,0.560198035,-0.2591406731,-0.8815023724,-0.6177777372,0.6654194871,-0.6447476071,0.1876346467,0.9635419757,-0.3122399195,-0.5404799256,-0.9002342887,0.2520694721,0.8119103957,-0.506166744,0.2905052037,0.8161114615,0.3535787814,0.38647828,-0.4404926324,0.0611862233,0.2385491702,-0.9797248485,0.5424705959,-0.8256877193,0.327723794,0.5803896388,0.9678945777,0.5383204766,0.8612955414,0.8488686538,-0.9041459628,0.4346749244,0.7111013755,0.8170451665,0.0521636689,-0.2773427973,-0.1518861005,0.7381773865,0.258606728,-0.8109546687,-0.2796813178,0.665613355,-0.273827221,-0.892649156,-0.4790359582,0.9196670893,0.5912039644,0.9573685595,0.8475136719,0.1332922162,-0.7777462531,-0.0052405137,-0.3915278249,0.5484938982,0.8578024184,-0.5014709115,0.6617573316,0.6818101722,-0.1688721414,-0.6391672105,0.7493979289,-0.62164171,0.0328657617,0.2049773103,-0.5281359582,-0.5289502307,-0.7858864607,-0.4225964889,-0.9367643232,-0.0238621488,-0.638543896,0.1242745211,0.0120522039,-0.9563902889,-0.86853257,0.212724508,-0.2406659507,-0.3510857793,0.0244849496,0.0488626117,0.7931110797,0.5074967324,-0.3262022662,-0.9968763442,-0.2287765933,-0.9178017627,-0.6044840377,-0.8349024821,-0.2923922045,-0.44513893,-0.3473698503,0.1179500865,0.6001039108,0.916287284,0.3730544835,-0.7950671917,-0.398722651,0.9037511777,-0.8083602381,0.2989193574,0.0327327287,0.1436016597,0.1066583632,0.0993561855,-0.4293721801,-0.8734807137,0.3475855967,-0.7091080921,0.4819250744,-1.020371811,-0.3765086328,-0.7306638688,0.6485669148,0.4292933304,0.1244289815,0.9549486432,0.2513610326,0.5321402435,0.3173015153,-0.2673726523,-0.9506784864,-0.2768310855,-0.8401826924,0.7585723758,0.8467011505,0.625907514,-0.259838043,-0.2253869655,0.5738014557,0.7631988675,-0.656539638,0.1451675705,-0.9053448731,0.03133352,0.2466282357,-0.6152257905,0.2048928497,0.4850342668,-0.0527667508,0.3643150868,-0.7484936356,0.2974906838,0.2326412216,0.0598862465,0.3365664851,0.0987895972,-0.7006851423,0.3301494845,0.8186144962,-0.0995605418,0.202089492,-0.5958116338,0.5990627225,0.052338753,-0.2530966518,-0.5848739388,0.5347227414,0.0710264223,-0.6487512108,0.7284587576,0.0861496428,-0.5628352615,0.0157576049,-0.0283548792,-0.9638659458,0.5040185069,-0.9070188435,-0.7527166474,-0.7087960131,0.5856861436,-0.7004913431,0.8179698454,-0.5050246987,-0.5400662104,-0.7258679067,-0.0032493982,-0.1634153327,0.0989235768,0.989015006,0.3011396151,0.9585585988,-0.5840994619,0.009431389,-0.0668661953,0.8422548589,-0.2587070821,0.9195772406,0.8222595811,-0.3202359099,-0.4955312707,-0.2356937812,-0.3441095953,0.6202594762,0.0462807565,-0.8223503423,0.5191767904,-0.7343657781,-0.8356447543,-0.6836645964,-0.1621283852,-0.6874526317,0.6878396668,0.3770723602,-0.6623609091,0.6624748536,0.5283418478,-0.1676773807,0.8642884789,-0.3589694419,-0.3782634923,-0.8259589813,-0.8044053025,-0.0140900862,-0.6480194853,0.8106908189,-0.9956500197,0.263058079,0.0539942644,0.8845164738,-0.2839333155,-0.6318179915,-0.8876880426,0.1350833612,0.3397729486,0.9178644355,-0.1260961143,0.9174409439,0.44707488,-0.7206843465,0.8445787614,-0.0711336439,0.8726529924,0.7672237753,0.0271231213,-0.8099919818,0.7602907993,0.2306901771,0.1266667569,0.7871440069,0.334410127,0.2876829781,-0.0470418172,-0.1281108528,-0.1509249795,-0.118994812,-0.0994651434,-0.4575215465,0.4138743999,-1.0297326058,0.2241066674,-0.4874242514,0.8247176849,-0.7702240129,-0.8324429729,-0.577430694,0.5423969827,-0.8775505875,0.1212062666,-0.8922597456,0.3960514833,0.6006535482,0.2978566138,-0.0063830451,0.091803266,0.4501181254,0.5942901463,0.1298462633,-0.3773288907,0.9062806843,-0.6353965255,-0.3433486452,-0.3717673296,0.7580825131,0.9512640778,-0.8653025503,0.5073904163,0.4090527311,-0.7213997475,-0.4512318716,-0.4191001047,0.7425888565,-0.0697003799,0.043571611,0.4287981722,0.6923301775,-0.6883626649,-0.7997342801,0.2511226279,-0.3601817804,0.1178940132,0.5143459536,0.8935267992,0.3893329242,0.6695765473,-0.3251243662,-0.9231659293,-0.7564941877,0.4706265624,0.1233291379,0.860081309,-0.125364531,-0.8134957112,0.1671316669,-0.406784764,0.6918152076,0.4351226584,0.5423335038,0.9352510826,0.101911534,0.9341490042,-0.1732435291,0.2221492541,-0.1234308136,-0.040263336,-0.6899624374,0.6208542244,0.7976976926,0.6051770237,-0.5844576372,-0.6847983698,-0.3110266095,-0.6379640723,-0.0139397006,-0.3430929525,-0.9466115118,-0.7271116401,0.2598272998,0.3544402412,0.170406474,-0.4488320586,0.0670951668,0.7924850139,0.6300819826,0.6327671641,-0.747930582,0.4542363524,-0.0174939437,-0.1267191431,-0.9068467293,0.3433313159,0.5120005786,0.6966632256,-0.5463822549,0.2141981733,-0.9392176801,0.0430153235,0.7525977515,0.135124922,0.3614391264,-0.1023158213,-0.5026142775,-0.3974058766,0.1852495666,0.4047587157,-0.6544500093,-0.668880331,-0.9554673243,-0.6540647634,0.5601847725,0.1349358156,-0.8351919404,-0.3684105176,-0.4980595564,0.7147138694,0.2712940868,0.490349912,-0.5436331138,0.7429922579,0.6679613096,0.9507899139,0.1499543554,0.4536523778,0.7769011871,-0.7176732773,1.0899699865,-0.146078347,0.4121747682,0.0229120753,0.5732803317,0.2219956753,0.2569769295,0.0112331132,-0.0327486384,-0.611877038,-0.8923228501,-0.9714884989,0.2733642812,-0.8375463401,-0.6329376387,-0.3167148293,-0.8297010309,0.7281177008,0.35556321,0.4883836709,-0.0234295626,-0.1264084998,-0.2729108768,-0.4407013735,-0.659375894,0.6131208105,0.788180967,-0.4251823878,-0.5728929093,0.3945455902,-0.050753363,-0.5527607883,-0.7660829311,-0.5489153968,-0.0236222197,-0.245667606,-0.3495449064,0.2917669691,-0.4507677382,-0.2787340831,-0.6197982827,0.9475522715,0.4544531623,-0.921831465,-0.1903992921,0.5262982816,-0.884209924,-0.9574332725,0.5952298482,0.3900834588,-0.2074938608,-0.0074134176,-0.961770321,-0.3951217383,0.1055805642,0.7689078465,-0.5822652773,0.4506288099,0.3979634662,-0.5229044487,0.4477094181,-0.5202194496,-0.970086415,0.1505174554,0.4781855838,-0.724936546,-0.097332484,0.9518902704,-0.9210292126,-0.4618091179,-0.7200761264,-0.5935953269,0.7838992576,-0.2158877957,0.5775200868,0.8433079708,0.6679352793,0.2996483196,0.8501542566,-0.6123881083,-0.9289748067,-0.7109191569,0.0336252754,-0.9687575063,-0.5270741913,0.7331584102,-0.6406110773,0.2625324344,0.8066146567,-0.9712961738,0.6725261033,-0.6029417564,-0.9261966829,0.863427497,0.2587144744,0.6919578928,-0.6564469297,-0.9411321467,-0.8773106334,0.1833651082,0.0440598549,0.6205252795,0.0005021026,-0.7142603217,0.6337778463,0.2033969188,0.1116771758,0.9734040118,-0.115612854,0.434811492,-0.5494429396,-0.0804362695,-0.6530332823,-0.4127477534,0.2584495958,0.2969544514,-0.5669807527,-0.6828930688,0.4805751198,0.223890568,-0.7778463964,-0.8691717377,-0.9775215114,0.4506318428,0.4868409249,-0.7912927931,0.1063066298,-0.5993285397,-0.8175444694,-0.6997793621,0.9449902184,0.5039628881,-0.1306247813,0.0753713348,0.0794698179,0.0574003426,-0.8857930282,-0.8595959237,-0.8009659794,-0.2954768479,-0.3409072939,0.8714771153,0.9907699538,-0.9903229566,0.0797740368,0.08031586,-0.9688245184,0.7110373386,0.7968296226,-1.0589127292,-0.399340459,-0.2004965393,0.2549291896,-2.0800155388,-0.3354282419,-0.2336155488,-0.1615121248,0.6215889509,0.753494705,0.1775877766,0.8232287785,0.2138838941,0.579195513,0.7492049862,-0.306039197,0.2889898688,-0.6617275548,-0.7582330049,0.1239764788,-0.78846401,-0.8218531948,-0.8502540141,0.8559503662,-0.799268541,0.4116683836,-0.2293075436,-0.427295381,0.0800630399,-0.9122987089,-0.0281340643,0.6706803854,-0.7797170711,-0.9003351531,0.107231672,-0.3031815978
   -0.548495907,-0.089889275,-0.1307701494,0.0682575223,0.763164333,0.5647894346,0.1873451886,0.1054033754,0.0592871983,-0.5746416242,-0.9208266602,0.2808138937,0.8275627449,0.12215136,-0.453997072,-0.5327941025,-0.9744768717,-0.5328295842,-0.5678250805,0.3334757505,-0.9731551011,-0.7745045522,-0.6893040938,-0.3721220154,-0.5155686018,0.025530798,0.338465449,-0.0600588003,-0.4873544071,-0.7055825674,0.2012643577,-0.5632612229,0.8396884813,-0.9276209311,0.8537648498,0.0219168353,-0.7924121895,-0.05762767,0.5333953915,0.8620332635,0.6820643649,0.7752553038,-0.4603093003,0.6434610906,-0.6490138386,0.7734994898,0.1942386481,-0.9436493029,-0.8071852901,-0.6082867529,0.6518066717,0.5756787145,-0.0186676826,-0.255864423,0.7360428936,0.118090075,-0.8405535775,-0.8250109398,-0.0826220476,-0.8478406235,-0.3243458898,0.5859182781,-2.7796686674,-0.6788411547,-0.0870184969,0.5713049816,0.8333105421,0.9559360667,0.0343868536,-0.8335717736,-0.3307570818,0.8673833515,0.6340168394,-0.4755752153,0.9520449184,-0.3311612418,-0.368406384,-0.9896940947,-0.8913556586,0.3475519771,-0.1673203437,-0.5642388118,0.330919917,0.648326173,-0.6211293443,0.4757910031,0.5319376077,-1.1050548972,-0.1364762972,0.1808678666,-0.2647681907,0.6147602149,0.8295135535,-0.7746428791,0.7972559195,0.8713905867,0.5620918102,-0.6249475601,0.9374966112,0.3625626081,0.2600105005,-0.2818044322,1.0060942652,0.125898984,0.8221537966,-0.7907511734,-1.7865461484,0.0769896039,0.7908790756,-0.9992442776,0.0395181601,-0.4125507884,0.9802094375,0.6107136677,0.978744617,-0.1758990595,0.7361336653,0.9321481988,0.2071717655,-0.1426437412,0.45001262,-0.4637463972,-0.0819354327,-0.6509497692,-0.2809133912,0.0660546364,-0.766989126,0.8574287065,-0.0697250699,0.1095041798,0.5783147434,-0.0131678087,0.4520036298,-0.3257378548,0.3287992743,0.5073354629,-0.7540717017,-0.4461014301,-0.5431871836,-0.6782556932,0.8367829279,-1.3450742521,0.0342941612,0.2919836542,-0.4956447091,-0.3540393046,-0.6126845098,-0.1519576499,0.4556303519,-0.1416845225,0.7030157861,-0.4597088493,-0.861696887,-0.7825834322,-0.6433299975,0.3862746592,-0.6447966971,0.8493981305,-1.0813014146,-0.8546046012,-0.4186270692,-0.6858800007,0.5557945456,-0.8381600105,-0.673842415,-0.5471627325,-0.1999792343,-0.0247413222,-0.4049058734,-0.0308023881,0.464188927,0.3291770863,-0.7962288801,-0.3354166958,0.0955704609,0.2867631382,-0.9254452172,-0.0497274818,0.7407886939,-0.358371758,-0.8520135692,-0.9019968031,-0.866029474,0.280519029,-0.4247142862,0.6982546169,-0.7629301147,0.5932977545,0.3896793547,-0.0186891779,0.4378464849,-0.1889850444,-0.9083153395,0.368441138,0.0241290526,0.4068196074,-0.5151056021,-0.5242040652,-0.3367741278,0.4551552154,-0.4627822815,-0.1496035276,-0.476528043,0.0190918478,0.2010701942,-0.800532619,0.8107608407,-0.5067496142,-0.385304607,0.6923804174,0.1678460909,0.0802281478,-0.5263257726,-0.3513421326,-0.0403326611,-0.0129750168,-0.5463761994,-0.6332887311,0.7469126221,0.9697828043,-0.5357353144,0.0049576942,-0.4765612732,0.551766857,0.3134829147,0.7446489501,0.095808684,0.7584015513,-0.3386063381,0.1654428347,0.0463425825,-0.1332333862,0.3679495542,0.6619719168,-0.2482304398,-0.6894809395,0.6024582508,0.737007597,0.3379910152,-0.163352944,0.4718000138,-0.436496104,0.8822035056,-1.0313236134,0.1403652328,-0.9198257262,-0.5822765223,0.5816840137,-0.2395260878,-0.0308871962,-0.3324671559,-0.5703465297,-1.0391653809,-1.0691847017,0.5985955407,-0.1390353469,-0.1576452268,0.3147733177,0.3357694364,-1.0759038565,0.6051611723,-1.1258837483,-1.1358391039,0.5235273903,0.1674529789,0.4433144881,0.5037455008,-0.0714940215,0.0080757795,-0.9783025435,0.6606520643,0.2961252843,0.0252624785,-0.4787857657,0.7806216776,0.0384473342,0.0599607407,0.1792624528,-0.9224109171,-0.8091483055,-0.9744948404,0.0019186463,-0.0904577665,0.6366086295,-0.7818066566,0.4628280579,-0.0695242273,-0.8648568315,-0.8359551536,-0.4196234172,-0.6415010595,-0.3203208185,0.1654191419,0.1498391729,-1.0415552179,-0.6151116428,-0.8444043653,-1.1630724365,0.6591662177,0.5987716292,0.3614037009,-1.279123343,0.5568647915,0.0845503107,-0.8375902448,-0.9651911222,-0.2401627365,-0.2390123469,-0.2433589578,0.6359120095,-0.679975591,0.2178322664,-0.494915204,0.4854315654,-1.0098880823,-0.2740604962,-1.2381536861,-0.9607676617,0.2169378043,-0.7938026866,-0.3870516525,0.2964899557,-0.8222716127,-0.9811844094,-0.1025047248,-0.1187955653,0.5583359086,0.0593427243,-0.9426318512,0.194543716,1.9118940779,0.280381756,0.1690060765,-0.2780377318,0.0382536996,-0.3337986555,-1.10302378,-0.882111902,-0.5957325244,-0.364772694,0.6183790567,0.5789711571,0.5086844647,-1.1008917033,0.4220371292,0.6117980209,-1.1130815325,-0.6184515686,-0.7906659753,-1.1247038594,0.526552017,0.2506818686,-0.3273472237,-0.9302445386,-0.8916602052,-0.5247201485,-0.4530012192,0.3096068493,0.657342025,0.1698966687,0.3666728411,-0.1509599569,0.3744152477,-0.1149035944,0.4194270641,0.0285308312,-0.0581570335,-0.975039312,-0.4820555677,-0.9272548754,-0.1673912874,0.2783882931,-0.0150236964,0.2196766974,-0.2253171981,-0.9955863736,-0.5543225902,-0.3382318881,-0.4119506174,0.2604018733,-0.2487851412,0.2109632146,-0.1467374296,-0.1809402492,-0.1706106172,-0.5515954321,-0.175899855,-0.8905739947,0.6072993395,-1.1236745674,0.3589006316,-0.3999642966,-0.3065630394,-0.9003397203,0.0463067897,0.2263015494,0.6347833545,-0.0858515251,-0.6476125857,-0.1502240684,-0.5933802474,0.1516132979,0.3216982351,0.5492751141,-0.4792937368,-0.3613993724,-0.0431066314,0.5001025054,0.7280285286,-1.147097019,-0.9258328373,-0.8785756913,0.0020411756,0.3635164277,-0.8805363967,-0.0938819568,0.5762293272,0.4791992795,-0.9053955499,0.6933707436,0.4530642006,-1.0467906197,0.2524575376,-0.0340402434,-0.1214502487,-0.9247152186,-0.5809413727,-0.125396223,0.2994499475,-0.8390440667,-0.0399421358,-0.8513105052,-0.7292956611,-0.0584317588,-0.4725788488,0.4938089602,0.6947916165,0.3514769043,0.276075236,-0.6012061344,0.3401079763,0.6582482454,-0.5196275065,-0.3016517044,0.9488988778,-0.921323144,-0.3047704709,-0.1654971661,-0.5560277208,-0.4029500903,0.8217363261,0.2128741272,0.4069057343,-0.8803998615,0.1405899054,0.5546153218,0.9757257641,0.9863602218,-0.4567112148,-0.6530209674,-0.8376712042,0.4147361913,0.9715825298,-0.8578901559,0.2897266332,-0.2276609623,-0.3383609453,-0.029430347,1.977651509,-0.4125402799,-0.3499078328,0.6566617304,0.8133675207,-0.066515518,-0.9164822053,0.4176198162,-0.3457314034,-0.3464342589,-0.3690674434,-0.3876301615,0.6855049077,0.0776451503,-0.2629988223,0.1802681941,0.9257727772,0.0898772975,0.2520585772,0.0005337789,-0.9182278577,-0.3968063897,-0.4947188676,0.7706800212,0.8171884987,1.2882865923,0.9307231619,-0.7212718397,0.5135727067,0.1254680823,0.2406525812,0.7805321841,0.6398710383,0.5121124756,1.0302323884,0.9119440606,-0.9478704268,-0.162037321,-0.1951409649,0.4734572723,0.5254675016,-0.1776304416,-0.2699931441,0.8166059593,-0.0701862888,-0.6272174275,-0.1335178712,-0.8175217062,-0.353820131,0.1699205242,0.4360518095,-0.9408419847,-0.7532966277,-0.1516265965,0.3048887316,0.2696298512,0.158257918,-0.5706249556,0.3479094483,-0.1518227128,0.0138809068,0.9135276843,0.8076726996,0.2690483455,-0.8835598791,-0.0903648963,0.6819810382,0.8436945786,0.4223335624,0.2991079088,-0.8062913515,-0.7443165864,0.5852479631,0.3801456239,0.6118417822,0.3256633384,-0.4770514878,0.8640132394,0.7575836681,0.4652159471,-0.3665742171,0.1140507141,-0.727742898,0.0634000659,-0.6929551688,-0.5279753367,-0.4454515469,-0.8317146647,0.3545774084,0.7669992965,-0.1806929861,-0.8526677757,0.7860573515,-0.4392135845,0.9095744097,-0.3009360926,-0.6604919543,0.5769026052,-0.7098635609,0.3735189371,-0.1612715484,-0.9229254263,0.5424991561,0.013182491,0.9238929615,0.180032156,0.8039739601,-0.1491771904,-0.5253701849,0.3623458103,-0.0561004549,-0.6415717421,-0.1255327152,0.6982141208,-0.6546072359,-0.6473588611,-0.4750257647,0.3803459622,0.6464649789,0.7286115993,0.2039063829,-0.1451261031,-0.1596747661,-0.5269320278,0.8782918841,0.2372984543,0.4692423877,0.3812697488,0.4094280971,-0.6855459894,-0.6387366304,-0.7380703939,-0.6387060049,-0.0207830792,-0.2697523355,0.1070296287,0.5470296416,1.1308979917,0.8067633786,0.5511770878,-0.2320760401,-0.3384314334,-0.3631238592,-0.8455333559,0.0275184373,-0.2535437826,-0.8607993098,0.0971153025,0.1315235324,-0.8386412141,-0.3820204862,0.0779887282,-0.8514094436,-0.7812651386,-0.012823832,-0.6519943752,-0.6832528985,-0.1556682729,-0.2244266897,0.9584120356,0.3119472796,0.1475510882,0.6558133911,-0.5571290679,-0.7248787757,0.3106271453,-0.6177875304,0.3015373448,0.5540856458,-0.1909681498,-0.0045528543,-0.0202834132,-0.3135886976,0.4422079312,-0.8907181039,-0.4513441972,-0.9167795998,-0.8988106768,-0.823301753,0.9895343136,0.1693265076,-0.9147592707,0.4290447788,0.6448553006,-0.9301756394,0.4485644506,0.8538031297,-0.6709668316,0.4469434069,-0.7383099342,0.0788267062,0.1236651656,-0.1273238914,-0.07536706,0.9706353759,0.3313104181,0.6935048396,-0.876297034,-0.1346490561,-0.865908805,0.9304370386,-0.7150122464,0.1667770041,-0.1147716167,0.581208005,0.7665833355,0.4066748346,-0.5957716229,-0.2728184395,-0.3343326348,0.4823408919,0.4739608926,0.3195817033,-0.3024540614,0.1900097994,-0.7822504439,-0.0842513879,-0.0402196714,0.8360994506,-0.7289726293,-0.1520432785,-0.9846784021,-0.1750964202,-0.4305132609,-1.2450619829,0.559883867,-0.6645547421,0.0699803406,-0.1667009185,-0.4926291997,-0.3407329857,-0.1002794798,-0.6392604494,-0.4374058057,-0.750190257,-0.9360627554,0.333413842,-0.5231852546,0.8266832339,0.2299232314,0.3189901017,0.5683772607,0.8741829221,-0.8303127726,-0.1820489382,0.8738766128,-0.2399394867,-0.4266210108,0.0510060493,0.8108303312,-0.4501373578,-0.1359455739,0.7654190111,-0.7853986765,-0.1246831344,0.8960246388,0.6644474442,-0.9208508914,-0.2169294125,-0.6516059466,0.1055955558,-0.414847582,-0.3172448189,0.1842176011,0.0970825033,-0.2052652654,-0.8590874495,0.1660463031,0.2557614898,0.6811372866,0.8176484133,-0.0249318081,-0.7923007579,0.9384025369,0.2982225163,-0.3168679316,0.1329398909,0.8668448934,-0.0009983918,-0.7878593408,-0.1791022539,0.1579301242,-0.9959991256,-0.2417353812,0.6074764,-0.0439856674,-0.9687723117,-0.3181864087,0.5659823188,0.5769781692,0.1548402042,0.7623185263,0.8345487198,-0.5178037748,0.8229168885,-0.4092433747,-0.0027481456,-0.960696782,-0.3504419172,-0.1655129767,-0.2520113528,0.5003619897,-0.6444889956,-0.1728181294,0.760805764,-0.1177083689,0.5840306828,0.4906063459,0.6079417297,-0.3033060192,-0.2419676661,-0.1914470322,-0.4042865475,-0.914931202,-0.9393775749,-0.6268793451,0.7009335485,-0.6223283053,0.1613773336,-0.4277858488,-0.6629343289,0.2155733915,0.315285358,0.9900397529,0.8534154396,0.7502328798,-0.359327951,0.7528928257,-0.6447675154,-0.887926339,-0.9389078782,0.6588204775,0.3559178361,-0.8140223936,0.3497607783,-0.3566016886,0.6096516034,0.0725045617,-0.7620941679,-0.4409609195,0.9447781259,0.0590857622,-0.0193868238,0.1154093204,-0.6606497228,0.8816606718,-0.2814059803,1.0041625644,-0.0634837486,0.2090751783,0.5057343213,0.3130151826,-0.7272494809,-0.0850476296,0.5289805127,-0.8289816751,0.8298747844,0.6438951405,-0.4092809314,-0.1643243462,-0.9806706456,-0.0682513224,0.123703076,-0.1830894391,-0.0286716665,0.7169986131,1.0590917472,0.1380446306,-0.3237941485,-0.1427943602,-0.2321629206,-0.2984410714,0.4476756962,-0.0939672046,0.9062902671,-0.059200689,-0.8236039744,0.5431712418,-0.5932074254,0.8390409446,0.0066806064,0.0332988595,0.9989719956,-0.4185915418,0.223713337,-0.3899861577,-0.0048046708,0.744600047,-0.8325761426,0.7389893837,-0.3685603281,0.3093099763,0.1821909882,0.5075681414,0.5050113389,-0.6251079982,-0.7482023328,0.7159013667,-0.9444662835,0.8077822349,-0.8707334146,-0.8961762098,-0.3324386872,0.8818355062,0.0034881239,-0.020884794,-0.6977654374,0.8839834369,-0.2319327056,-0.9026541086,-0.2918529341,0.0052057162,0.2510277877,0.5082600583,0.0772175679,-0.5000647524,-0.268679926,0.9445533869,0.7811843159,0.9444066398,-0.5786761417,0.2052906091,0.6837139416,0.8921236554,-0.7418989897,-0.9565280027,0.648813879,-0.9915258248,-0.6794298431,-0.3514837435,0.4302385716,0.56911205,-0.6068537602,0.095769236,0.8202838027,0.7723790933,-0.9433685632,0.1038685557,0.1469791479,-0.8010138028,-0.543254739,0.6643430167,0.5562469535,0.0623454196,0.1057779475,-0.7456139413,0.4395361937,0.6902714259,0.2417907391,0.1407523585,0.8269006285,-0.1485610283,0.8266217724,0.2102394421,-0.3676727131,0.1520384383,0.6667344215,-0.285342129,0.2093503944,0.3845648939,-0.210833415,-0.5773893487,-0.3102426265,-0.0556240934,0.614339265,0.9497567892,-0.802279562,-0.8896600175,-0.9066544173,0.8467649147,0.4250917541,-0.420773591,0.6779129565,-0.5568935013,-0.1527414232,0.6898404106,-0.9674796217,0.9586835873,-0.7433926188,-0.1122471638,0.0912174066,-0.6845588476,0.066019308,-0.9696037765,0.7037718314,-0.0685141175,-0.5941875413,0.8119305789,1.2079094914,0.6590194073,-0.7607760034,-0.8136397806,-0.0125707308,0.9422353339,-0.2309301231,-0.3810227855,-0.3903230222,-0.1083932107,0.6834944903,-0.3344939501,-0.5446327922,0.8609125025,0.9664292454,0.6883548535,0.3261758466,0.2325167598,0.7043455349,0.7041069534,0.5553649898,-0.5615315675,0.1692456893,-0.4662090662,-0.2198068375,0.8813766119,-0.0162685691,-0.5415041238,0.8635649767,0.7065308757,-0.9561285704,-0.291371206,-0.5662104334,-0.5506014835,-0.6086055819,-0.8987940491,1.1255086334,-0.8334434715,-0.974236184,0.9018711422,0.2981798107,0.1870759567,0.8253146726,-0.2818546194,0.9353641965,-0.4292630642,-0.6377109797,0.3625950246,-0.2033281737,0.1869051149,-0.0464725523,0.7217855835,0.9619726721,-0.823174284,-0.7141168484,0.7437057731,0.5435406129,-0.7388581496,0.4326630525,1.1212885673,-0.6430784503,-0.6385128435,-0.2808125868,-0.166407982,-0.165072787,-0.4098141607,-0.3835774081,0.7861307253,-0.8657082837,-0.0131537238,-0.4540736481,-0.8970240273,-0.179337048,-0.3921463518,0.8068345823,0.646243523,0.6608525898,-0.8074296047,-0.5626012042,-0.9283920692,-0.263890763,0.2092826128,-0.9061427743,0.4374449613,0.6743195436,-0.4451786663,-0.0704987393,-0.2268025332,0.9645882409,0.6298148532,-0.0327144933,-0.0753852494,-0.8671840184,-0.0710490999,-0.6201690818,0.5145061698,0.6495795652,0.2435583012,1.03999337,0.6576035469,0.5123476918,-0.5912646737,-0.0063727158,-0.068668956,0.1763711565,-0.9152458264,-0.7482077956,-0.6154652512,0.369570817,-0.3394210181,-0.1642389421,0.0697358278,-0.0321422508,-0.7190114855,-0.1300183182,0.3265552668,0.8628435539,0.538306973,0.8422639189,0.2599608181,-0.7438819538,-0.5700205122,0.7553704849,0.9782596633,-0.4836704053,0.3957345406,0.725715195,-0.8119366611,0.1085827787,0.4293674725,0.0749081563,0.2565657462,-0.0042839712,-0.558416852,-0.921103606,0.9309127306,-0.5109709023,-0.4297060604,0.2851619936,0.3471543092,-0.7301678407,0.992300149,-0.6599334325,0.8646959492,-0.8714959293,0.3976819969,-0.0202280907,0.8190460552,0.9904252526,0.1166107273,0.7862581059,-0.3754875356,-0.3468504391,0.8356565378,0.1134439519,0.5323484059,-0.2524043332,0.488854598,0.5200319029,-0.5915627751,0.5186784588,-0.8002461098,-0.2205061643,-0.2216530917,0.8595470127,0.0483318314,-0.4572077869,-0.4381686869,0.0264872483,0.1482560357,0.4086235452,0.0912435157,0.6080623986,-0.8929302332,0.6420745015,0.9252695394,-0.6623323047,0.512586563,-0.8058931858,0.4401112749,0.007436778,0.6501172733,0.4650985293,-0.5852410127,0.3930772847,-0.26081168,-0.7683332821,-0.9113307052,-0.9672981619,0.5335761801,-0.4972924416,0.6087205663,1.2024516182,-0.5477965485,-0.5598071235,-0.3571311581,0.3382156427,-0.7389629812,-0.2667100449,0.4399156718,0.7407697809,-0.9946896609,0.8542299086,0.7209416067,0.5597991654,-0.9956384229,-0.0736294702,0.403586286,0.8104723664,0.9649612584,0.5655837689,-0.5485916125,-0.2125026263,-0.5733204438,-0.408466875,0.4105220895,-0.5520906033,-0.5271504901,0.0103895548,-0.2583598686,0.8514586097,-0.9417451676,0.5775774229,-0.7776834611,-0.8813429556,-0.0018675041,-0.8951979402,-0.7209205839,-0.3234617567,0.0427116782,0.0323519665,0.4964775458,0.7413070402,0.7609420025,-0.6055102839,0.8154782578,-0.6685901198,0.8543660098,0.6180602718,0.9915885424,0.1355743364,-0.4792591778,-0.3380963771,0.0950181085,0.4541957652,-0.2796664228,0.4784973268,0.3377373531,0.1294160409,-0.1294188544,0.3106476117,-0.5269324842,-0.895267586,0.8684020539,-0.8231749895,-0.8381061001,-0.1658805689,-0.2705357099,-0.8602601849,0.8563400895,-0.8640650501,0.7841281589,-0.1870247431,-0.938503145,0.0502525861,0.6886250351,-0.4885251342,0.7232314656,-0.8316165456,-0.8596604666,0.9186483626,0.8286197803,-0.0711740206,0.5752615656,0.1923373849,0.7240929838,0.1647079433,0.5582368743,0.4550453313,-0.2633748965,-0.7377598311,0.8821749815,-0.6877635836,-0.921333598,-0.3780521032,0.9684437175,-0.0460301221,-0.329890831,0.1994125971,-0.6735027264,0.6958787056,-0.4694270872,-0.4794281578,0.594123026,0.4369504519,-0.8202623999,-0.5409257448,-0.5877345841,-0.5082865177,0.5131961477,0.2399666901,-0.587171757,-0.0004494077,0.2777253302,0.1557604293,0.7623923101,0.456197489,-0.6192262682,0.6675836122,-0.5102219872,0.8713015565,0.333131277,-0.0329704477,0.8823425301,-0.6629845618,0.5541483104,0.1989380415,0.8374102262,0.2269431807,-0.1455632169,0.9597342925,-0.7368601586,0.1117474961,-0.6083688206,0.6860471044,-0.5689911334,0.9086772666,-0.1025955316,-0.2918046476,-0.5829075521,-0.3647483407,0.2147516991,0.2234713261,-0.784592862,-0.7333800986,-0.9525182634,-0.8020712517,0.6384788338,0.4749783854,0.3830111071,-0.1878832137,0.1058038685,0.9776151547,0.4978679135,0.9795770587,0.4310635455,0.660426767,-0.0175201548,0.5761753366,-0.0133966455,-0.6998902062,0.4968422288,0.9661633295,0.1725867238,-0.3906240979,0.4358686906,0.3654966592,0.7338498034,0.8950331171,0.2655060534,-0.3765440173,-0.855899647,0.6149740734,-0.1202298452,1.0791389436,0.0992855626,-0.0466301111,-0.0015513272,-0.1346893092,0.7131064181,0.940511392,-0.4998427151,-0.645446639,0.0789853586,0.1534783132,0.8299923257,-0.9603641562,0.0752130276,-0.966247717,0.6805899673,-0.6930919943,0.4040943031,-0.1707242951,-0.3810186633,0.0297236574,0.7151925137,-0.5462710206,0.3339103088,0.8928369546,0.2229741309,-0.3510235922,-0.4827135151,-0.8638087613,-0.2888432845,0.5947118697,-0.9733905217,0.1161579151,-0.7018079219,0.598556595,0.4475054052,-0.8290968905,0.3694079981,-0.8201305079,-0.3706910183,-0.5621355618,-0.9974491208,0.507740073,0.3864390158,-0.1949670384,0.8039398143,-0.025546821,0.5772748274,0.844351154,-0.1986600123,0.58649782,-0.4285965954,0.4815303492,0.9568587804,0.7506304087,0.5323722494,0.0511334944,-0.3653383426,0.1898922426,0.0896465466,0.1914014515,0.9281120747,-0.3389963811,0.2746102985,0.2589095347,0.157598976,-0.8384912707,0.2926620854,-0.8258075083,0.8800495928,-0.5266933297,0.5943290768,0.3072420714,-0.1513006893,0.275568001,0.5589707242,-0.1416491978,-0.639310711,-0.14614678,0.4655328146,0.6198409015,-0.4298801968,0.6374995195,-0.6259833967,-0.1361264183,0.3488661288,0.2720021904,0.9557706716,-0.5571188513,-0.8829900105,0.0989424203,-0.6129441329,0.6163341426,0.7978900095,-0.2364800665,-0.8537197585,0.1288268052,-0.4236700995,0.9727224784,-0.8574244475,0.7288851059,0.7724282443,-0.6475408542,0.3064776699,-0.7336242238,0.9771248107,0.3017472162,-0.4677918463,0.9097310238,-0.5187036676,0.834668562,-0.2980819662,0.7352952486,0.5962135036,-0.3971001004,-0.6174680984,-0.7053662074,-0.8505586588,0.5759362281,0.7946808221,0.5025204671,0.6967374181,-0.9293604868,-0.2261723371,-0.5123538558,-0.8684597765,-0.4643023711,-0.9248499306,0.5230518228,0.7391260808,-0.5305906461,-0.6111924743,0.7989253441,-0.0796642434,-0.7259210636,0.1171847414,0.4368024906,-0.8034264342,0.1696325659,-0.2427273169,0.1041030321,-0.9543031847,-0.0620733649,-0.3453368698,-0.6992662737,-0.3255845793,-0.9548508155,-0.0428421065,-0.1255124279,-0.9299658541,0.2718075216,-0.5616668106,-0.0022438504,0.8178950047,0.73430596,-0.6816578308,0.1483407495,-0.1591432673,-0.3864170761,-0.625042128,0.8486081475,0.4614681453,0.2740491107,-0.6331006553,0.6127914038,0.1194390524,-0.1053506733,-0.5311940601,-0.1835481398,-0.5825209228,-0.5253715236,-0.4610903755,0.5159319528,-0.0285871812,-0.3354529695,-0.3411842674,0.4257203979,-0.3001992461,0.6075739757,-0.1692215264,0.6963346937,0.0629411863,-0.0273448978,0.2406418168,-0.148658412,0.353796097,0.6608919011,0.8192725666,-0.3924554521,0.7459002753,1.2100091735,-0.5736782571,0.7932415718,-0.4689829407,0.9960167485,0.303551722,0.9764821666,0.8524935778,0.1663272652,0.046272534,0.5416700482,-0.4717610214,0.160295059,0.0496907015,0.4967501082,0.8876472034,-0.9704782248,-0.828572211,-0.344058252,-0.9151804619,-0.3258333885,0.9792744626,0.5651267033,0.1177948336,-0.3568583755,-0.4529331781,-0.8134085454,0.2202704074,-0.4475172274,0.0928008466,0.6134451341,0.2386811993,-0.2323151408,-0.6921895418,-0.3817559692,0.0355005702,-0.0362036923,-0.5458857343,0.8241151732,0.7331499525,0.3955042803,-0.9384303503,-0.5124908305,-0.7396692701,-0.4012611108,-0.4729603725,-0.5345526329,0.6674239408,-0.6907260035,-0.4436942786,-0.2056017285,0.3377769026,-0.7559906376,-0.3572913303,-0.999891553,0.9350433715,-0.9436770706,0.1207965661,-0.4137565575,-0.2444534907,-0.0058278439,-0.1548766818,0.1951240024,0.1031837286,-0.7586974084,0.4656847447,0.2299274831,-0.8414170902,0.8137269914,0.6920947891,-0.0746299943,0.467373497,-0.0158165423,-0.7159233344,-0.8457368828,0.3023771864,-0.4150992804,0.0848658486,-0.6914244642,-0.0315289739,0.4078307444,-0.1687025448,0.1600568053,0.4493443079,-0.4808509316,-0.2221514808,-0.1682542252,0.1323650277,0.740284421,0.2185461401,-0.6869318999,-0.9855095353,-0.9717890257,0.8328556988,0.9454512596,-0.5070185448,0.5815460881,-0.8571355495,0.684757477,0.5195877948,-0.3065337493,0.8450276211,0.4888990085,-0.0155037886,0.6304157778,0.1262527153,0.7174709227,-0.4673499763,0.3889733306,0.145317802,0.4740534752,0.9217123318,0.8288901344,-0.668715832,-0.0776450851,0.3741149219,-0.8169026458,-0.2066764927,-0.8183435052,0.9379802068,0.330010142,-0.3224855187,-0.486044041,0.9701407545,-0.6852402323,-0.4416087788,0.9997581553,0.1877838138,-0.4694699023,0.7984316081,0.135753828,-0.9871915884,-0.7428413473,-0.0660716342,0.6491936536,-0.7942514356,0.0199839862,-0.9556226555,-0.650992415,-0.0846911525,0.8392483065,0.1296259566,-0.988962732,-0.7434212651,0.6621518854,-0.5399503278,0.5285481502,0.7495542022,0.8649657716,0.0735211028,-0.8017080676,-0.0062221521,-0.5528267521,-0.0935281636,-0.622917231,0.5065620224,-0.4499126478,0.4130454453,0.4958076309,0.6190737037,-0.3136655974,0.8039159041,-0.1119703944,-0.4049703638,0.1185321166,0.4967165933,0.5910607736,0.052816494,-0.177444729,-0.5580379811,-0.1552615713,0.3477128724,-0.4938123089,0.4566458124,-0.8861336438,0.9280536525,-0.4397785689,-0.2874339587,0.7555551933,0.7756364061,-0.7229564194,-2.0816485938,0.0960743288,-0.374400341,-0.1718980698,0.3272932052,0.237476556,-0.501724572,0.0868282328,-0.1851216397,-0.2385584573,-0.7400666509,-0.6407028838,0.402350346,0.8388504477,0.1926673278,0.0069841472,-0.5743929985,0.8648282878,0.9440130863,0.3137682141,0.1145591501,-0.7842627704,-0.623419946,0.0462062681,-0.5243860277,0.4601398045,-0.9342469454,-0.7095430523,0.6341399049,0.1657569321,0.3596078205,-0.6775072642,-0.3634698681,-0.5078805684,-0.7124989514,-0.4581182604,-0.8998741873,0.557809119,0.1245601075,0.3121619104,0.2048768986,0.0212205735,0.8739364377,-0.2183213361,0.1248463235,-0.1578937108,-0.4563986316,0.8434438069,0.556036622,0.0632849205,-0.6940537423,0.0648438098,0.582333005,-0.320420084,-0.6552391309,0.073991972,0.357679341,-0.2188423604,-0.3498188813,-0.5663422245,0.662555335,0.0861036094,0.0392789064,0.6128075782,0.780058534,0.0796903064,0.8577319503,0.8693022683,-0.9840369781,0.0904804771,0.0769003358,0.0135792969,-0.4476516281,-0.0992963626,-0.1348087965,0.267619581,-0.6462201249,0.7631427463,-0.2667078435,-0.1544926279,-0.7913136048,0.9451552559,-0.7384607645,-0.8210351669,0.2717992599,0.7644568395,1.0456520185,0.7544804364,-0.7674829908,0.3619116983,-0.5220108509,-0.0632521215,0.9839362717,-1.0238235325,-0.1266341736,-0.4589548084,-0.2042965116,0.892618894,0.9828297513,0.8859472869,-0.2385574347,-0.758654156,0.2308869368,0.6677835488,0.071292582,0.4844622317,-0.0413921653,-0.6198100129,-0.4000840104,-0.4097792442,-0.6434070178,0.2648721589,-0.0083224168,0.1372876158,0.4644758255,0.2351727846,0.3780186538,0.500461253,-0.9453631897,0.2511175968,0.3834573201,-0.9853865069,0.273844135,-0.7670612235,0.8443721747,0.8734310072,0.5757567681,-0.0533935445,0.877161871,0.5290910891,-0.7488875549,0.1117462018,0.5832168177,-0.453300841,1.0404530212,-0.2408761157,-0.0245943116,0.4929762623,0.8904949251,-0.4631779246,-0.1167545686,0.3037707871,-0.7009557143,-0.1747146172,0.972104789,-0.9219517217,0.6231363634,-0.3216168366,0.1877852017,0.8729501881,0.3758355684,-0.6279845063,0.2465978122,0.7367427788,-0.2377476741,-0.1573029249,-0.5461557723,-0.5739169355,0.901734575,-0.8398348952,0.3017985246,0.528127997,-0.5261359017,0.9959492949,0.6643888101,0.4953549331,-0.6273684606,0.7754643668,-0.4951998087,-0.88146977,0.7712371506,-0.7723113186,-0.1706564356,0.8931467149,0.1894721659,-0.0634543406,0.3974477659,0.5568615254,-0.3825337191,0.0186874352,0.8948447988,0.0058515934,-0.3844244058,-0.8461685602,0.5265486698,0.5126745543,-0.059063719,0.6609189381,-0.8839843388,0.8456443625,-0.0217000413,0.6506791456,0.8740659805,0.2296234072,0.3515677485,-0.0006191355,-0.6851932538,0.6610529946,0.0587420743,0.4019908645,0.1943763874,0.5191183958,-0.520130539,0.2488841378,-0.7168264815,0.7896768825,-0.8270831312,-0.2586427741,-0.2426713072,0.3883862573,-0.4881138642,0.3902438694,-0.4118744161,-0.0411890521,0.0149631373,0.7061374678,0.9189505375,0.3361400073,0.4578020948,-0.1216728427,-0.6652801247,0.8776048668,0.5064254248,0.5419256577,-0.6033552514,0.2199888769,-0.5653899853,0.7599078303,-0.0560028876,-0.0231814945,-0.547274788,-0.9016574288,-0.6082125323,0.4378733955,-0.7586323859,0.0294502743,-0.5077670497,0.3899992032,0.9942161743,-0.5714203099,-0.1175451335,0.9024405575,0.0835494088,-0.2644995769,0.2580986753,0.4917638299,0.4020877463,-0.4609639317,-0.2358034458,-0.1604072948,-1.5861053092,0.7759856563,-0.5185146314,0.6812710491,0.6585603026,0.3071631678,0.7905504879,-0.766710399,-0.980096596,-0.9591763861,0.1757123182,-0.3715505506,0.1431858234,-0.3562775394,-1.1167857697,-0.8513089271,0.8659288316,-0.4371268336,0.0899104227,-0.2170859992,0.7152677311,0.5335509965,-0.7784663093,-0.4307650159,-0.6905345471,0.0525252252,0.631052511,-0.4615803028,-0.3524310219,0.7003092495,0.3042335381,0.4243676515,-0.2153184437,-0.6852061598,-0.6562558276,-0.1742506419,-0.1849286035,0.9969307075,-0.1842544353,-0.3198407736,-0.5931177085,-0.5908807536,-0.046313119,0.5385105905,-0.6589722583,-0.9174319026,-0.3378971271,-0.7532282751,0.6371826091,0.8457706231,0.1940099994,0.2180550472,0.048270477,0.0781616755,0.6252387708,0.9549234681,-0.5693350701,-0.5970292875,0.0611105875,-0.7714215687,-0.9246691083,-0.8000780401,-0.6772408241,0.6196094119,-0.7835016047,-0.1456716303,0.7564119121,-0.123881366,-0.8437208931,-0.3427303178,-0.7316582703,0.1615807286,0.8899208962,-0.2204530952,0.9030814639,0.4904127644,0.3256793109,0.7137669621,0.2890704476,-0.7734286638,0.814516416,-0.1010411564,0.2776696404,-0.7231832874,0.2759657525,-0.8692803625,0.8543535012,-0.3778455854,0.8230486272,-0.2069818956,0.9549511176,0.5219964014,-0.0648857296,0.4683452142,-0.3628461566,-1.0859540945,0.2038929202,0.0638861093,-0.5216770382,0.3746765332,0.0704554128,-1.0384538024,-0.0339094158,-0.8431804077,-0.2369362206,0.2312538426,0.8538794821
