encog,BasicNetwork,java,3.2.0,1,1451393844455
[BASIC]
[BASIC:PARAMS]
[BASIC:NETWORK]
beginTraining=0
connectionLimit=0
contextTargetOffset=0,0,0,0
contextTargetSize=0,0,0,0
endTraining=3
hasContext=f
inputCount=87
layerCounts=1,349,349,88
layerFeedCounts=1,348,348,87
layerContextCount=0,0,0,0
layerIndex=0,1,350,699
output=0,0,0,0,0,0,0,0,0,0,0,0,0,0,0,0,0,0,0,0,0,0,0,0,0,0,0,0,0,0,0,0,0,0,0,0,0,0,0,0,0,0,0,0,0,0,0,0,0,0,0,0,0,0,0,0,0,0,0,0,0,0,0,0,0,0,0,0,0,0,0,0,0,0,0,0,0,0,0,0,0,0,0,0,0,0,0,0,0,0,0,0,0,0,0,0,0,0,0,0,0,0,0,0,0,0,0,0,0,0,0,0,0,0,0,0,0,0,0,0,0,0,0,0,0,0,0,0,0,0,0,0,0,0,0,0,0,0,0,0,0,0,0,0,0,0,0,0,0,0,0,0,0,0,0,0,0,0,0,0,0,0,0,0,0,0,0,0,0,0,0,0,0,0,0,0,0,0,0,0,0,0,0,0,0,0,0,0,0,0,0,0,0,0,0,0,0,0,0,0,0,0,0,0,0,0,0,0,0,0,0,0,0,0,0,0,0,0,0,0,0,0,0,0,0,0,0,0,0,0,0,0,0,0,0,0,0,0,0,0,0,0,0,0,0,0,0,0,0,0,0,0,0,0,0,0,0,0,0,0,0,0,0,0,0,0,0,0,0,0,0,0,0,0,0,0,0,0,0,0,0,0,0,0,0,0,0,0,0,0,0,0,0,0,0,0,0,0,0,0,0,0,0,0,0,0,0,0,0,0,0,0,0,0,0,0,0,0,0,0,0,0,0,0,0,0,0,0,0,0,0,0,0,0,0,0,0,0,0,0,0,0,0,0,0,0,0,0,0,1,0,0,0,0,0,0,0,0,0,0,0,0,0,0,0,0,0,0,0,0,0,0,0,0,0,0,0,0,0,0,0,0,0,0,0,0,0,0,0,0,0,0,0,0,0,0,0,0,0,0,0,0,0,0,0,0,0,0,0,0,0,0,0,0,0,0,0,0,0,0,0,0,0,0,0,0,0,0,0,0,0,0,0,0,0,0,0,0,0,0,0,0,0,0,0,0,0,0,0,0,0,0,0,0,0,0,0,0,0,0,0,0,0,0,0,0,0,0,0,0,0,0,0,0,0,0,0,0,0,0,0,0,0,0,0,0,0,0,0,0,0,0,0,0,0,0,0,0,0,0,0,0,0,0,0,0,0,0,0,0,0,0,0,0,0,0,0,0,0,0,0,0,0,0,0,0,0,0,0,0,0,0,0,0,0,0,0,0,0,0,0,0,0,0,0,0,0,0,0,0,0,0,0,0,0,0,0,0,0,0,0,0,0,0,0,0,0,0,0,0,0,0,0,0,0,0,0,0,0,0,0,0,0,0,0,0,0,0,0,0,0,0,0,0,0,0,0,0,0,0,0,0,0,0,0,0,0,0,0,0,0,0,0,0,0,0,0,0,0,0,0,0,0,0,0,0,0,0,0,0,0,0,0,0,0,0,0,0,0,0,0,0,0,0,0,0,0,0,0,0,0,0,0,0,0,0,0,0,0,0,0,0,0,0,0,0,0,0,0,0,0,0,0,0,0,0,0,0,0,0,0,0,0,0,0,0,0,0,0,0,0,0,0,0,0,0,0,0,1,0,0,0,0,0,0,0,0,0,0,0,0,0,0,0,0,0,0,0,0,0,0,0,0,0,0,0,0,0,0,0,0,0,0,0,0,0,0,0,0,0,0,0,0,0,0,0,0,0,0,0,0,0,0,0,0,0,0,0,0,0,0,0,0,0,0,0,0,0,0,0,0,0,0,0,0,0,0,0,0,0,0,0,0,0,0,0,1
outputCount=1
weightIndex=0,349,121801,152425
weights=##0
##double#152425
   0.9526848681,-0.831493074,0.6096417793,-0.0734150105,-0.0329464541,-0.0788741654,0.4682112768,0.1665275139,0.8934604337,0.9863212331,0.487382734,0.8864200203,-0.5204946968,-0.2908514119,0.6965052199,-0.0783607645,-0.5855827864,-0.2733152824,-0.9494624992,-0.6881677312,-0.5587752944,0.5804256091,-1.0061787466,-0.2496106951,0.182862531,0.7050044977,0.7079280593,0.6850670803,0.6585839146,0.6662483505,0.7511899476,0.2355464046,-0.6919861027,0.5523242111,0.8689616536,-0.3413076491,-0.6192376032,-0.6429951313,-0.6215173533,0.7256847866,0.7197995527,-0.3287871672,-0.7493418229,0.3935152384,-0.7554341556,0.7535075801,0.8231716605,-0.9888174964,-0.5652301055,-0.3707615601,-0.0933064576,8.0674461699,2.3575853211,-0.185559378,0.7316314458,0.7749617471,0.7281762322,0.9128088865,0.6897385811,0.9333392202,6.7705111845,0.1872249361,0.1787600454,0.3679555493,-0.8716347167,0.7758734734,0.1698170367,0.6433771874,0.089015587,-0.3221242077,0.4347244942,0.8964126887,-0.6180229475,-0.4960213638,-0.6342248187,-0.4963445799,-0.4775074585,0.2339722144,-0.7933586873,-0.1801635255,-0.8320122375,-0.62213278,0.8523973323,-0.860068747,-0.5184760958,0.2694901292,0.2324168676,-0.2473064854,-0.2750715197,-0.4074576229,-0.664810603,0.5542393687,0.2376317948,0.0412441771,-0.6085523748,0.7907044151,0.6342102265,-0.2296935072,-0.9039480179,-0.4353916716,-0.508692497,-0.1633298791,0.9590470549,0.12129294,-0.2784240225,-0.1045906718,0.164472142,-0.1065765392,0.1200279073,0.6142970665,0.7431809026,0.914689132,-0.1938670264,0.3970158257,-0.5260940928,0.7486495724,-0.0806317097,0.9209268707,-0.3700308295,-0.9666629129,0.655479507,-0.984786205,0.851727263,-0.5007123578,-0.8373970329,3.6176895223,-0.3225440419,0.5104577381,-0.9855875144,-0.5822026349,-0.1036947917,0.1013717816,0.1075950775,-0.1262687784,0.7444220331,0.5542250074,0.5397567013,0.8740024409,-0.3105015044,-0.1852903877,0.3038311278,0.7105895126,-0.2191881313,0.6437107231,-0.4641645194,-0.1600623296,-0.5147866298,0.6316963783,-0.1805731431,-0.2402427892,0.2327749061,-0.2113273952,0.6663955884,0.0233144896,0.1437433646,0.3680533004,0.3474759899,0.6666175628,0.3691623984,0.105733749,0.4276608478,-0.9925735218,0.5111839984,0.9065224976,0.1159881966,0.9238288121,-0.6646523336,-0.5980478717,0.6003242134,-0.9936791053,0.6932225091,-0.1533240908,0.8001529793,-0.7875328883,-0.2127727713,-0.8091202654,-0.5239333902,0.1881810988,0.2062245974,-0.2787595992,0.1891451859,0.425373896,0.4567026386,0.9931878288,-0.9578344901,-0.0541928459,0.9398742127,0.6613800198,1.2924097885,0.1273257124,-0.4095598152,0.004341626,1.4404459863,-0.4580735737,0.6400975174,0.2403729563,0.2530264149,-0.7829418964,-0.676977535,0.5795310257,0.6728407559,-0.3451486929,0.6562826409,0.8563353125,-0.1691056545,-0.9246049183,0.9202757519,0.5473848753,-0.2404536496,-0.2225165656,0.6554772759,0.4496045697,0.4539479347,0.674017311,0.2274251615,0.5918653595,-0.9656145723,0.9303389892,-0.8056625586,0.5233398116,0.8888577218,0.8574280961,0.7952411735,-0.3207071387,-0.1732091869,-0.5255713257,-0.3201223152,-0.3995621867,-0.2977291473,2.4316424555,0.5527350411,0.8660238417,-0.5532271568,0.3251086894,-0.1174949655,0.0983882072,-0.9278799561,-0.8682213869,-0.2105482895,0.6784474137,-0.5414938294,0.4174226725,-0.3894777382,0.3573425449,0.5566844198,0.1166800221,0.2964305717,-0.6664571467,-0.1605401422,-0.4056976991,1.8392597385,0.8582355184,0.6045313052,-0.5922439293,0.2476308887,0.3424468503,0.9480128559,0.971240496,0.7322112004,-0.112972745,0.1113040979,-0.0826418286,2.1777752339,-0.0945540462,-0.3785254619,-0.0926461499,-0.8387825153,-0.8294920775,-0.3354089726,0.5840591288,-0.9801791973,-0.7325888261,0.6271738581,-0.4936432558,-0.4586832757,0.8891235814,0.8131949147,-0.957936313,0.8798311678,0.6497315287,0.6071320881,0.9034872696,0.2686113465,1.364689611,-0.703917579,0.3659204721,0.7368777687,0.5144314627,-0.5295565393,-0.2684750427,0.6476595555,-0.6829891021,-0.4003720204,0.2516839409,0.1390332167,0.1788733821,-0.1688716613,0.9521102069,0.1732383869,0.063267486,0.2310043255,0.5573604589,-0.3766201226,-0.1120151896,0.2671325381,0.9327161747,0.6424809563,0.266492862,0.671478555,-0.8126292102,-0.6287637266,0.9690552791,0.4782998998,0.7790734029,-0.8456028006,0.3177179264,-0.1858418978,0.4643109279,-0.485394423,0.1593835361,0.3290294132,0.3119910793,0.2375876587,-0.5775124659,0.7605707838,-0.3165229744,0.2188052521,0.9856146075,0.7080095708,-0.8212269978,-0.7070021252,0.7798577457,0.848394058,0.2778114927,-0.3155131781,-0.1561978087,0.3927158071,0.7416151747,0.7268671797,-0.3497962999,0.0112908536,-0.8520377386,0.3049033496,-0.3410747794,0.563409896,-0.2745299214,0.3405344365,-0.9751570216,0.4797318036,-0.422835116,-0.7552069324,0.503046381,-0.1730040995,-0.8419386987,0.1029201133,0.0336434293,-0.1199063303,-0.4861231184,-0.0432631312,-0.8067427278,-0.1256230074,-0.9697640529,-0.1087664735,0.5251627913,-0.1711509628,-0.514236395,-0.861864483,-0.9896521663,-0.4135985619,0.0762156968,0.9325135496,0.1371036001,-0.4680058989,-0.4178222164,-0.7440669766,-0.0213804178,0.4257629303,0.5502603125,0.2954912604,-0.3448250502,-0.389127739,-0.7380908818,0.9731502654,0.8144046159,-0.8981443475,0.2656018881,0.9393829223,0.3722660944,-0.2956189418,-0.2365051291,0.6866898196,0.3440607565,-0.8080784905,0.4472666301,-0.1607467905,0.0212750896,0.3491575686,-0.644068421,0.9442923865,0.1093400418,-0.7182869474,-0.1246954584,-0.0727049609,0.8177442185,-0.7981966608,-0.0012232452,0.0720356053,0.0495791185,0.8967460756,0.6796384915,0.1132660212,-0.6171261063,0.6824743869,-0.7025248158,0.4682888577,0.5701751538,0.543142489,0.4991567462,-0.736374546,-0.96253465,0.3050061819,-0.0207029884,0.5155222646,0.5748440579,-0.3205329719,0.5436720066,0.2178746994,-0.7823725192,0.5255036983,0.4391270264,0.4525624235,-0.5985835562,0.7900054806,-0.662275889,-0.2153496468,0.0869425605,0.7879343172,0.5012754552,0.7774412012,0.8812579937,-0.7923710753,0.9601115621,0.6433073444,0.1784798586,-0.5374749754,-0.4957076168,-0.4387688916,-0.715041757,-0.6958349376,0.945067544,-0.1577517158,0.5353451772,-0.0664624772,-0.0550881995,-0.9121669476,-0.6095831317,0.7014594304,0.2928124958,-0.2053744419,0.6360791898,0.521782772,0.7546195236,-0.433388121,0.4082616585,-0.6271864645,-0.5228032321,-0.7205300039,0.4408537259,0.5409089342,0.932892793,-0.9863851036,0.0628817323,0.668281853,0.4203009986,0.9554946925,0.3885185843,0.2369867999,-0.05324803,0.0194640278,0.4334618235,-1.0072773535,0.5485932154,-0.5572257631,-0.622645464,0.8649844138,0.3619135568,0.2213657859,0.3151291614,-0.5918432318,0.7232907502,-0.6657670244,0.7750403938,0.5776939773,0.3200601373,-0.1350135033,0.6643363685,0.2997751567,-0.70492811,-0.8238167526,0.4130918226,0.7210347047,-0.603445765,0.9898172603,-0.9583670385,0.5866936042,0.0749950171,-0.4898448146,0.5982752601,-0.733877414,0.6338649189,-0.4039118974,-0.3435638903,0.5903160331,0.3492102409,0.832353166,0.0935444766,-0.6266484467,0.5587428806,-0.3262348609,0.8578533165,-0.6968706359,0.8535449845,-0.4063463187,0.1553725221,-0.8610294485,-0.8490414917,-0.8208151015,-0.3359209073,0.8227837141,-0.1798546733,0.2468421965,0.3961579717,-0.3910972083,-0.1462253639,0.00852064,-0.4765594307,0.1907554048,0.9347520886,-0.8275767432,-0.6925384466,0.8038375059,-0.3980028773,0.0740928187,0.3557778748,-0.6032779323,-0.6466850729,0.7465512886,-0.796669491,-0.2840507689,0.7893832699,-0.7896896746,0.5393239635,-0.5716954387,-0.3008488646,-0.6505066101,-0.7447355464,0.2865238055,-0.7940186004,-0.7439585964,0.927694119,0.2205314837,0.0716507499,-0.7559079262,-0.7519606862,-0.5361418506,0.3465060877,-0.0002194296,0.840384344,0.687598399,-0.0441076257,0.7164347595,-0.9637072283,-0.8723023026,0.8556989049,-0.7965337622,0.0700005499,0.7041896704,0.5881815537,0.0263395029,-0.7915442332,0.148894054,-0.9521131531,0.5975416437,0.7978030111,-0.8766552959,0.2742277711,-0.698744025,0.755767156,0.2121026686,0.6580273136,-0.1234733949,-0.0278775215,-0.2935165602,-0.9526776867,0.9427615817,-0.8537834307,0.549255302,0.8886943915,0.7232257338,0.5666078631,-0.6070014043,0.3473099088,0.8985667787,0.3031599057,0.4238520146,0.4110488241,0.697786826,0.3219079321,-0.2180283669,-0.934819911,-0.6615208252,0.6321832998,0.9517114585,-0.6248907738,-0.4107208659,-0.6308493466,-0.3453266728,-0.4335203289,0.4076651415,0.9852673281,-0.3965664277,-0.6294048112,0.8140243006,0.3127751097,0.6952846051,-0.8314689354,0.1089882206,0.7181646197,-0.8656309154,-0.5058312791,-0.0534490235,0.2177327799,-0.4467295571,0.9197361835,0.4884629665,-0.4447555655,-0.8084391683,0.2869187797,0.510766827,0.6249351482,-0.1032390072,-0.1953645083,-0.5125209383,-0.0224466735,0.3853389441,-0.232756965,-0.0191243926,-0.4818393135,0.2891623224,0.6835294683,-0.8224841016,0.4065066213,0.299198845,-0.5870205915,-0.1799830829,-0.5299834524,0.3058481336,-0.7200398628,-0.5223888298,0.4152183033,-0.5157505153,0.1818563698,-0.5568235004,-0.6893763453,0.479695111,0.7668310957,0.2514768207,-0.4985438555,-0.539919164,0.4970481305,0.2166695037,0.5055765587,0.3126079516,-0.1843460878,-0.6562938383,-0.2207659389,0.7155823509,0.2493015196,-0.482501007,0.9414779333,0.2920148391,0.5433597025,0.6310462995,-0.1108809656,0.7074166861,0.796120325,0.6674021591,0.9503182178,-0.1592797939,0.5536678952,-0.1000459119,0.9439514925,-0.137899921,0.900409797,0.954793738,-0.6404673799,-0.6183331172,0.899505446,0.8725864735,0.3594495589,-0.6109356491,0.6768867425,0.0948691189,-0.2464019823,0.9692795194,0.2575862462,0.4015359392,0.2882283589,0.6783078293,0.5566030654,-0.1224272861,-0.4092947014,0.0308846517,0.3176010763,-0.1584429028,-0.2914384408,-0.4230986146,-0.1305349053,0.499498884,0.8460398286,0.5811989553,0.1598317986,0.5989160305,0.6906964957,0.6966973776,0.6713153002,0.9617949934,0.3685485297,-0.7482811114,0.9633987046,0.272936301,-0.1464268266,-0.479893274,0.3344554651,0.2977620739,-0.3340169957,-0.2702410143,-0.5480159208,0.2456783212,0.5064484774,0.9820237863,-0.0745194894,-0.3157772116,0.7971888442,0.8241270073,0.005577898,0.4311402464,0.468943878,0.8644437495,0.0658521772,0.3054848025,0.4283470302,0.4261955055,0.4816885278,0.6151880711,0.2416763695,0.1142163825,0.9984134338,-0.441528184,-0.190627169,-0.4196772761,0.4841125654,0.5008909477,0.8844762176,0.7745016204,0.5488155535,0.8936352159,0.7959886025,0.1964338929,-0.8794303863,0.2325843056,0.0161504865,-0.0466081752,0.1518884308,-0.2471661801,-0.1666413483,-0.3692436239,-0.8897019732,-0.1581408273,-0.029820439,-0.1138549214,0.7818320659,-0.1733898998,-0.0399697906,0.0747633535,0.7470979964,-0.4697297056,-0.6293812642,-0.1219982221,-0.8771200709,0.8120935072,0.906304541,0.912898607,-0.0405169496,-0.5428961886,-0.1656852689,0.3563523052,-0.6146109711,0.5150914526,0.595632323,0.5819512612,0.2304007304,0.282749218,-0.6541767827,0.806320749,-0.9084432037,0.8368084382,0.1504659465,0.645915347,0.6601825733,-0.2130517678,0.4971593502,-0.1607373374,-0.025368707,-0.2321029805,0.8880052372,-0.2505025341,-0.0756674143,-0.8279066245,0.6548510973,-0.8823952621,0.9535944132,-0.586808876,0.8095301674,-0.3784171318,0.3268665945,0.7938809804,-0.8301413159,-0.4891574841,0.4551330606,-0.0697055193,0.5190339099,-0.9082980458,-0.2743579881,-0.5427727277,0.9081125311,0.7352209198,0.7760115902,-0.3745321086,-0.7995618042,0.0905025695,-0.3566819584,-0.0464699227,0.6899644597,-0.0921298452,-0.4066446792,0.8467341283,0.6664001856,-0.3643276065,0.9718379993,-0.796959307,0.1042027879,-0.8958440143,0.4013181399,0.0652621656,-0.7225875108,-0.1601916395,0.5401321781,0.2213955205,-0.6583948013,-0.6902480495,-0.004732012,-0.1658401945,0.0110941782,-0.084572625,0.550745635,0.0977116408,-0.8343852534,0.9499130428,-0.973198635,0.8193836968,0.4513153454,0.1610363204,0.83266667,0.0494514798,0.935748485,-0.6836318145,-0.3951638752,-0.2211926059,0.7424686857,0.0593647296,0.827796759,-0.635007094,0.6344593345,0.8516825813,-0.5430992922,-0.5232466667,-0.3390389482,-0.21314899,-0.4343484301,-0.577859294,0.7901352507,-0.9152116662,-0.0751578206,0.9234043966,0.5566587945,-0.7391756847,-0.3329182393,-0.3021919131,0.5718593801,0.6486173975,-0.084883851,-0.8782428596,-0.661022213,-0.9013845664,-0.6353756367,-0.1670940461,-0.2933205292,-0.7367550478,-0.0508235134,-0.8133089726,0.581849031,0.8813669688,0.4515791131,-0.665227378,0.5345128168,-0.2542767024,0.1318105527,0.4029743495,-0.5870313285,-0.3389920845,0.3447314581,0.1103113338,-0.0156568266,0.001810661,0.1703878972,-0.1051844416,-0.4552839603,-0.6672985364,0.0373591583,-0.0319985958,-0.4208693031,-0.9573284219,-0.6449132928,-0.7628195791,-0.615118042,0.9476798107,0.2700237574,0.8559095698,-0.5605550124,0.9505549455,0.631687383,-0.1317753077,-0.3715764807,0.6428571564,0.7985855709,0.8169769633,0.2634468786,0.9300025349,0.3295190808,-0.6252006206,-0.012751858,-0.3372994914,-0.0911579132,-0.0114873999,-0.5706478553,-0.7383975334,0.6809364591,-0.5447441668,0.5144999376,0.3312522162,0.6008221907,0.5909236737,0.6523919849,-0.678167666,-0.7006977911,-0.1172256304,-0.1511214451,0.0890576836,0.0761653067,0.9660907207,0.5818055426,-0.4202610358,-0.5436472979,1.095193732,-0.665009188,-0.5646669555,0.8170973165,-0.4831159695,0.2723655104,-0.3890400746,0.0209459704,-0.7205318542,0.836183169,0.0631397083,0.9804015435,0.7569118424,-0.6097065401,0.0655812674,-0.5906571383,0.3043658094,0.8546126637,0.4721707211,0.3152813576,-0.7108677328,0.2118669838,0.7333495463,-0.3005564781,-0.2884740668,0.4410328976,0.7824791589,0.1595442929,-0.181009091,-0.4007009793,0.3521200822,0.5231648432,-0.258354178,-0.814830959,-0.473749772,-0.5355620881,-0.8656263336,-0.9933799686,0.987806818,-0.8834302579,0.7487758668,-0.5867353456,0.8715256846,0.7415365252,0.1202117967,0.5115645582,-0.382395454,0.3098575687,-0.8493260854,0.0018438569,-0.0604143386,0.1289726203,-0.2436360608,0.7404950035,0.3681214367,0.5091118461,-0.4887066388,0.3597891061,0.8769432457,-0.6546759558,-0.8815724667,0.9377628497,0.4810854907,-0.2518127948,0.3543472945,0.5457997905,0.9275440055,-0.3075038044,-0.5958732556,0.9385065247,0.2653164373,-0.377966856,0.4905350417,-0.2460886077,0.2065081211,-0.9556001524,0.8688526291,-0.0021898514,0.0059315577,0.1169032589,-0.673110235,-0.6106606134,-0.8152710935,0.4503990613,0.768138223,-0.0431774511,-0.6251267581,0.0858214624,0.0530982378,-0.2828961524,0.3166324079,0.1508409984,0.1663442187,-0.4791343891,0.2508203724,0.5922790878,-0.071467035,0.6096071324,0.345740799,0.9366446564,0.8334081013,-0.7868918435,0.2928673738,-0.2856750212,0.2541643112,-0.0391403815,0.6647939086,-0.6977512448,0.5306660632,-0.3990306955,-0.533168038,-0.9924062758,0.0434032579,0.54822748,-0.7034277919,0.5372786286,0.6559875057,-0.4645442143,0.8466870851,0.8557745514,0.2023304633,0.406324776,-0.718115639,-0.6086281124,0.3372402614,0.4322363074,0.1026461067,-0.8692306272,-0.8882901814,0.3566632066,-0.058421342,-0.2196137792,0.4121920841,-0.6693435815,-0.3474477677,0.7862897059,0.9605774452,-0.5356657337,-0.4141808683,0.810149417,-0.5569199693,-0.1396402904,0.5935311906,0.2289015858,-0.3193960192,0.9123854238,-0.7898291363,0.848738633,-0.3042906689,-0.1245000578,0.7631849096,0.7445927949,0.9228231627,-0.0513723769,0.4363583391,-0.5477441191,-0.7910383848,-0.7018628758,0.7125772373,-0.9310185056,0.0472116577,0.2230315104,-0.1313781494,-0.5947353757,-0.5703449747,0.3596742567,-0.3327505238,-0.9094458496,0.1205331624,-0.3834367956,0.4529472966,0.708014087,0.4113103424,-0.5056747141,-0.2238892802,-0.0790283353,-0.0524053247,-0.5831765838,0.0901356777,0.5848742831,0.8748243069,-0.6494194254,-0.4717544837,-0.1089741108,0.0351298789,-0.0104985637,-0.6423736862,-0.533973962,-0.3324070606,0.8125282375,0.5736909087,0.5485240103,0.6197469947,-0.2990006951,-0.6045952429,-0.9665575867,-0.5943301765,0.8698987045,0.8927161207,0.6519826266,-0.3518767234,0.0223598786,0.6590466515,0.0937867649,0.5474937088,-0.9349878394,-0.5928784854,0.1521246484,0.7910466577,-0.2064732843,-0.5941094839,0.8900787502,-0.9941804011,0.7003689639,-0.3008249262,0.4309547387,-0.612599534,0.1763988929,-0.7490121239,0.5967986666,0.6078616293,-0.4037765869,0.0735119233,-0.2876721132,0.7151333666,0.5135683779,0.3485476715,-0.2653953023,0.6881146801,-0.286297039,-0.4483455697,-0.2904028148,-0.5779873199,0.3861045633,-0.4184605387,0.2390521606,0.5831858423,-0.7648974071,-0.1261040851,-0.8015349614,0.1142024074,-0.4081577157,0.5452289052,0.9003286842,-0.9499412062,0.560081681,-0.5004828142,0.5038690631,-0.9444038853,0.120460865,-0.4321539223,-0.0352291487,0.9065608934,0.2649694302,-0.3935308168,0.5229962536,0.2288071094,0.2369409229,-0.3293230767,0.8378640746,0.3201234495,-0.6807095821,0.0912090145,0.3015120208,-0.6643974926,0.3547866791,0.6243604827,0.1577698545,-0.5885514477,0.6487074395,-0.4366912587,-0.7722925716,-0.2047541546,-0.8405186435,0.8985933399,-0.2394755101,-0.0376886083,-0.4259490404,-0.6284224241,0.1980565671,0.7423786318,-0.5344024425,-0.3126869915,0.714144031,-0.5313813095,-0.4134839366,-0.4352822681,-0.3569364989,-0.949969622,0.5435192005,0.9028379549,-0.6991555843,-0.8519575605,0.3446009491,0.9023398501,0.7556502058,-0.7250003118,-0.4367037094,-0.8239047171,-0.9736392811,-0.0678831909,-0.0523624918,0.891165455,0.2112782906,-0.2710388893,0.1143001822,-0.1429299805,0.5261110039,0.4899463483,0.3795930657,-0.381001268,-0.1625526196,-0.2293683449,-0.0416640191,-1.0613391134,-0.0126950898,-1.0822730507,0.0658591218,0.3334733538,0.6961678202,-0.9325638449,-0.9280063901,-0.5658266076,0.3193208074,0.0985550984,-0.4040678321,0.3744336803,-0.9574874483,-1.0929874976,-0.3529166195,0.5592116814,-0.0110615589,-0.943006369,-0.2299577337,0.2011999133,0.3672459422,-0.1940141111,0.1194831503,0.7998676371,0.5830424058,-0.4148879752,-0.4367025972,0.9189224317,-0.6255833394,-0.0594967198,-0.895298676,0.9364835447,0.9244302907,0.866736469,-0.564875705,0.2481797392,-0.0062434059,0.1752384772,-0.5397953626,0.6568309866,-0.9656815672,0.0478643978,-0.4539940535,0.8995693758,-0.7083923653,0.8177205969,0.2653093179,0.3639128462,0.1854254101,-0.3394870357,0.761277196,-0.1126014607,-0.1620283193,-0.0831372146,0.808645624,-0.852925138,0.7761747681,0.1379923006,-0.0581661666,-0.7003229447,-1.1089074354,-0.7622644105,0.5942791302,0.8291684712,0.6713240289,-0.3879892983,-0.7939999455,-0.1214519726,-0.3878534916,0.2629663828,-0.6429329905,-0.0282668675,0.5986087986,-0.0731498636,0.891799161,0.8682110836,-0.1659148993,0.1946800218,-0.9587679976,-0.2167149866,0.7542354595,0.642491366,-0.4435029414,0.44760768,0.7634213897,-0.0477120604,-0.1820598708,0.2689524328,0.49535374,-0.9610249332,-0.0294947133,-0.5452814438,0.8838407392,0.1747749119,0.0673753698,0.119288035,0.3542828494,0.1144539592,-0.8561335664,-0.6255880312,-0.1208033276,-0.7800537626,0.2950014935,0.7426427648,0.1384434445,0.5843484055,0.2739428106,0.9865102345,0.1078202297,-0.9338614271,0.0756401646,0.6418524612,-0.1836741525,0.2802931998,0.7206013428,0.1302563897,0.7640651544,0.7617943638,-0.3214284859,0.7302610339,0.0838622127,-0.7655683431,-0.6384546755,0.8757108209,-0.6336985964,-0.6854822943,-0.5631536458,0.3275404512,0.7175583842,0.606778081,-0.1307207389,-0.8298803352,0.0446563656,-0.9604644846,-0.5664108442,-0.0447525889,-0.7073699871,-0.2302644576,0.5406492971,0.740543905,-0.7798379542,-0.4683875073,-0.4415071383,-0.3156773197,-0.0477573073,-0.790803256,-0.6501256944,-0.6700782069,-0.4646569427,0.8171667954,0.5779913607,-0.5097222438,-0.8791868535,-0.1439783091,-0.5900284609,0.28921715,0.438382102,0.0085091638,0.8858568488,-0.3811833585,-0.4254139981,-0.246481913,-0.9355849498,0.9007530806,-0.9639386464,-0.9920533881,0.1300759755,-0.5599629497,0.4110031908,-0.3398125178,0.3532258052,0.4366564095,-0.7847472893,0.536114392,-0.6866415748,0.6255141416,-0.8313828205,-0.5896808745,0.2171339964,-0.0707077579,-0.8664179372,0.1951187153,0.761090377,0.6396634572,-0.4276616054,-0.6735731287,-0.608854727,0.0543450071,-0.8162910579,0.4054213885,0.2209509011,0.7590548656,-0.2009344875,0.8363823806,-0.4036950788,-0.4359459289,0.3681611532,0.4382366736,0.6425995765,0.0271935261,0.3139858515,0.109134887,0.0640254601,-0.9843353975,-0.2635474622,0.4061574565,0.4563967607,-0.5762037562,0.0442031245,0.2023270643,-0.637123608,0.5724008172,0.7107874294,-0.7294358907,-0.5784397256,-0.2569350979,0.0225484409,0.9762625698,-0.6891139648,-0.9988887745,-0.6295817109,0.8253968526,0.4919295809,-0.3724954347,-0.027343166,-0.831882073,-0.6590425866,-0.5322493152,-0.4489488266,-0.2575766684,0.120490575,-0.5191238977,-0.4050248505,0.1699302799,-0.1666095637,-0.8810977567,0.3619345157,-0.572155837,0.1401725643,-0.1634869116,-0.8420188168,0.7128050929,0.767022828,0.6314279097,0.1406727506,0.3763716733,-0.44544802,0.5999321287,-0.7784584267,0.1289539416,-0.6128595326,-0.0313494789,0.3875927434,-0.3803568599,0.8516093308,0.0378167771,0.6103790919,0.0951184455,0.4468621409,0.5347833119,0.5791492809,-0.8321951978,-0.2804109017,-0.1786864589,0.7659280215,-0.2484526565,-0.2695570349,-0.3944867784,0.66218252,0.0576924964,-0.5751032825,-0.2884115641,-0.9084577547,0.8065138559,0.5975681406,0.388569775,0.8910629412,-0.1646053417,0.2744669707,-0.7471855159,-0.4362252586,0.0788238242,-0.3103778955,-0.248173435,-0.1220665351,-0.9046201636,0.294186752,-0.1957926207,0.4754346531,0.9401010315,0.9921947231,0.5447464621,0.5537253913,-0.763610556,0.4606808753,0.6830219818,0.4342010716,-0.4041100928,-0.2256372507,-0.5869156445,0.2277596632,0.4448515842,-0.6645731315,0.8175146464,0.3697314884,-0.5751161703,0.8910497842,0.8637765932,0.4540620762,-0.0211619836,0.7408742014,-0.6549313279,-0.3005320449,0.199052912,0.1744756838,-0.8311065057,-0.5929530389,-0.4145237732,-0.0661494999,0.8362247126,-0.0359752507,-0.9793654615,-0.9463676746,0.6788414845,-0.778830918,0.0950781111,-0.6191146919,-0.0991695442,-0.8158951946,-0.6184924233,0.1981390125,-0.7299225744,0.6226922793,-0.8735935941,0.9764122826,-0.8270834943,-0.2884191243,-0.1162236118,-0.2604235023,0.8635594888,0.6203628775,-0.9713069074,-0.0545683036,0.7646896861,0.1608872813,-0.1193464249,0.830273202,-0.8248483841,0.3955577809,-0.5805365767,0.5709356851,0.8750775121,-0.2899106745,-0.3206127422,0.7076613317,-0.2350947846,-0.0031450153,0.102996947,-0.4073735609,-0.5163563588,-0.4124055254,0.2412763967,0.7977197954,0.0075348837,-0.7222928751,0.2534568463,-0.5716003262,0.4141691086,-0.4737455375,-0.4246169403,-0.7786593646,-0.7638343193,0.7851189499,-0.3740280572,0.9572454685,-0.6696552606,-0.3466378604,0.3650633461,0.2034124028,0.4549630492,0.90752186,0.9247107556,0.043559897,-0.1813690367,0.2364229759,0.2372922101,-0.0282452353,0.6293469229,0.9443604268,-0.3343090816,0.1429555289,-0.9256893209,0.2242205546,-0.4397676627,0.1741950728,0.5115214305,0.2448795051,0.191830608,-0.2926225686,0.4372222744,0.4797120056,-0.2301554208,-0.5855442072,0.8046572325,0.5883495365,-0.2411156704,0.8775850653,0.9073974428,0.5589660294,0.924423834,-0.1006311019,-0.1115063862,0.0078553937,0.4347304248,0.8015949277,-0.6218398457,0.2687522382,-0.0382156569,-0.885461858,0.1038501676,-0.8322171222,-0.9654478429,0.2074739896,0.5657631946,-0.3261639331,0.5825922529,-0.1107764777,-0.3940638338,0.6253144603,-0.6539482119,-0.9180460542,-0.9354072472,-0.8228642168,-0.021818204,0.3969380029,0.391896104,-0.3932531859,-0.0458289128,0.7890488808,-0.7442462769,-0.2994230516,-0.9500356619,0.1539272467,0.276645836,-0.4737994334,0.2679386878,-0.001319189,-0.5109840261,0.1394430893,0.3658972844,0.0210032772,-1.0280101511,0.3809270222,0.5638821619,0.7560116528,-0.213924008,0.0206026009,0.3889386418,0.0066563138,0.0388845671,-0.929184094,0.3644185562,0.0070819196,-0.1854894057,0.8751315574,-0.8978033906,-0.5773556448,-0.0836989738,0.3834749173,-0.8039803742,-0.5616704181,0.2882419981,-0.634085117,-0.6570294961,-0.7877176457,-0.7334178172,-0.7342301798,-0.0876889686,-1.0008890091,0.47927253,0.7248984616,-0.6801261608,0.9208691206,-0.3818383497,0.601329151,-0.7349095404,0.4699270682,0.3268247529,-0.72582358,0.500861597,-0.7542340223,0.4422825907,-1.0599685831,-1.0042927743,-0.940691798,0.2403054797,0.1085955366,0.2111510415,-0.4461395429,-0.105076299,-0.6136699222,0.4584144837,0.6908366892,0.8545832351,-0.5056228321,0.5533112889,0.8143132192,0.5049203195,-0.0750141216,0.4515842876,0.7695047684,-0.4430252981,0.6588187567,0.052782136,0.0169894642,-0.6869479015,-0.1079188647,-0.6994412287,0.9124408959,0.2254851653,-0.4889615272,0.1062352612,0.179677167,-0.1317977139,-0.6042019502,0.7052372551,0.226641936,-0.8271735411,-0.9056596047,-0.3777354513,0.1866842708,0.1272770928,-0.7318684791,-0.0919478778,0.5203178353,0.7623148295,-0.299214316,-0.7710349195,-0.9929566806,0.4698470776,-0.2557137518,-0.4036054925,-0.9738121625,0.4801917969,0.3535875961,0.4863461256,-0.4879730444,1.0967055105,-0.1899479333,0.246312298,-0.8208807796,-0.0989125997,0.7349765262,-0.9082984415,0.5726231718,0.3642933888,-0.6064739066,0.505014603,0.2625684977,-0.8730262203,0.6391278585,-0.0215956995,-1.0119414579,-0.0440157332,-0.5497888321,0.5564578115,-0.3733647201,0.7637909647,0.2771233585,-0.91633666,-0.4133499442,0.7309171751,-0.1235551074,0.3187274491,0.5502362164,-0.1927390438,0.2748875792,0.6803200178,-0.966509438,-0.9852139925,-0.2986519449,0.1384732115,0.2727363514,-0.1357079353,-0.4312788719,-0.4778124654,0.2914888601,-0.2012505904,0.387244313,-0.5882161731,0.0550040202,0.873555314,-0.5887180994,0.8417985454,-0.3278831029,-0.9615709622,-0.7459873933,-0.908965179,0.837447302,-0.6014829533,-0.568816789,0.4567404869,0.2034697969,0.7500876706,-0.3996657571,-0.2349458591,0.0564645952,0.0575066771,0.4475890482,0.2818740498,0.4764464018,-0.1087571111,0.520427556,-0.9153832214,0.7615931058,0.5914232279,0.1560869004,-0.6093029659,0.8075828406,-0.7608199412,-0.3835801878,0.4242698302,0.1285103538,0.7457530288,-0.7361000877,0.3513099587,0.0707006439,0.7475411624,-0.3785782742,0.870233898,0.8892442989,0.8699502416,-0.5221145969,-0.7166994958,0.7175082092,0.0965672301,0.2317272821,0.6133834979,0.4127089079,-0.2701771174,-0.575014605,-0.2653633657,-0.6361548933,0.1285103645,-0.1386986883,-0.542023811,-0.3822033822,0.6511394514,0.7356380815,0.6795375235,0.2754088537,-0.2134362251,0.4375561246,0.6082815887,-0.7469623337,-0.6753951194,-0.056742718,0.764178072,-0.1120928809,0.5365837011,0.1242082691,0.8036413373,0.6291885348,0.0171328182,0.7751980763,-0.433529615,0.8745641114,0.2448671567,0.8040770036,0.2361969512,0.2294281469,-0.6419674996,-0.629357262,0.8698899779,-0.5216749261,-0.5947163812,0.9786920702,0.5714487898,-0.7524228332,0.5970684673,-0.4271006337,-0.5543768135,0.0439569706,-1.0887855894,-0.2249652513,-1.0999726137,0.4001594403,-0.8959443859,-0.2640851826,-0.3472258415,-0.9435655105,0.072804536,-0.0319819506,0.0702257505,0.5426811481,-0.5128052038,-0.7416244201,-0.5578086737,0.4236529163,0.9015773193,0.859592123,-0.4977804639,0.3832809748,-0.5651892281,0.5362937651,-0.238933224,0.7899501898,-0.8438754536,0.8121883809,-0.6563940483,0.7238547795,0.8368341173,-1.0222190252,-0.1871262653,0.2351327363,0.1117098292,-0.7762694326,0.4037800987,0.2612972092,0.613669581,0.848291086,-0.557521922,-0.9189491961,0.8580947365,0.4136929808,-0.8705789872,-0.3039190099,-0.9574000552,-0.4846713662,0.5763417036,-0.8504551639,-0.8413794538,1.2900863051,-0.4265530317,-0.3570687085,0.4784385805,-0.7934613812,0.3759888047,-1.0295275766,0.905130361,-1.012245088,0.8095148101,0.856585172,-0.2156206239,-0.831584238,-0.5563605328,0.4678335662,-1.0527429812,-0.0525057309,0.0907800406,-0.2951404263,0.3413874561,-0.3970081089,-0.0956644127,-0.1725748307,0.3775820844,0.5904755229,-0.3267152732,1.0919452982
   -0.0305719229,-0.3070454582,-0.57467758,0.8275002005,0.7276332601,0.1051185256,-0.8139395667,0.8412139587,-0.9980664261,-0.4057753101,0.7214277084,-0.241697488,0.0596168731,0.6221624957,-0.0282764711,0.0534157452,0.1993408561,0.4233930642,0.6940601129,0.5166465767,0.8835454878,-0.8043242024,-1.0548296844,-0.865257651,0.8027072247,0.2236555086,-0.8422892212,-0.9957638129,0.1330106017,0.0419509573,0.1876721261,0.4778480767,0.5380797594,0.099662173,-0.3157168888,-0.8005730743,-0.6907047371,-0.137404254,-0.4338064556,0.4212204033,-0.4417823141,0.1197369403,0.8719983436,-1.0257851182,0.2856503446,-1.0191145302,-0.7233512203,0.3201226237,0.9151294708,-0.016639234,0.0723635534,0.2246762084,-0.0509569972,-0.2855699385,0.6863696978,-0.2264890649,-0.2475803531,-0.6869508998,0.3118824499,-0.1030496601,0.8186512177,0.1097001895,-0.0591168149,-0.9431224468,0.593398411,-0.8553731777,0.0684901599,0.8850412173,0.6115133766,0.1399797774,0.304738397,-0.2528874211,0.4352463535,-0.535748131,0.9441327697,0.3859140863,1.0070647277,-0.3510736114,0.733776185,-0.4377318648,0.4824345399,-0.9299424715,0.0894388404,-0.3379687656,-0.0120061297,-0.4027271152,-0.5259542097,0.35432496,0.8665814146,-0.0467785173,0.6048393915,0.0884110047,0.5561407232,-0.1133275629,0.8110180354,-0.0365807638,0.1343177735,-0.8401029937,-0.1425515537,-0.8693038358,0.0051948098,-0.3002240711,0.3763453045,0.4808289623,-0.5433081083,0.864369383,0.787811809,0.3436279241,0.3812668892,-0.7337521727,-0.7417590849,-0.0050812766,0.6200153667,0.3150421768,0.6495145367,-0.6203827106,0.0954308912,-0.1297484716,0.4533058243,0.6794538079,-0.0350466698,-0.123332673,0.4975653254,-0.0138917278,0.4674899594,-0.0933463623,0.3566321002,0.9189220446,0.4764828343,0.9353684065,-0.868234182,0.0022018218,-0.8100355189,0.8451229664,-0.9659895981,0.8889182491,-0.3035950432,0.1850642836,0.8756957756,-0.5287287004,0.6320112174,-0.7147367574,0.0034568475,-0.7456660826,-0.2199438567,1.0473441732,-0.3696186896,0.0808869325,-0.2798770904,0.8951250146,0.6482896621,0.5537942112,-0.5400965833,0.1854741396,0.9286873352,0.2854273608,0.0062283323,0.4508743122,-0.4401007906,-0.5733196073,0.081231151,-0.3218554385,-0.1392835715,0.2074068766,-0.3760037529,-0.2056103859,-0.653515081,0.79554939,-0.4538503165,0.3752302848,-0.8513167098,0.1320790987,-0.7119238499,-0.0898024111,-0.1189626887,-0.9427486106,0.4626996817,0.1762976085,-0.9354834201,0.4669854522,0.3217907916,0.8318948072,0.8316914908,-0.3696604266,-0.2197902271,0.1493209317,-0.4734040871,-0.292570053,0.6392453648,-0.2419463013,-0.6466929519,-0.6188982331,-0.6315414683,0.5780345487,-0.0029073039,0.4521009645,0.74295291,0.7513709428,0.2291738374,-0.5368277621,-0.4727801642,0.7890847889,-0.4400890421,-0.6286534409,-0.2533464289,-0.6690659339,-0.1614413494,-0.9011108487,0.9850494741,-0.9629432831,0.8819832287,-0.7585615485,-0.6616535549,-0.1437582153,0.1333811181,-0.3820761604,-0.5951102708,0.8791007729,0.2421557035,0.9423415067,-0.1863712833,-0.1508565789,0.6952543737,0.4313611785,0.8175891725,0.8563978663,-0.4883233031,-0.5665858834,0.0513760042,-0.0865824842,0.674019841,-0.9477527791,-0.0965027678,0.6227020004,0.0670079206,-0.2223368032,-0.5243077741,-0.2314601725,0.8127601124,-0.91467137,-0.0697291664,0.9436920196,-0.9649829692,-0.8812666793,0.2346502228,0.1982861093,-0.5492552761,0.2338715189,0.7635989531,-0.3323917896,-0.9760970656,0.7005889108,1.0202631987,-0.8843551506,0.5944831437,0.2758281201,0.8720078363,-0.2975304525,0.2770736754,-0.1329098229,0.9022005106,-0.514359998,-0.3966529644,-0.8887094932,-0.6894339065,-0.887524581,0.6689203795,0.053944689,-0.0797297853,-0.5857553348,-0.2365497072,0.7153096277,-0.290749297,-0.9712530517,-0.5298816862,0.7759596602,0.4531006164,0.051986549,-0.2556393483,-0.8336035615,0.3335813263,-0.3409789768,-0.1595024021,-0.094317259,-0.4458103637,-0.1660415533,-0.1519148159,0.6272376165,-0.0066476045,0.3685126325,0.3409564373,0.4421087239,0.8306649783,-0.3221055475,-0.0191898125,-0.6508755581,0.1421963501,-0.5671548316,-0.8283874872,0.9039628756,0.5286310895,0.5488807372,-0.3428115726,-0.132648032,0.7862739255,0.4845675705,0.1441029451,0.9664815744,-0.5393581626,-0.3746625328,-0.0531403999,0.1325324338,0.5490122206,0.0889723864,0.6449631974,0.575888963,-0.954992631,-0.217614657,-0.4401636247,-0.8354792389,0.6278502764,-0.0152773852,0.5745984752,-0.1246614761,-0.7276323537,0.6786219659,0.7619991892,-0.5428376161,0.8546080215,0.7933966773,-0.3148813223,-0.9743283802,0.8336937924,-0.8530145557,-0.5699487406,-0.2707851484,-0.3985067225,0.5295325306,-0.99791057,0.3398009312,0.7089126132,-0.8879231646,-0.9687816902,0.8105306201,-0.0993849784,0.1432333073,-0.6596987448,0.1647005761,0.9192132752,-0.4123646566,0.6280065047,-0.3888956043,-0.7649733701,-0.2988608123,0.0538493839,0.8938416362,-0.2540241161,0.6960453135,0.881042136,-0.8640565401,-0.1085038763,0.3509663777,0.1006515648,-0.8688361487,0.0831184337,-0.3614346078,0.0404360693,0.5149829427,0.610933541,0.3533208044,0.0117627512,-0.4104782857,-0.3632499794,0.7151582005,-0.0600702812,0.9233785616,0.7391218217,-0.9593783508,-0.0135402024,0.9566606886,0.5313568654,-0.6798066746,0.0210471694,-0.3397876635,0.2615190593,0.8723330882,-0.3810706954,0.0975210946,-0.4973206852,-0.0546016951,-0.660571213,0.107531144,-0.2748365329,-0.6308095288,0.371336174,0.9205172063,-0.1911303401,-0.2017190722,0.9126526748,0.5949015803,0.4369061098,0.7954376404,0.8763943419,-0.0808214992,0.4751351855,0.3014950889,-1.0616130359,0.7396038942,0.3746337841,-0.9076101579,0.0969700247,-0.434725019,-0.2875821029,-0.8810380782,-0.2157029181,0.5695682149,0.2673310498,0.6194561665,-0.6488148659,0.8090296864,-0.7297240925,-0.8035139469,-0.8690286781,-0.6569465503,0.4238702303,-0.7627902454,-0.4655779536,0.3046927886,-0.916540153,0.4405407856,0.1542338015,0.1154661173,-0.6335347711,-0.4651862361,0.8970391884,0.4785368953,-0.733894946,-0.8868396231,-0.8515169947,-0.4024723707,-0.1587925191,0.8114730889,0.8296579187,-0.5953561465,0.2111726611,0.4415411721,-0.3347593111,0.3598832266,0.8099015521,-0.9095764074,0.0532417936,0.8539199587,0.4594389985,0.3005648177,0.4476228861,0.4834164285,-0.5430306485,-0.8865653159,0.3559626652,0.5612172805,0.7927826554,-0.7184515447,-0.53108637,-0.1165890609,-0.8172281595,0.3393047712,0.8347757364,-0.3898004439,0.2486451339,0.7213714773,-0.0958819424,0.254534844,-0.3954267558,0.9357136129,-0.2123171342,-0.9648009271,-0.0305348905,0.6488881104,0.2030783836,0.8703916636,0.5604520005,-0.1786715093,0.7498847196,-0.4736044165,-0.3917640785,-0.174048932,-0.1479363091,0.8120185877,0.0547710783,0.5880011054,0.4343723612,-0.4493689267,0.6454601341,-0.2889930007,-0.0781235333,0.8597656891,0.5275007778,-0.4100511136,0.8164285039,-0.8920026044,-0.9971943528,0.5155143677,0.4435171901,-0.4875116726,0.3085132625,-0.1335576941,-0.939951392,0.3477085781,0.8118105004,-0.858944435,0.5349168218,0.9916782361,0.1608844969,-0.8120003396,-0.4379145524,0.5495658015,0.2334714696,-0.7683274561,0.7847049355,-0.7817134333,-0.9775491469,0.0553712998,-0.0707815807,-0.8321547088,0.2645700007,-0.922796795,0.9008597886,-0.134546525,-0.0028245485,-0.3244876569,0.9855022292,-0.8623640335,-0.8217947671,-0.1099141971,-0.1400110412,0.2933996192,0.5927392803,-0.0256931769,0.7492734056,-0.7765014742,0.1920414274,-0.6827287981,-0.1961947754,-0.3995206532,0.2495641552,-0.4011306487,0.6395446222,-0.1053215618,0.4190567401,-0.1485622282,-0.0369385162,0.59604485,0.8334542115,-0.0855609818,0.9756408647,-0.7078403461,-0.6991852839,0.9039512439,-0.6754314275,-0.1858086824,0.3699733261,-0.9998451242,-0.4904852501,-0.6790344486,0.4764121348,0.2274807802,-0.6679691468,-0.5111868158,-0.9107671761,-0.3408345463,-0.8204322174,-0.4145592436,-0.1950833474,0.5572422374,-0.8614108806,-0.4223983058,-0.5267772253,-0.5916572511,0.1231873465,-0.5951966197,-0.6571391654,-0.7371380552,1.0024006624,-0.1682223702,0.1832829244,0.5441122257,-0.297021502,-0.1662022211,-0.5993694848,0.4487122427,0.3801725752,-0.4120512264,0.1263888983,-0.0521832825,0.5028031541,-0.3594247816,0.4689755849,0.9327103959,-0.0468833003,-0.0101544331,0.4499272145,-0.7320428405,0.3074832905,-0.7099572242,-0.7088584286,0.2526649463,-0.3067459967,-0.1196625456,0.4599288743,-0.9106821802,0.15224295,0.9920460645,0.8097854019,0.6636155502,0.6589870962,-0.2441658643,-0.2825655428,0.3381215596,0.2382429727,0.6779005649,0.1912624529,-0.8561608006,-0.781608552,0.0887564562,0.0113098481,0.9095687985,0.1022006405,-0.0333924675,0.8202919832,-0.6180015824,0.9400759998,0.6854619079,-0.9157967898,-0.6445527325,0.2064979227,0.2338393115,0.29633449,-0.2043877476,0.5758234461,-0.6731942455,-0.1409254577,0.9543035024,0.8653362294,0.546930434,0.4544565897,-0.4895274214,0.2117409099,-0.5458451256,0.0710960034,-0.309973035,0.7941580437,-0.298431149,-0.7010662651,0.3817098069,0.9832542759,0.2044042602,0.5802973013,0.2740536381,0.4612027008,0.2199732064,-0.8408557575,0.9728361983,-0.634406266,0.4545737108,0.3189894498,0.133027078,-0.5906760141,0.3171213298,0.4694115851,0.5764046515,-0.9914241627,0.79405646,0.3121198674,-0.582514541,0.4061161816,-0.0414931277,-0.0801536223,-0.8073720872,0.786883208,-0.3908054854,-0.1127436671,0.9219963624,-0.5577619715,0.812171517,0.4385660675,-0.4498508116,0.8169027095,0.8262529083,0.4706937315,0.4331309563,-0.2808349719,0.267737984,-0.8403057714,-0.9325308811,0.3929866735,0.2310794216,0.1051487321,0.0450646659,-0.3374184085,-0.573068678,-0.5619513908,-0.0095424303,0.057793546,-0.7033605004,0.4287091392,0.8101428759,0.9152961209,-0.8798487271,0.853529327,-0.8968229517,-0.4439213169,-0.8061859087,-0.1939491988,0.6232291675,0.3386966082,-0.1063888023,-0.8270039193,0.0469544514,-0.1423552697,0.8422156952,0.5525903706,-0.2188989613,0.0133382401,0.0111962707,0.4308518148,-0.8535023686,-0.8328022038,0.8333454844,-0.6786288965,-0.4952094385,-0.7619305841,-0.5695313947,0.8495231985,-0.5807799355,0.8741140005,-0.4108674502,0.934934915,-0.2914320654,0.530803029,-0.1030425784,0.87774004,0.6277532263,-0.3816075771,-0.9095245676,-0.0165552321,0.630776735,-0.1479456683,0.8564179476,-0.8377583944,0.8061186572,0.8439748295,-0.7321449607,-0.8323058023,-0.3529871219,-0.6814531316,-0.1569611936,0.3878996849,-0.5870682791,-0.3015368763,0.0455035989,0.4709942006,-0.5443240869,0.9610349814,0.7410557102,0.877221773,0.8638186665,-0.7843754686,0.8622981776,-0.4988481424,-0.9336033903,0.3366399278,0.0142432353,-0.6408182571,0.4933689467,0.5922503931,-0.9265994008,-0.9471323584,-0.8026079923,-0.6971827198,-0.9846191945,-0.0628726308,-0.5370555066,-0.5930749539,-0.911811015,-0.2916409327,0.4404857476,0.1158116502,-0.0942887879,0.0186152278,0.7838541502,-0.4568877552,-0.1604153664,0.776714904,-0.7506403879,-0.6736172823,-0.2733241824,0.500293597,-0.6783600349,-0.7555405309,-0.636164625,-0.6919795798,-0.1197862361,-0.1429777235,0.3201767671,-0.6143220465,-0.2382445041,-0.8937192481,0.4145041787,-0.3960164436,0.4615605575,0.9654611833,0.4092646842,0.1708440536,0.6642469849,0.0505170435,0.6193718166,-0.6955789157,0.9672122525,0.2560058874,-0.4868371663,-0.2878334633,0.4091988922,-0.6459055376,0.4523630301,-0.6040708467,-0.8077187049,-0.3279008149,0.1038916892,0.135305169,-0.7703489613,0.6493030279,-0.7475904365,0.194625298,0.8061175967,-0.4909356314,-0.6653411805,0.9387630979,-0.7976584856,-0.1246792874,-0.8429483241,-0.5924685612,-0.6903440147,0.3929822734,-0.6603802921,0.9811905754,0.2444025306,-0.6425048383,-0.8162962913,-0.8208577831,0.0174310486,-0.6888673115,-0.9481614665,0.437937291,0.1193023022,-0.2634316549,-0.8269336764,0.3941270179,0.1408093414,-0.4168380004,0.2017128117,0.860491697,0.4319547798,-0.0031385031,-0.1651231506,0.229914919,0.6749357006,0.875939867,-0.5708809449,-0.900306213,0.6365410291,-0.5077165148,0.6807949445,0.6347987081,0.5679748049,-0.808080636,0.1834718098,-0.5933275747,0.0260636084,-0.1008121515,0.1090709582,-0.0744865787,0.452222089,0.8819921124,0.6980056029,-0.6882439345,-0.2565161954,-0.7584725848,-0.6593960607,-0.1258251507,0.923618862,0.6435867225,0.3587279373,-0.2546490018,0.7520569573,-0.1087600508,0.4400660393,-0.4564796026,0.376844732,-0.5323866721,0.8607373873,0.9506449554,-0.0985249941,0.5435568002,0.3265238487,-0.6322202455,-0.9321800345,0.9110722979,-0.7620825119,0.5326869114,-0.1531300467,0.2557644928,0.7392636333,-0.8791656474,-0.920678141,0.5198780167,-0.9374672184,-0.5930031227,-0.9003138031,0.4663753153,0.2852660829,-0.1061647159,0.3544196035,0.4304412603,0.8855771024,-0.1580677902,0.0230324173,0.7051472774,0.4139709106,0.1542039251,0.6654750943,-0.9462545868,0.0796643917,-0.4310292199,0.8099823578,-0.4017779771,-0.6000625311,-0.3034094834,-0.3632070751,-0.8493421304,0.8350128735,-0.5639153557,-0.4871950821,-0.9645665976,0.3850015824,-0.3336470374,0.7278994153,-0.1721956509,0.2231285026,-0.1860454387,0.0204302949,-0.0143713429,-0.6715550837,0.542627145,-0.7384302905,0.5229652162,0.1240589722,0.3395095472,0.0605068025,-0.4393454472,-0.9290241564,0.1521207739,0.3900075727,-0.9751652465,-0.7059624914,0.0217500507,-0.7951124217,-0.7771378122,-0.7827565512,-0.312555102,-0.8990569149,-0.5142784047,-0.7020584395,-0.7926386097,0.8849972905,0.7846024261,0.3803037083,-0.3617457418,0.2420152634,0.3589353957,0.5817937141,-0.4128614613,0.2095092337,0.3720039067,-0.2872191362,-0.1068143119,0.4822768791,0.4929874163,0.3939839161,0.1922143564,0.7064684536,0.5123075991,-0.2683414191,-0.3654359925,0.3793191741,-0.9769241577,0.873075319,-0.5988553058,0.9137818157,0.020380311,-0.8160974555,-0.5896631772,0.2876997729,-0.5192831508,0.9662268974,0.9205489647,-0.2519833876,0.0801854606,0.0484451596,-0.8656461986,0.4200505703,-0.2897199893,0.4672633549,-0.1745822212,-0.1140025752,0.2118350041,-0.9490320053,0.0174591476,0.853527646,-0.0859987265,0.0337301062,0.457080526,-0.2248075682,0.3046649931,-0.2583910552,0.653145004,-0.5278709392,0.6213677501,-0.8505142344,0.7708939005,-0.2446369338,0.4743541866,0.5552375322,0.9634958013,0.0379169431,0.7272279102,0.1530948362,-0.3426018303,-0.1178951039,-0.4916937738,0.7315223632,0.212973609,0.1251938713,-0.5745333917,0.2232335218,-0.3883611855,0.4819151526,0.0678546709,0.3741831534,-0.9863687434,-0.8156835766,0.3817013609,-0.6337470247,0.4269639011,-0.9158856062,-0.5472046057,0.4277290711,-0.6849821588,0.4961052413,-0.5913297686,0.4606150763,-0.7779206783,-0.435034937,-0.6165602778,0.6719766,0.4139201271,-0.8397504083,0.8051592233,-0.8002397522,0.4839198738,-0.6162165936,-0.3555285103,-0.2559839055,0.9659795203,0.1635355983,-0.825136825,0.1597715624,0.0021920765,-0.0354249284,0.5514282517,-0.8897922999,0.9429505744,0.3130020552,-0.5408745793,0.7087626058,0.9551985097,0.5257963158,0.7235122983,-0.9019640399,-0.4262787941,0.2625486533,0.9439330538,-0.8934777245,-0.1675742755,0.3986050857,-0.1637656378,0.4881364249,0.2471477564,-0.4506122392,-0.2270708084,-0.0368714732,0.6955640926,-0.0396850404,-0.6826432011,0.0777690195,0.8339011432,-0.5689000175,0.4370223659,-0.0065617279,-0.7390205168,0.5523166875,-0.3606947648,0.7467748806,0.9307886438,0.8170572133,0.0765677184,-0.6852951481,-0.3663121309,0.7105129634,-0.2639529832,0.7150364882,0.0688013983,-0.0713486643,-0.4666404348,0.4220109636,-0.0677926403,-0.642512672,-0.5536699439,-0.1073325087,0.0284590418,-0.482843494,0.6326720971,-0.7104746371,0.3905669128,0.1251207515,-0.447203136,-0.6950377942,0.4573415188,0.7681146143,0.1537292675,-0.6492481306,-0.8758640276,0.7780050275,-0.1364818475,-0.320162666,-0.9890123815,-0.6372348004,-0.1503118513,-0.4853366534,0.33358854,-0.2908999971,-0.9109763066,-0.8294476858,-0.714370246,-0.5850459122,0.4506719673,0.1567138397,0.0358264501,-0.0721759741,0.9237774773,-0.63981871,0.8579819974,-0.492155007,-0.3565586163,-0.8834595791,0.3060708798,0.7147931639,0.0722192931,-0.6480248715,-0.7416957153,0.7831659896,0.0863763484,-0.2893400319,-0.8293341683,-0.1951678609,0.092642161,-0.3159837001,0.0358066271,0.7192754219,-0.5874710737,0.7256410356,0.6442059181,-0.502375387,-0.233319598,0.3780812301,0.404268164,-0.6655127043,0.1656187915,0.3989024506,0.6673280901,0.5916812688,0.5997832554,0.9024325721,0.3753546798,-0.8897733921,0.0719848342,0.4642748067,-0.8061601869,-0.590956167,-0.9188870566,0.228105877,-0.9028065048,0.9924928827,-0.4919405526,0.0925869344,0.1155511036,0.1472431499,0.7783571377,0.765717516,-0.2580261756,0.400312031,0.0261209357,-0.0470803863,-0.6887514784,0.4355139332,0.0169709367,0.4265083374,-0.1836725902,-0.8063188672,0.1049466894,0.1587938105,0.6122070056,-0.2088643342,0.7419301073,0.4932625432,0.7373725631,-0.2335762015,-0.8219593519,0.3293658337,-0.1730219146,-0.7747758231,0.8745991277,-0.0471398949,-0.3353505248,0.9032607293,-0.3207363519,-0.4920436908,0.6892705682,0.3109840088,-0.0019487876,0.9580629378,-0.0254486208,-0.0927586194,0.9546186099,0.2260620699,-0.8904048828,-0.8910223792,0.4619744433,-0.7395941569,0.7089116171,0.5347247636,-0.6272487983,0.4871998959,0.6313126331,0.0704123364,-0.3989636509,0.2753517534,-0.6389604745,-0.9872973818,0.2503003736,-0.2450276158,0.9849951945,0.1759266591,-0.2835311196,0.5372048669,0.856677569,0.0349121866,-0.1428439277,0.965048287,-0.1623128918,0.8462120531,0.0824080089,0.2624233895,0.4097455128,0.7468794121,-0.5347011153,0.378707737,0.8050230718,-0.0109315969,0.9233522837,-0.9049232419,-0.873110972,0.845985601,-0.7149600705,0.3610641772,-0.5216377942,-0.0347355805,-0.5389922126,0.1498484962,0.0829795221,0.3678920705,0.5078438771,-0.2605912923,-0.5800681833,-0.3796495785,-0.1338075874,0.0010131479,0.2978053995,-0.0930940182,-0.6786037345,-0.5563017043,0.1368075609,0.1895681989,-0.7159512279,0.6970413955,0.8516164798,0.4995033214,0.8252119371,-0.0511842535,-0.8383221678,-0.3869357757,-0.171923219,-0.2473273817,0.6589919195,-0.4148542204,-0.8804677192,0.8084286707,-0.0944821993,-0.0191302605,0.5804260943,0.1559472821,0.6880837777,-0.6509702776,-0.7148469307,-0.6948075351,-0.1105522934,0.0512396428,-0.4078092862,0.3433239393,-0.1378093841,0.0288071401,-0.7303842902,0.1260535603,0.3337375405,-0.9914908509,-0.1211322055,0.2787237925,-0.9866697964,0.6100127036,0.2949619639,-0.5661162222,0.9434183818,0.4964867354,-0.5593971722,-0.6893134874,-0.8489089159,0.4788447768,0.1291421277,0.8211733523,0.5559876649,0.6330938255,-1.021330125,0.315661451,0.945017832,-0.5307225516,-0.234500939,-0.5369350186,-0.8279232235,0.0088388576,-0.8502644639,-0.3802974207,-0.753649708,-0.0939212123,-0.8411475772,-0.1580191042,-0.520986638,-0.3272048575,0.1395023704,-0.9773550006,0.8086321105,-0.3380911841,-0.8546920484,0.0197011745,0.9192772958,-0.8474903867,0.0286020654,-0.2146449249,0.3074113047,0.8188903416,-0.4154660028,-0.57397727,0.7098811394,0.4406737895,-0.3398996554,0.6427231672,0.6208649483,0.2484273272,-0.7578013776,-0.7693273005,0.0321038121,-0.0005958405,0.8336345063,-0.299046097,0.2405293481,-0.8982381229,-0.0022954084,-0.3373806266,0.0396406089,0.7520820469,0.3199269641,0.9496509186,-0.1400699694,0.049068997,0.6050726458,0.6623483702,-0.1463205756,0.1019999405,-0.1348735941,-0.8076966946,0.0822284366,0.2073597407,0.7511462469,-0.2550227912,0.5649893715,-0.0823691319,0.1524798949,-0.8362213379,-0.5203476539,-0.8030573437,-0.9135579454,-0.378871716,-0.7681992976,0.5350319588,0.8818645795,0.9454295852,0.6099192968,-1.2311317182,-0.6864773349,0.6302561141,0.8805799189,0.7569264601,0.6920518053,0.0656910114,-0.0339635627,0.3964304396,0.0436457633,0.5599056588,0.5111221048,-0.222505839,-0.8071566426,-0.4537909341,0.0416473179,0.1549715617,0.1020649341,-0.9475251867,-0.0321341582,0.7672792318,-0.9367659572,-0.2288615314,0.6694925983,-0.3798298809,0.6066579014,-0.8374175267,-0.5815170109,0.4101902416,0.8167307343,0.712563361,0.5869551712,-0.7364286994,-0.2296168183,0.0497693733,0.3287093849,-0.825801111,-0.9099886009,0.4791616451,0.143347841,-0.2982849708,-0.4270068783,0.7213938061,0.5603953262,0.5605967396,0.868803719,0.399009004,0.7193378232,-0.7542512327,-1.0425691588,-0.2173986127,0.0467329026,0.691417363,0.2504466371,-0.6592200722,-0.1687645866,0.829169862,0.3322306375,-0.621257398,0.8547036928,0.271514454,0.4209292768,-0.216655436,-0.9507711897,-0.069873157,0.6815971963,-0.626829881,-0.9013389911,0.6260297216,-0.2779483103,-0.1925883514,0.0626044235,0.6797024715,0.4226112682,-0.9340665087,-0.9835025889,-0.3700625807,-0.5360097405,-0.9148494318,0.6524435207,-0.2409894575,0.9624189988,-0.555128391,0.9289653377,-0.2168317174,0.107502032,0.8947607745,0.6813485637,0.4502127961,0.8524793107,-0.9249210472,-0.7426678581,0.138599062,-0.6933954737,0.0797318067,0.1151968742,0.633827962,-0.3224811091,0.1036092999,0.5062162178,0.4688743841,-0.3486647921,-0.9074404502,-0.9765321541,0.8068081855,0.1326024942,0.2952350705,-0.7102537176,0.938587553,0.9053585988,-0.1812715858,-0.4535303108,0.0151165872,0.0800635261,0.9949172476,0.2914838302,0.445312137,-0.0849763171,0.3980748574,-0.0706207056,-0.0631393515,0.1404238659,-0.8856896153,0.3196151455,0.5443585258,0.6239864251,-0.438674456,0.513628605,0.8132362768,0.9512309726,-0.793254038,0.2526278159,-0.8425246305,0.0804089709,0.2996500534,-0.2759674809,-0.480016698,0.9553541776,-0.6105921953,-0.9179268002,0.9882259292,0.3863129606,-0.9571797893,0.0999418177,-0.5192568453,0.5741655993,-0.6130577168,-0.1351149272,-0.7298178277,0.7951575875,-0.2432806704,0.2626372546,0.7291054173,-0.9692407201,0.4955444598,-0.2288625558,-0.2205885547,-0.4088907988,0.1787986344,0.9210777211,-0.0762951764,0.7155368606,-0.3652333582,0.0574028051,-0.8453398806,0.2022931125,-0.6155288963,0.8870085725,0.2783521256,-0.9243309727,-0.7039350046,0.0353815416,0.15479407,-0.8702434797,0.209865582,-0.9542735764,-0.3982661476,0.6514552438,-0.4248549821,-0.681349754,0.5869328612,-0.0243758861,-0.9481542403,0.4075890108,0.3130874386,-0.8872943302,0.1589618254,-0.7174953118,0.5575767716,-0.5913200366,-0.1148919809,0.0474852875,-0.5795116136,-0.8301633576,0.3278303225,-0.388078664,0.8967289805,-0.7647019167,0.2957620476,-0.8340069879,0.5333798099,0.6707706302,0.9539752161,0.0399022487,-0.985304008,0.3313541868,-0.5599975301,-0.9331590215,-0.1713562616,0.5339926254,0.5117103121,0.3903863493,0.8831773115,0.6544490138,0.100839693,-0.948690415,0.112287621,0.7828100517,-0.94553535,0.5845406876,-0.8927481644,-0.7087259682,0.6312240264,0.5687444529,0.7494733995,0.523314767,0.2460027243,0.6266621796,0.8497307811,0.3826998713,0.9894603583,-0.6483192377,-0.259697976,-0.0339745175,-0.6704232467,0.6148414443,-0.0975366315,-0.8127526115,0.697580753,0.8618781679,-0.3784310949,0.4098614901,-0.8499701245,0.7683978444,0.6124319795,0.0545414673,0.9264459051,0.9120036792,-0.408993602,0.2425942998,0.1442404277,-0.6449140383,-0.0498464974,0.418794681,0.2994656556,-0.6718277502,-1.0351652338,0.9721169098,0.3304617799,0.7915204555,-0.5881508294,0.8336117173,-0.585300468,0.0703300199,-0.658540519,-0.8416393628,-0.6372711487,-0.4772662235,-0.6856917055,0.9035665826,-0.0683320087,-0.8557344324,0.4325225707,0.4762355637,0.4349526109,0.1506041409,0.2225951123,-0.6426772422,-0.5622580492,0.6727599889,0.195906734,-0.2856799464,0.3631014308,-0.6811523139,-0.4569795125,-0.0162559721,-0.9155746781,0.8660013394,0.7468020725,0.7133211456,-0.4349618098,-0.1828989539,-0.8113550959,-0.2797327372,-0.4720727189,0.0520801103,0.8101392537,0.4427802312,0.0225154003,0.465585349,-0.3101291532,0.6847405294,-0.9127492847,0.6041230805,-0.2757845318,0.9521185758,-0.6575563935,0.2435054757,0.1729906177,-0.2133705716,-0.3864524641,-0.953737976,-0.6136137259,-0.6183230588,0.6899017938,0.1681509339,0.3405656591,-0.7118049132,0.6811756375,-0.1786706602,0.3088676857,-0.0287542913,0.8762923983,-0.594226449,0.4873626832,0.4810454247,-0.7185238698,-0.0675917814,-0.405745613,0.047024226,0.2621635997,-0.8448509031,-0.4815752417,-0.2662776872,0.125290573,-0.0417917801,0.9310766987,0.0378901482,0.7997192021,0.7542800311,0.9226627332,0.528522724,-0.5426997106,0.7329133198,0.6159577966,-0.5384600999,0.0702836032,-0.3788490598,0.7918621691,-0.583041209,-0.8546862164,-0.7382647131,-0.4777113786,0.9312985838,-0.7658599304,-0.7382283936,-0.2015416682,0.0822390675,0.63975228,0.6032608114,-0.8674271278,0.1172074105,-0.9792542233,-0.7235632689,-0.7847754423,-0.7442935797,-0.2255932763,-0.1637116569,-0.0387778736,-0.4056345835,0.702214519,-0.1343613631,0.6185760746,0.5340796344,-0.8686811357,0.0858455816,0.8016317303,-0.1734190584,0.5367921094,-0.6185387945,-0.2385523772,0.1040665558,-0.733407024,0.5598669868,-0.8300278344,0.0419196411,-0.4209962843,-0.6901761149,0.1920021192,0.1129991376,0.8007538253,-0.4671844505,0.6217535792,-0.6122217252,0.503360364,0.2963416122,0.0420869358,0.7581743466,-0.5205839483,-0.9499384932,0.9106146631,0.0184200994,-0.7222276803,0.7172918733,-0.300143449,0.9904760956,0.5766734029,0.8214727968,0.0192620961,0.6985758052,-0.9863819504,0.6630097673,-0.2551989303,0.4195753231,0.1367244276,0.3318408768,0.1462896158,0.9528986502,0.2131116894,-0.0583511195,0.9861385659,-0.5100756297,-0.2721946192,0.7263121095,-0.2974490784,1.0016305496,0.3508834517,0.093019738,0.450181331,-0.7855921649,0.0126924844,0.8788011822,-0.6854203774,-0.223300518,0.2458049593,0.3573837181,-0.6191292147,-0.5934164193,-0.9788275287,-0.5692181271,-0.1441893633,0.9418572131,0.0116639859,-0.2977619207,-0.7690645341,0.592984083,-0.2009719965,0.6762761989,0.3858752746,0.9088789153,0.8384968736,0.8133034104,-0.2951599037,0.0300524321,0.7171483927,0.6599317859,0.206369215,0.7149661849,-0.7918688412,-0.0158378034,0.6788052902,-0.3424397108,-0.6087347042,-0.7785160971,0.8092886034,0.1522948652,0.814327586,-0.3220969811,0.2927867012,0.1590988101,0.4148688935,-0.2581857171,-0.0591125999,0.0385697198,0.5643893601,-0.6035774716,0.870882041,0.9340868124,0.3627400601,-0.5264448558,-0.4620762626,-0.704991056,0.5959741623,0.8091217208,0.9688570038,0.1080028006,-0.1034072685,-0.8292371692,-0.2140152279,0.0140608339,0.2292889276,-0.7986650393,-0.6363886236,0.489050165,-0.2704593584,-0.046806932,-1.005670833,0.8631791777,0.0571787406,-0.5317351575,-0.9282343749,-0.3545714053,-0.5462493474,-0.3186883024,-0.07155737,-0.6961366628,-0.1585880912,0.6373116802,-0.715219214,-0.1991181004,-0.0153437838,0.6196354168,-0.7462978188,-0.495480965,0.6043719028,0.8201413271,-0.558661766,0.1088394223,-0.5344910782,0.5429583062,0.0122840833,-0.1052812184,0.5532145624,0.2930772153,-0.8195777469,0.1073728922,-0.8120887638,0.9681856357,-0.3636955058,-0.9690472043,-0.8601493017,0.9272536061,0.378123341,0.2759519629,-0.2708023488,-0.8623395645,-0.5642264342,0.2669935453,0.9967672946,0.3006358752,-0.8776290428,-0.2384624386,0.8323148088,-0.0052141455,-0.8401374698,0.9148525758,-0.0331465881,-0.2572320383,-0.2721715665,0.4381600473,-0.5059504936,0.2024316977,0.7223809746,0.7112169942,-0.6815547226,0.2616169749,0.7304588616,0.8864431295,-0.0738295786,0.1699705142,0.2623399015,0.0752608257,-0.8149206965,0.6155470014,0.8376232669,0.4128380155,-0.4443342984,-0.0162208702,0.1310087054,0.1914442196,-0.8333912876,-0.7054035528,-1.0173011718,-0.9803006064,-0.9905416338,-0.5164921669,0.9023062945,0.9324565189,0.0030565061,0.4554945907,0.5201601869,-0.519499147,0.1516701562,0.217790396,-0.6337395525,0.9018626722,-0.3893937858,0.0032747166,0.6672018564,-0.8023397619,0.07977949,-0.5624778273,0.5363022557,-0.5863523962,-0.6436612336,-0.4170266829,-0.8913277024,0.4530062232,-0.9290945609,0.1266517938,-0.3642832192,0.5098967863,-0.5325593955,0.4619061081,-0.4052887063,-0.0856437701,0.660916262,0.8808691255,0.1195614787,0.9173277777,-0.3450607685,-0.1426386039,0.4257270733,-0.3757536386,-0.4179012578,0.4344614503,-0.353980095,0.1891326236,0.7422217472,0.4084081717,-0.3659244385,-0.590583234,-0.2242853537
   0.6333774199,0.10533964,0.4394544829,0.7844194717,0.6447820271,-0.1901354583,0.7963819657,0.4388568206,-0.5494100154,-0.4003078853,0.6126262565,-0.930375482,0.8221568009,-0.3602265557,-0.7886033707,-0.059594121,0.4137308131,0.4544508193,0.3338762775,-2.6427695035,0.8399531957,0.0871598698,-0.736545709,-0.090205009,0.8350169727,-0.7992961899,-0.1031620713,-0.3298933385,0.3668749992,0.1984677397,0.1606060865,-0.8542402762,-0.2632339978,0.6102489094,0.5453876809,0.6146374395,0.7397578713,-0.4186352499,-0.1710915011,-0.2268047312,-0.1512726753,-0.4542744242,-0.1057044371,-0.8644140492,-0.8641109626,-0.4536621318,0.9209847457,0.9865721668,-0.3804508765,-0.4497944304,0.504825352,0.6020485174,0.2652447857,0.0774840714,0.7929130171,-0.7073252155,-0.7627170068,-0.3233927849,-0.3977651242,-0.391933131,0.758458232,-0.7884537356,-0.4664483738,0.4008182485,0.5553113733,-0.303586744,-0.8802703732,-0.0131553887,0.7616495323,-0.9168906731,-0.0538542449,-0.7649059426,-0.7893532748,-0.5348148569,-0.2578394586,0.7220267644,0.3447939457,0.1926870213,-0.4540590559,-0.0639815725,0.5220055025,-0.9615458325,0.8290908117,0.1663658419,-0.9224919607,-0.7587119305,0.5857080738,-0.16882316,-0.462850006,0.7074742503,0.4931956631,-0.3080846424,-0.8425180083,-0.9928094078,-0.2989924396,-0.7448901571,-0.7981882143,-0.2110098307,-0.0954923606,-0.8357214453,-0.3573697689,0.2139604085,-0.2612865439,-0.8284881909,0.236406955,0.4265294899,0.6569892284,-0.276280648,-0.1574086464,0.0309197011,-0.4939886267,-0.3386045367,0.9292714639,0.5779440112,-0.8958213271,-0.5455214737,0.2955427136,0.4949091139,0.8290411625,-0.4638903303,-0.3134138741,-0.5496666814,-0.4606100301,-0.9890775653,0.3656803777,-0.9167046882,-0.3992185439,0.2290086319,-0.1626025711,-0.3784606283,0.1039570752,-0.5649489401,0.3188057289,0.4885494586,-0.8006633031,-0.5827163839,-0.5233370817,0.9942509375,0.7735280274,0.0669391855,-0.8164719178,0.8291100366,-0.9111875562,-0.8440961064,-0.2706003743,0.818543291,-0.6175580229,0.6951802575,0.8183742889,-0.5036244909,0.5240653183,-0.1766124381,0.2946030258,-0.3081044652,-0.4633734366,-0.6976860024,0.1692180321,-0.7521984965,0.5734758286,0.1482030051,-0.1306463396,-0.4472552611,0.9223348227,0.3045869758,0.6480696026,0.221467791,0.1949916354,-0.8103296863,0.0458883616,-0.3185566341,0.716407096,0.4454804982,0.7567780503,-0.2147046109,0.1587120548,0.3985914172,-0.8799976478,0.7041356916,0.1919694655,0.8261287129,-0.2443442198,0.9429901371,-0.9072848935,-0.7315858034,0.3205651943,0.5232296433,0.3782271137,0.8587508693,-0.1421394132,-0.3496534207,-0.553562428,0.4879233981,-0.3000115639,0.6620622266,0.1782340231,0.3324163811,-0.1376582634,-0.5696493381,-0.4525256401,0.1621066878,0.1548769875,-0.4318589575,0.3106440607,-0.6401543626,-0.1100777446,-0.8608654833,-0.4604313822,0.9388544016,-0.5708528562,-0.6920969799,-0.6500806011,0.4108111681,0.3058698238,0.7886713455,-0.5638388175,0.0790928609,0.0907840824,-0.7677661102,-0.2730551515,0.271027107,0.7739299994,0.3520006785,-0.9946146048,-0.848470535,-0.4080004333,0.0290753662,-0.3062426622,0.1034264998,-0.4317252207,0.2251366091,0.0887905255,-0.1352455631,0.1729583148,-0.2685065118,-0.6281322693,-0.6464871982,-0.0974149942,0.7772659141,0.0714354136,0.4314924861,0.9710447425,-0.2945909824,0.6981133045,0.021418622,-0.157533201,-0.4442696144,0.3148687177,-0.7551603336,-0.0621442415,0.6846315704,-0.5293239507,0.1167311404,0.2320073682,-0.5597616666,0.210888527,-0.5744238745,-0.124759266,0.7320471786,-0.6771172481,0.2109970354,0.8189762554,0.6756255964,0.6430749321,-0.0722320635,0.428578087,-0.7589578592,-0.2591142933,-0.811432703,0.1476303495,0.8460310895,0.5728113697,0.3685915895,0.0877315712,0.9770663668,0.049031683,0.2511369462,-0.3468530768,0.8587468926,0.7474799947,0.6331370707,0.1847204228,0.0287024413,-0.568380688,0.9606672053,-0.4219138703,0.9997586093,-0.2414095931,0.9494527569,0.8998954633,-0.1616804168,0.8747385739,-0.7813798499,-0.9690855884,0.8604194229,0.0408218374,-0.1344041847,-0.7491703489,-0.8139304723,-0.8168436227,-0.7467428096,-0.1151406817,-0.5904702037,-0.1273750619,0.365348225,-0.8972924538,0.2016680497,-0.7420454075,-0.327957335,-0.9074778744,0.9403194525,-0.6233988809,-0.3583956706,-0.9020066653,0.3469612704,-0.5614028196,-0.6072115797,0.1317590035,-0.9053056032,0.5186814225,-0.6840795714,0.9864444994,0.4491217111,0.1819138103,-0.3032741783,-0.476346505,0.8582066063,-0.8924620397,-0.6606411021,0.9660339317,0.5896442317,-0.2826455367,0.1274021002,0.589732147,0.5586522852,0.8050313273,-0.9603555476,0.344120168,0.4522454104,0.1267936647,0.8600646796,-0.5083097714,-0.127315151,-0.9094783064,-0.0707589043,-0.7943679381,0.7114198279,-0.6770822625,-0.0795195393,-0.7790000006,-0.3445126945,-0.6792835849,0.1067819245,0.4625601745,-0.3965416826,-0.9290879704,0.2363007904,-0.3506428364,0.7352532838,0.6742889503,-0.1420551796,-0.1056555126,0.6884674243,0.9761409295,0.5934957846,-0.5535059715,0.3705855488,0.1838328859,0.7790834999,-0.0917093207,0.8124203145,0.4929744912,0.3976805455,0.1631137614,-0.2639879079,0.7160990435,-0.9376443169,0.6231416127,0.2055768979,0.8467976168,-0.6704258708,0.1772557099,-0.7632440381,0.9895640161,0.8991960155,-0.3390113758,0.4057957735,-0.6291052606,-0.5857712784,0.7114918902,0.6034552917,-0.4589960546,-0.9778943034,0.4006119976,0.3355827774,0.7332993086,-0.9751045017,-0.16712422,0.9211335864,0.8559602871,0.482257576,0.8236350678,0.3321501059,0.1234364636,0.8593318527,0.4516682511,0.6164798222,-0.914685409,0.6567456592,-0.2376922586,-0.0957264141,0.029471097,-0.0121903186,0.3268673577,-0.5650165468,0.3615729132,-0.7279994093,0.9040548987,-0.0244470641,0.9085575249,-0.1947604057,0.0538187928,0.5086480805,0.6254106823,0.4146193523,0.7242383112,0.8596714584,-0.8251008756,0.0549570236,-0.9237592433,0.2880474935,-0.3644122915,0.4807698822,0.7079905685,0.1673390915,-0.9675789538,0.8241952776,-0.3453378054,0.5670390168,-0.9791949671,0.2424185763,0.9431377247,-0.7875641125,0.8564090192,0.400706281,-0.1839099449,-0.2094308569,-0.7510710087,0.2282633908,0.0088690626,-0.4020485921,-0.4393218232,-0.6684989227,-0.1454426244,0.790926188,-0.8724991883,-0.5308065045,-0.349452847,-0.7786019938,-0.7536182389,0.1786797,0.8217870946,0.6716887942,-0.4943637783,0.9703675779,-0.0177573418,0.9065133925,-0.4149695724,-0.6094298863,-0.9001751019,-0.2036632062,-0.2858874363,-0.806281014,-0.3858761791,-0.4377528319,0.5871482729,0.4081870991,0.5091091809,0.4471113689,-0.4178052388,-0.4753089542,0.5651326634,-0.2960200392,0.9632752493,-0.3983260931,0.3567034619,1.1363234075,-0.5892609809,0.3651043764,0.4171485203,0.3327154728,-0.6340621969,0.3560192024,-0.6187947279,-0.6855824683,-0.0521059673,-0.9444177924,0.1351708034,0.0734180132,-0.3442024726,-1.0040423544,-0.1535434656,-0.0300623045,0.4248842853,-0.0919983133,0.1963180661,-0.3506076361,-0.3260494768,0.8244720682,-0.5605490392,-0.9729309191,0.5229944094,0.2137454791,0.549627682,-0.3751088984,-0.1575416762,0.1076975264,-0.6348277036,0.5799660343,0.4212554791,0.2323473991,0.6028220345,0.7051734488,-0.9238694874,0.0882431707,0.1858731909,0.7588754434,0.7594087179,-0.8370697314,-0.7934259232,-0.5133835924,0.7491960826,0.9700971345,0.1001634624,-0.357960924,1.5765172937,-0.7790729819,0.7316850493,0.4234814505,0.6182390465,-0.0676269528,0.75078873,-0.7284062307,-0.427343184,-0.4410724543,0.9778290684,0.6140660467,-0.9074950025,-0.8751897466,0.8407618523,-0.3406447512,-0.3253841112,0.3064807336,-0.7641525241,-0.8714489397,0.8955569613,-0.3269170885,-0.7425778368,0.7706521252,-0.5712310189,0.5688705219,0.2349194883,-0.1437101627,-0.5734334984,-0.4182990777,-0.1481440682,0.5831724796,-0.189137179,0.3978794636,0.2180506133,0.6474979564,-0.0577135189,0.0444150199,0.1595838268,0.9795587348,0.2606178304,0.8371276816,0.8661586055,0.0321052786,-0.8986555264,0.8922111193,0.940451118,-0.1159744319,0.6865721176,-0.121179358,-0.6709255867,0.3541252266,-0.6567670962,-0.7187531351,0.591282737,-0.8717623798,-0.510678704,0.515413008,0.2282321579,-0.0901446647,-0.1607831104,-0.8582365968,-0.8261550974,0.5388411967,-0.4855253228,0.6780561635,-0.3278885368,-0.9462990244,0.1572145628,-0.7258227255,-0.1837697202,-0.0920041881,0.0764504492,-0.7100616065,-0.7813227392,0.0404993342,0.3517892522,-0.2901853702,-0.5765248717,-0.9827712002,0.9727225708,0.2808679167,-0.1069977607,-0.8720104238,0.9473714909,-0.7360289847,0.2261537475,-0.3914519637,0.4535720876,0.3590761659,0.2045792086,0.5217418467,0.9368256224,-0.226947072,-0.0354763937,-0.7143380659,-0.7412247822,-0.6443978551,0.1195416417,0.4077099583,-0.2202770103,0.0323847696,-0.1577945876,-0.1730710154,0.5710516917,0.1988942506,-0.9381304805,0.9419180271,-0.5902297045,-0.1880347418,0.5276482929,0.8182705131,0.0459403216,0.5530713219,-0.0324890543,0.2439369607,0.2182413366,-0.1438265831,0.1701957928,-0.116093391,-0.1644784197,-0.8513791367,-0.827203255,0.4055423395,-0.9189240376,-0.1203978012,0.3602176008,0.5909032143,0.5439625803,-0.3160929014,0.5622088315,-0.5203646436,-0.6714761285,0.5340117358,0.191032398,0.4841603942,-0.7810399714,0.8147512157,-0.5854837672,-0.4932431389,0.7653832153,-0.489468504,0.2096346047,-0.9242387559,-0.5115017445,0.182402767,0.6972467035,0.4602152021,-0.2642354945,-0.664728527,0.476706702,-0.168692283,-0.8497073713,0.3575439212,0.1634286169,0.3266257108,0.8148503546,-0.3172714325,0.3301981092,0.2212001186,0.8866242955,0.9277511253,0.0582814132,-0.9585617433,-0.650494493,-0.9409776859,0.8719349088,-0.336656173,-0.4224111713,0.4252570072,-0.7154396363,0.4809031228,0.9580990712,0.9937035276,0.4737159088,-0.4531310251,0.6196284441,0.3611466734,0.6271931806,0.5446262223,-0.179196751,-0.0373067648,-0.9675643085,-0.5740393328,-0.0793603849,-0.8173706375,0.1741680972,-0.9351603718,0.5670936845,-0.5489220015,-0.0836131725,-0.0567083921,-0.1903295551,0.3665052364,-0.4976225355,-0.1586273148,0.2532997311,-0.1479844469,-0.1027549934,-0.8884504326,-0.8455907711,0.2865142311,-0.3096491037,0.6553432864,0.4613389493,0.6467545874,-0.6639286038,-0.0492987603,-0.8433095548,0.4466477537,-0.7361282516,-0.744911133,-0.8118278084,0.0014689375,-0.0180934997,-0.317133309,-0.3508779086,0.9606178278,0.2217867513,-0.6404831043,0.9280074246,-0.5596019728,-0.9399206972,-0.4823447802,0.8277109829,-0.7535399447,0.0389531788,0.6535295704,0.6683115942,-0.8018076913,-0.7160348678,0.6124686025,-0.5964071068,-0.3350870525,-0.3555853476,0.775585679,-0.1839112017,0.5424312414,0.8161336118,0.1379875574,0.53324477,-0.572808481,-0.5450701296,-0.6382158339,0.2681885839,-0.2823956905,-0.696215908,-0.8781833562,-0.1481567687,0.7539269751,-0.6627089563,0.1017055743,0.4039914206,-0.0648164078,-0.1434929379,0.7098760518,0.0826665177,-0.8362929957,-0.8251719284,-0.7425485527,0.011523484,-0.2387025735,0.9429333176,0.6682503377,-0.8468366324,-0.7647584354,-0.4545013731,-0.4503453919,0.0655093486,0.4962395206,-0.6596916654,0.1680929584,0.792206284,0.5818326963,-0.997069054,0.8301466136,0.5648713132,0.4714995119,-0.7795982547,-0.5526099247,-0.580459673,0.4182581784,0.2614630325,-0.8003110879,-0.2273890771,-0.1176503976,-0.3829765802,0.1340844458,0.1695567166,0.9522765927,-0.3689705826,0.8025228708,0.5170747548,0.0639885156,-0.8801317866,-0.0834753299,0.4469435178,-0.409056813,-0.990349702,-0.0776629384,0.2592296111,-0.562535214,-0.055675725,0.6379102183,0.6921771542,0.7487144443,-0.0874807196,0.8871387855,0.8973667219,-0.5186813078,-0.1142703216,0.1674694528,-0.3430343977,0.0114771386,-0.5756939531,0.1695449666,-0.8162973781,0.8138107416,0.3277048775,0.5108522244,0.7654519074,0.0144289048,0.2348899252,0.2973443931,0.3206469963,-0.8961835818,0.2621771933,-0.2322961636,-0.0125962048,0.4874251589,0.621004184,-0.0646353291,-0.000535744,-0.8417693278,0.2654542475,0.1206123169,-0.0384399641,0.2766905727,0.4616049116,-0.2511923354,0.7198076441,0.8394354512,0.491839975,-0.1743551268,-0.0646315802,-0.7112875531,-0.7807739523,0.6270853926,-0.5469267701,0.0832022621,0.7262507329,-0.7237406704,-0.4949483881,0.5416490249,-0.0356755986,-0.3477210573,-0.230429559,0.0768084913,0.3209718886,0.9245677765,-0.5365298401,0.1744918055,-0.6593566207,-0.7552875514,-0.1373922708,0.8594503086,0.2283307716,-0.6636904953,0.0692672486,-0.634250213,-0.3871665708,-0.8824809789,0.4855194757,-0.2737963736,1.0022705366,-0.8537421391,-0.4542019001,0.4501924301,0.5882469189,0.2566985717,-0.9694609519,0.0182315464,0.769648161,-0.875205622,-0.1857217414,0.744181314,-0.2032836156,0.08561729,-0.5728242561,0.1960809163,-0.7369699797,0.0921448879,-0.3270414477,0.8198500552,0.0972180449,-0.3189217821,0.2613519845,-0.2566768074,-0.1843169902,0.9847775847,0.4829461169,0.2224936028,0.2799983939,0.6831019066,0.6574716898,-0.65728783,-0.6555071467,0.8246158138,0.0883157163,-0.3660250698,0.5524930114,0.8027337612,0.3647162875,0.6981767713,0.3809456991,0.7464765182,-0.8641911833,0.8205145931,0.5583856503,-0.4748209045,-0.2884479827,0.6188994086,-0.9684807655,-0.0417288507,0.7099290632,0.6447993004,-0.1259461936,0.7059993105,-0.3527406726,-0.976857878,0.9728657027,-0.2313368914,0.5568247104,-0.9370152814,-0.5495577654,0.1735135097,-0.3259581771,0.9053541257,-0.3994721547,-0.4323022576,0.9823705524,-0.8747053457,-0.1260943684,-0.132134863,-0.0897331518,0.3770238282,-0.4660676568,0.8689344254,0.9037593871,0.9755252956,-0.6680331664,-0.1499486178,-0.9194464504,0.6176392679,-0.4448227652,-0.7566574129,-0.1751313637,-0.1421455646,-0.3985922961,0.2358367851,0.4676749,-0.1018695082,-0.3195631197,0.3932418171,-0.148392802,0.0854427664,0.0631080501,-0.7286627859,-0.0099979164,-0.389046777,-0.594455032,0.070303156,-0.3221775944,-0.9027521325,-0.3070686983,-0.7375430537,0.1271460047,0.2424979441,0.1907769766,0.1767584923,0.5860531891,-0.5860530962,-0.9716394563,0.6410988212,-0.0254279265,-0.6694768751,0.8125543398,0.6424955828,0.4712563735,0.63951559,0.2528313251,-0.0876682975,-0.8027784762,-0.3722324654,-0.2491929436,-0.0335769407,-0.2137645401,-0.5055636693,-0.914120094,-0.2434391812,0.0730608392,0.6643177605,-0.9801998838,-0.9475459565,-0.3778709538,-0.2389474613,0.8990651606,0.6527483831,-0.5336800017,-0.4985094692,0.2802680384,-0.6062892854,-0.3561676443,0.3429788359,0.611651848,-0.3958721486,0.8508874453,0.0225328986,0.7633717895,0.8654056962,0.0823994298,-0.7674754179,0.7605054301,-0.5623111616,0.2995915541,-0.7754589338,-0.6995643117,-0.0383895641,-0.1794134843,-0.5186630159,-0.5416248211,-0.8774587476,0.9714537909,-0.7309428192,0.2927444558,-0.8048841389,0.2827788391,-0.6976037149,0.4502133904,-0.2478552584,0.3786653597,-0.638142326,-0.1558632002,-0.8278232076,-0.4901832953,-0.0567664616,-0.9777505179,0.4431993773,0.1580323472,-0.1348471026,-0.6488085987,0.6088689098,0.1413360171,-0.2137088653,0.1240912567,0.5001826583,0.128974607,0.088547664,0.3462398734,0.321967933,-0.6129890405,0.2610257554,0.140566625,-0.7226707235,-0.6931386136,0.6302842034,-0.7510985005,-0.7934080417,-0.9139137326,-0.0722806763,-0.7061750524,0.2092080032,-0.6774535937,-0.9725662912,0.6332829391,0.264346038,-0.3518785599,0.4470529426,-0.7907728735,0.8482121627,0.3617988172,0.0112259152,0.5314907243,0.5777332957,0.0665053907,0.5369885344,-0.8194128194,0.8201177,-0.7447899198,-0.6501474537,0.4771429932,-0.6678022138,-0.0440450077,0.0312647619,0.0825999703,-0.1331233937,-0.6211779705,-0.0758933093,-0.3604438822,-0.1956072761,-0.3888702586,-0.1467604258,0.3876063516,-0.1989168016,0.7370191973,0.3578847611,0.4726177319,-0.3638381984,-0.6899810915,-0.6774316802,-0.7838347893,0.4692999801,0.1164056549,0.404463747,0.4828561595,-0.4051150246,-0.8166494423,-0.3349774289,0.5482220254,-0.3929567647,-0.6854716899,-0.2630821914,-0.265543324,-0.0783299594,0.5927090055,0.8914121013,-0.495668309,0.3732981322,0.0950091644,0.191224883,-0.248093165,0.049834598,0.7265561855,0.6552111699,-0.3002919758,0.6984375173,0.4291017528,0.2397178014,-0.7801113124,-0.4327880442,-0.7316454415,-0.6055121466,-0.1316884214,0.4935693864,0.4944418359,-0.6096650025,0.0232376526,-0.6313013487,0.0198836739,0.2222943379,0.0288561965,-0.999094944,0.867487016,-0.5997924048,-0.7114881586,0.3138035061,-0.9585965165,-0.9724679851,-0.5989688327,-0.5589580894,0.0971502361,-1.0014135691,-0.6700299169,0.9108346275,0.5836271016,0.3386465298,0.4272581611,0.639469929,-0.960164584,-0.220595872,-0.3116655873,-0.6163416633,-0.873291481,-0.5676263002,0.7654920849,-0.6683154482,0.7998698168,-0.271623272,-0.8402812035,-0.2965962514,-0.6413262209,0.3842854527,-0.709124675,-0.3236177042,0.683331896,-0.2394664321,-0.3635692024,-0.4726795229,0.2242517765,-0.1463753654,0.0992847207,-0.2322594576,0.2336815141,-0.5457830607,0.5363282189,0.2546731004,0.8183692895,-0.6973013059,0.3467459935,-0.6644525834,-0.8276356051,-0.8635565429,0.0953031234,0.976273512,0.4060019405,0.8949622325,-0.950359819,-0.1348104989,-0.5213695575,-0.3021636821,-0.0065961673,0.5325534262,0.9248062219,-0.4879921504,-0.5231359852,0.5287631704,-0.6727521162,-0.7920434486,-0.882615692,-0.5355312577,-0.2222496453,0.7584183698,0.7557561456,0.2292787918,-0.8698044562,-0.2022060459,-0.6085099014,0.0450607904,-0.953329012,0.9373999133,-0.9182736195,-0.3979201865,-0.5168039162,0.7789686113,0.5672390081,0.1894165599,-0.8887843655,-0.8897101282,-0.1380153318,0.9830444975,-0.7617144828,0.0135228469,0.6946234864,-0.2447759494,0.258652451,-0.9948556834,-0.2734460633,0.4336888783,-0.5949137882,0.1353242552,-0.3195785139,0.0174142483,-0.6533030335,-0.8817506507,0.5090728708,-0.2658747859,-0.5781926088,0.4758606114,0.4775071698,0.1023770278,-0.9791785616,0.636482125,-0.712386734,0.3813300612,0.6118508807,-0.9157627393,-0.7521372792,-0.9503905834,0.576888584,-0.5233564653,0.3458835687,-0.4156407669,0.734919707,0.7405351612,-0.6069486333,-0.7445488019,-0.7683226112,0.2557489193,-0.8281017267,0.2877988114,-0.2611951245,0.9330488861,-0.4679290913,-0.9269354181,0.5575128246,0.3096568996,0.5054855092,-0.9678949003,-0.235977941,-0.140468838,-0.5270034377,0.5142507214,0.3156724449,-0.2139111207,0.2670478483,0.5569047377,-0.8141813834,0.461035223,0.2900529057,-0.6828588177,0.4866410677,-0.6698713507,-0.3745416949,0.5652525239,0.5894405071,0.3878621591,0.2300801702,0.9286507982,-0.7599058153,0.6546598514,0.9646751182,-1.0562380668,0.7815560209,-0.0637148844,0.7939639944,0.5206559466,-0.9344350012,-0.191556791,-0.1266927096,-0.590715992,0.7914718284,0.3519342683,0.6822212659,0.9806997398,0.5279891956,-0.2753818706,-0.838988861,-0.9793879764,-0.1675514728,-0.7084773629,-0.1810196652,0.9201185408,0.5029417696,0.2495645389,0.8748806781,0.8062244735,-0.5506675583,-0.6770285378,-0.6532352409,0.5975650911,0.0667233227,-0.4090929972,0.172086235,-0.5514933321,-1.0277080153,-0.3128572345,-0.4379471924,0.2521836396,0.4306169395,0.9057046105,-0.2379620343,-0.6348247478,-0.8574837603,0.3425963433,0.2402500708,-0.545299721,-0.666113024,0.0148357733,-0.8906182668,0.6663120615,-0.8214309783,-0.033857817,-0.0768481523,-0.2474481761,0.2815934151,-0.559013885,-0.8152098316,-0.7966664594,-0.045328887,-0.0366550723,0.8811904051,0.3457289164,-0.7159960668,0.4404213365,0.1486066218,0.5214228322,-0.239565723,0.4317950789,0.1675899174,0.1597900913,0.4602178412,-0.9769219782,-0.686903441,-0.0800790273,-0.5377799206,0.2198647737,0.2898702819,-0.1765050891,0.3621156297,-0.1367916388,-0.7412138073,0.3159872877,0.0531799306,0.8779555577,0.9318513892,-0.2958577983,-0.5579684905,0.3565556261,-0.2567863714,0.6346652931,0.7464550559,0.6797521978,0.9786434965,-0.1545979056,0.5566944387,0.6461108511,-0.2422395968,-1.0025237452,0.9792162708,0.6083035384,0.5496316616,0.1339922852,0.7492062956,-0.4133563682,-0.3614137956,-0.1002595427,0.3944103273,0.378753126,0.9791932258,-0.0184680008,-0.7065869682,0.7317344029,0.7343903579,-0.9408261602,0.8550213732,0.4165757925,0.7920976239,0.6675486465,-0.3561115059,0.3838471056,-0.3149118682,0.0050983073,0.4653862974,-0.1281707583,-0.221119708,-0.8576853071,-0.4747199726,-0.486123712,0.4015431667,0.1019513713,-0.4749998479,0.606667043,0.9226803265,0.061009197,0.8324241067,-0.0631130253,-0.0427393287,0.3815283443,0.5599306815,-0.8352518764,0.4241969423,-0.1822962021,-0.287163567,0.0063513979,-0.6561630645,-0.0164078785,-0.1946874605,0.9696526404,0.0965291547,-0.8657422731,-0.0994821113,-0.6876812682,-0.9257093609,-0.7124843271,0.914558103,-0.8510347331,0.4876551929,-0.2423039053,0.9497923389,-0.4929249323,0.7571341413,-0.7900548622,0.1748944588,-0.6043689092,-0.4177443327,0.4946401405,0.858662584,-0.1700676006,0.1808803546,0.2346307151,0.3447060603,0.7512661926,0.021954176,-0.7102602993,-0.6150336919,-0.4314954323,-0.4062427084,-0.3515125065,-0.9561527736,-0.1801736926,0.5617808497,-0.1051445701,-0.6358896035,-0.135930663,-0.761208369,-0.0985984445,-0.3456088595,-0.8495746211,0.4365190108,0.2659466761,-0.6308737329,-0.4746488481,0.2101070628,-0.6826817621,0.6681296705,-0.90390184,0.9601361548,-0.6260606969,-0.9483738312,-0.5584381495,-0.3431794965,0.4826582995,-0.0321176678,-0.1169042478,0.1822013039,0.9808103862,-0.4655805504,0.2676061853,0.9754750604,-0.0948273159,0.811729904,-0.4311459517,0.2609242128,-0.2299624841,-0.9482458427,0.4703870403,-0.0086824523,-0.8767619689,-0.2457889966,0.0715696652,-0.3426891072,-0.7791634247,-0.462618777,0.3757985818,-0.8743485636,0.642272026,0.7322020739,-0.9041258252,-0.6710685429,-0.3333176162,0.0082206563,0.1325209759,0.8635905631,-0.4977461082,-0.9935004036,0.6845555843,0.4845860285,0.4422523814,0.9253924995,-0.2193974601,0.0172989245,-0.001528875,-0.8085434894,-0.8429087179,0.6930175918,-0.9133328715,0.0511016388,-0.8448861865,0.3210274395,-0.9808219636,-0.7621847698,0.6407898315,-0.1291358771,0.9470063812,0.5309615524,-0.0306161018,0.1227666428,0.3416457899,0.4564374608,0.2266103782,0.2688789003,-0.4246539135,0.8216697673,-0.2442358624,0.6048209258,0.7567930057,-0.5488602082,0.8172761553,0.508237356,-0.4820276796,0.8118769399,-0.0848264785,-0.4906888139,-0.7454432993,0.3026977038,-0.8346696869,-0.4850301523,0.1725818978,-0.5343697586,-0.3173243526,-0.4080634803,0.6833588114,0.1745419852,-0.1732852307,0.5939908014,-0.2263922469,-0.5690145679,0.1644998385,-0.1870927109,-0.0689433419,-0.114280227,-0.6863938707,-0.6271630333,-0.5809100763,0.5510365047,0.1282811543,-0.6713655171,-0.8972255942,-0.5339724722,0.2545642112,-0.1726091292,-0.9786072837,-0.0087114607,0.504889492,-0.0535435704,-0.9858403234,0.1019201854,0.4215479329,0.2833472107,-0.6487568188,0.2952212395,-0.1459291276,-0.4035698909,-0.6369189514,0.649335668,0.143712621,-0.5937068601,0.0374990803,-0.6743305733,0.6119432887,0.6306684092,0.6763011319,-0.8710409249,-0.8024960936,0.2634985194,-0.475789427,0.398656698,-0.9218839947,-0.2857384192,0.3496965554,0.9242655251,-0.7025069954,0.0252317639,-0.8802218656,-0.2309042219,-0.6104701094,-0.1154339598,0.5927234251,0.765046642,0.0038702192,0.572097096,0.994805133,-0.3174258529,-0.4710336301,0.4986052121,0.4782162127,0.7352203308,0.7195829182,-0.1183831753,0.055824994,-0.6720793843,-0.6778694423,-0.6619055837,-0.0828155269,0.2566732185,0.6926554564,0.3406168747,0.2173893689,-0.9000313625,0.4348895727,0.292680996,-0.3351947328,0.0970601131,-0.9859262733,0.7391026515,0.1367472268,-0.8519193669,0.4112586549,-0.0856341674,-0.6799236628,0.3636736451,0.6200104444,-0.0415715549,-0.6791402372,0.6851235905,0.524920215,0.8998180616,-0.674497913,0.6358373974,0.2829770097,-0.3962665439,0.2226167105,0.340411787,0.2015087184,0.3306538498,1.0644394405,-0.6544215776,0.8208951836,-0.6317364968,-0.1681483568,0.0711642755,0.0286698909,-0.3562504459,0.3775567466,1.0013427698,0.1308297029,-0.6457487694,0.4069028644,-0.7963176514,-0.1278514385,0.6144130923,0.6877405238,0.9637839057,-0.9081855093,0.0235036425,0.8723401619,0.3912299143,0.6701645479,-0.6475109345,-0.7551677745,0.0648856554,-0.3387770054,0.1757384367,0.6731519482,-0.3635923743,0.6586517809,0.330007716,-0.8385668736,0.4740137499,-0.0916322078,1.0088091641,0.6905442695,0.2784598321,-0.3161234061,0.3473840005,-0.1862977837,-0.2856327958,-0.5093157421,-0.3453383553,0.2521179899,-0.9160127933,0.0274425059,0.5555711101,-0.4612235234,0.6453524636,0.2491692798,0.3398764278,-0.3350772793,-0.1268382121,-0.2071633366,0.4469628248,-0.468126173,-0.4252288187,-0.3187164133,-0.9145718823,-0.0041128272,0.251198752,0.928791141,-0.139264842,-0.1681632168,-0.2846183509,-0.844269892,0.3953010707,-0.8477215212,0.8651238363,-0.7705305756,0.9783221587,-0.7062897927,0.3142418549,-0.1235149406,-0.8620200576,0.0041392216,-0.33563695,0.3331421095,0.3218666629,-0.3144894343,-0.5236414602,0.9205510739,0.4914944714,0.2203776663,0.2118299298,-0.2791365465,0.7593510292,-0.4565380921,0.7756375373,-0.8283405421,0.0432130199,0.2555275872,-0.8027632447,0.7205639155,-0.4944200248,0.2855220236,-0.8430902581,-0.6037804509,-0.4393430731,-0.5402024526,0.7211397,0.4959924126,0.2154726706,0.1697657514,0.879519374,0.172422049,-0.6129987624,-0.3835679173,0.9294597494,-0.3242245045,-0.7764539471,-0.7142545785,0.2899121826,-0.2813409527,-0.8120139535,-0.0644019783,0.0389753889,0.1520627543,0.0342338198,-0.6901671328,0.9687366796,0.3175064137,-0.3489311521,-0.6525337981,0.8780646996,0.8025891223,-0.6536571012,0.3328511982,0.8036357141,-0.3791548836,-0.6089826404,-0.9421746341,0.8629834285,0.3843916263,-0.5855389758,0.8457025476,0.6847466565,0.0931794273,0.467006385,-0.1550423065,-0.661071206,-0.0985539012,-0.8280896597,0.7454488035,-0.4739864289,0.6298293937,-0.1425620102,-0.3580421376,-0.2887600457,-0.8169442484,0.6298186327,-0.551663907,0.174027265,0.6179299845,-0.4277606944,0.2895792425,-0.7218015901,0.2821117171,0.7269427502,-0.2470701054,-0.5438895684,-0.079082831,0.4737950706,0.8683426157,-0.6159732499,-0.209037326,-0.6014038225,0.0454117209,0.1583111523,0.8449502689,0.5457894427,-0.2208567882,-0.6861362082,0.7732659775,-0.4622162332,0.1404907704,-0.9525154056,0.1840894259,0.6507247289,-0.8025123721,0.2851494126,0.7326529795,-0.9782817755,-0.7807163258,0.8549278793,-0.793869783,0.6380682794,0.5881052998,-0.3950031914,-0.3251416027,0.6419823635,0.0865907169,0.2803210483,-0.3822998321,-0.6938856668,0.9465177719,0.2460940881,0.0506408327,0.252065235,0.928799161,0.0900981801,-0.3637635316,0.4587753639,0.632864466,-0.4510792172,0.8078984802,0.706366508,-0.5840257694,0.6188569892,-0.0934207309,0.8477863466,-0.16480278,0.5967833229,-0.6727367594,-0.6217497298,0.6885782408,0.7751400038,-0.4245337317,0.1894639425,-0.7319526117,0.4536225125,-0.5094015192,-0.6366909113,-0.6484804411,-0.9626774637,0.2462890797,-0.8312174511,0.4355653046,0.3390129442,-0.3941612957,0.2656295169,-0.5011635639,-0.057196852,-0.0194499316,-0.5303085868,-0.6297948872,0.8233697369,0.5629616332,0.5792812707,0.6525628811,0.0067924567,-0.6848013197,-0.2950861092,-0.0713591474,-0.6277174972,-0.5308906027,0.0786692804,-0.1419500594,-0.3009088938,-0.7353129169,-0.4730080022,-0.670971839,0.7760292089,0.225905621,-0.8474716118,-0.4223890113,-0.5062416182,-0.6955415452,-0.6672423819,0.2933761495,-0.0149019229,1.0401870125,-0.4068314164,-0.2283004874,-0.2127111649,-0.6199007922,0.83100659,-0.9859209701,-0.0998043793,0.4228224215,-0.2719371911,-0.1444845569,0.9683538761,-0.087747107,0.4744965502,-0.870428053,-0.6166095577,-0.3054253455,-0.8487494811,0.7407435911,-0.5926754998,-0.2178518569,-0.2638446444,-0.2086056103,-0.7180648014,0.4176804483,0.2889990917,0.7930449747,-0.5906494476,0.4307848873,-0.9512952054,-0.4177617238,0.4126787414,0.680245621,0.5591390464,-0.2318433753,-0.7129352141,-0.6324742697,-0.1737691518,0.5594814913,-0.4674841254,-0.9683883249,0.3753444902,-0.9594807642,-0.6984932772,-0.7822923609,0.4443424743,0.2513747517,-0.5908996211,0.5003167921,-0.9145426971,-0.6523003217,-0.3517895258,0.6818104594,0.2670756728,-0.2741640201,0.7431128153,0.5769111598
